0.0396384	0.0329206	-0.0285847	0.0417941	0.0187267	0.00809715	0.00350004	0.023701	-0.0086398	0.0479597	-0.0265467	-0.00987958	-0.0260601	0.0256683	0.0119263	0.0235952	-0.00335149	-0.0470052	0.0201773	-0.0319529	0.0336485	-0.0120119	0.0273006	-0.0309899	0.0188735	-0.030092	0.00219851	-0.00233765	0.0410325	0.0388814	0.0157508	0.032922
0.368106	0.397007	0.458234	0.425744	0.415896	0.40888	-0.415549	0.374655	0.446882	0.350706	0.453779	-0.456076	0.338614	-0.347791	-0.320818	0.479171	0.374858	-0.453811	-0.405551	0.400131	-0.426129	0.423736	0.422946	0.343748	-0.415464	0.437352	-0.321891	0.407832	-0.460929	-0.453619	-0.363549	-0.412299
0.395934	0.376174	0.481384	0.453295	0.328511	0.422881	-0.424519	0.409179	0.41216	0.434761	0.355765	-0.451259	0.467163	-0.383676	-0.383495	0.451531	0.288033	-0.44641	-0.391227	0.387235	-0.416524	0.337282	0.345683	0.420562	-0.394155	0.406995	-0.359101	0.388307	-0.366823	-0.412463	-0.33967	-0.368095
0.37115	0.452809	0.303389	0.358003	0.459076	0.350025	-0.387183	0.279765	0.427705	0.42669	0.451915	-0.388057	0.484817	-0.467838	-0.447606	0.333388	0.346221	-0.446164	-0.452908	0.394967	-0.362379	0.433346	0.465568	0.338023	-0.439236	0.474236	-0.360199	0.395295	-0.455768	-0.419588	-0.411971	-0.424948
0.374577	0.416759	0.394455	0.399315	0.285263	0.443417	-0.360727	0.402853	0.425839	0.392806	0.382524	-0.407149	0.417014	-0.385009	-0.451418	0.458237	0.349665	-0.422555	-0.364916	0.437857	-0.443982	0.391088	0.406802	0.417153	-0.360284	0.418758	-0.411432	0.432485	-0.425083	-0.381511	-0.358034	-0.360604
0.344176	0.417946	0.306428	0.329519	0.382963	0.387902	-0.395858	0.263023	0.357806	0.296653	0.320793	-0.36725	0.291676	-0.304822	-0.395655	0.353534	0.283502	-0.343037	-0.331345	0.307852	-0.376794	0.274427	0.352267	0.391127	-0.406193	0.397443	-0.402291	0.315447	-0.358883	-0.34954	-0.32088	-0.365171
0.380278	0.469059	0.402066	0.42275	0.325912	0.316669	-0.406368	0.186281	0.442371	0.336879	0.395579	-0.397674	0.357064	-0.395033	-0.366525	0.447629	0.410372	-0.328272	-0.433817	0.432541	-0.391082	0.32353	0.388204	0.388844	-0.440323	0.323606	-0.440324	0.397263	-0.364372	-0.41597	-0.351379	-0.308812
0.458247	0.386652	0.411909	0.409037	0.423237	0.445432	-0.347117	0.451786	0.474517	0.438332	0.346221	-0.36233	0.3761	-0.392096	-0.362051	0.428035	0.508361	-0.391384	-0.359358	0.478456	-0.364729	0.447347	0.413071	0.412839	-0.431787	0.33489	-0.373473	0.423959	-0.488671	-0.370275	-0.403709	-0.440821
0.387793	0.385701	0.371426	0.37141	0.46133	0.417082	-0.352695	0.286951	0.340919	0.436283	0.333446	-0.352546	0.382084	-0.466493	-0.37686	0.330521	0.459167	-0.454168	-0.454544	0.435126	-0.443057	0.421724	0.346399	0.451966	-0.416843	0.423084	-0.433788	0.38056	-0.353561	-0.459944	-0.437239	-0.372698
0.481763	0.465382	0.305369	0.46807	0.50631	0.339524	-0.376744	0.489694	0.296171	0.467083	0.444572	-0.335499	0.260891	-0.342651	-0.372586	0.293607	0.336713	-0.357275	-0.51632	0.360265	-0.370728	0.402858	0.329821	0.447917	-0.435631	0.460477	-0.360496	0.433246	-0.350016	-0.336666	-0.375828	-0.44027
0.409164	0.353898	0.347025	0.430742	0.395396	0.410499	-0.298563	0.396428	0.345318	0.448379	0.416663	-0.444167	0.397587	-0.34154	-0.422721	0.242063	0.393382	-0.425039	-0.364578	0.363695	-0.413688	0.435032	0.405197	0.364821	-0.377317	0.4216	-0.453876	0.413585	-0.404722	-0.41214	-0.406598	-0.43614
0.42911	0.352887	0.408625	0.408246	0.398784	0.32112	-0.315699	0.334811	0.339635	0.453611	0.320276	-0.380185	0.19125	-0.42569	-0.318329	0.2237	0.174614	-0.42053	-0.397496	0.35976	-0.308129	0.368974	0.403352	0.412769	-0.388611	0.396152	-0.345924	0.283571	-0.335549	-0.374459	-0.432437	-0.427076
0.306776	0.453025	0.392867	0.397974	0.393738	0.338429	-0.427463	0.340488	0.388638	0.355435	0.371817	-0.369909	0.461445	-0.367345	-0.379286	0.387576	0.402717	-0.390767	-0.29656	0.425815	-0.344303	0.461655	0.444322	0.334635	-0.420538	0.36352	-0.46196	0.332169	-0.327157	-0.364165	-0.311962	-0.43911
0.356152	0.436665	0.442107	0.433524	0.387361	0.336891	-0.32193	0.481231	0.34143	0.398981	0.416731	-0.324017	0.515664	-0.454444	-0.352816	0.51612	0.452165	-0.401429	-0.404231	0.434714	-0.410464	0.341212	0.319945	0.321412	-0.316808	0.380118	-0.403818	0.454334	-0.468544	-0.320592	-0.350315	-0.332055
0.342598	0.390611	0.351966	0.379067	0.418211	0.432985	-0.367228	0.386547	0.353566	0.350039	0.347835	-0.353791	0.448161	-0.460559	-0.363207	0.39479	0.395475	-0.423694	-0.461983	0.419877	-0.424722	0.432815	0.35228	0.455324	-0.449955	0.332747	-0.459364	0.374228	-0.466683	-0.444445	-0.433919	-0.419855
0.435951	0.26958	0.404111	0.446579	0.40998	0.433953	-0.472043	0.392607	0.376057	0.355236	0.438854	-0.404079	0.47605	-0.356169	-0.458587	0.48805	0.42984	-0.373522	-0.400932	0.457692	-0.463982	0.431949	0.337436	0.397291	-0.372697	0.381577	-0.39707	0.371469	-0.40022	-0.387795	-0.402754	-0.452054
0.465353	0.326044	0.440485	0.44636	0.424985	0.415198	-0.362053	0.367441	0.326686	0.449525	0.346983	-0.456834	0.387635	-0.40293	-0.46695	0.4771	0.37818	-0.427541	-0.489269	0.475709	-0.465633	0.45134	0.340021	0.407258	-0.463353	0.405827	-0.422649	0.339999	-0.316678	-0.377686	-0.399317	-0.433718
0.399448	0.288911	0.396395	0.417631	0.410326	0.340456	-0.387987	0.421972	0.384679	0.354625	0.408638	-0.424415	0.334549	-0.417294	-0.442653	0.342296	0.42658	-0.373071	-0.388098	0.401714	-0.440904	0.304379	0.386712	0.395048	-0.425029	0.452359	-0.407721	0.345664	-0.396327	-0.333907	-0.37823	-0.380407
0.384675	0.31113	0.464552	0.350115	0.360986	0.464453	-0.412575	0.280612	0.341814	0.422521	0.410544	-0.359733	0.436394	-0.344779	-0.410626	0.396332	0.302336	-0.350071	-0.410985	0.469186	-0.452648	0.299662	0.414339	0.435348	-0.415722	0.429814	-0.458214	0.345189	-0.455342	-0.369842	-0.350534	-0.350442
0.358244	0.410408	0.333949	0.440514	0.460019	0.417714	-0.442359	0.474623	0.390142	0.418197	0.429029	-0.404676	0.398569	-0.431958	-0.464472	0.445792	0.411797	-0.460968	-0.357878	0.378683	-0.358483	0.45651	0.412931	0.456894	-0.428197	0.412454	-0.356286	0.434592	-0.395935	-0.423435	-0.452631	-0.380146
0.481016	0.398832	0.345945	0.398816	0.409562	0.456559	-0.372763	0.321674	0.446209	0.334847	0.478358	-0.462983	0.417321	-0.36742	-0.369801	0.488429	0.470694	-0.461887	-0.445317	0.408011	-0.417978	0.422392	0.405728	0.396954	-0.365577	0.427903	-0.399808	0.376751	-0.402639	-0.381742	-0.424237	-0.441995
0.396093	0.402785	0.420009	0.385344	0.33444	0.362577	-0.312037	0.401209	0.377366	0.422592	0.426929	-0.429124	0.322168	-0.368633	-0.413658	0.431335	0.381165	-0.35904	-0.323255	0.40846	-0.422704	0.343251	0.403427	0.38932	-0.368739	0.434961	-0.358442	0.352659	-0.361997	-0.371096	-0.375503	-0.421392
0.37595	0.355873	0.44289	0.421358	0.309731	0.447514	-0.34089	0.308501	0.396474	0.358065	0.422271	-0.455458	0.408716	-0.386101	-0.394173	0.48274	0.481527	-0.465786	-0.349516	0.401487	-0.418994	0.40538	0.485724	0.462447	-0.406236	0.392882	-0.451007	0.403245	-0.374482	-0.427211	-0.338757	-0.353961
0.469843	0.417644	0.470574	0.38364	0.379446	0.390968	-0.452834	0.503601	0.512206	0.38694	0.417075	-0.478051	0.449901	-0.412945	-0.367655	0.510996	0.493013	-0.393225	-0.483377	0.451042	-0.483544	0.480976	0.44676	0.437272	-0.459468	0.441874	-0.489258	0.466479	-0.367683	-0.406469	-0.411565	-0.433044
0.462803	0.248891	0.489507	0.363042	0.413007	0.369926	-0.409132	0.445707	0.345275	0.343508	0.445524	-0.447438	0.444318	-0.44313	-0.354797	0.498454	0.557417	-0.397764	-0.502617	0.363416	-0.36542	0.359715	0.34827	0.449138	-0.332794	0.392181	-0.341585	0.36883	-0.43305	-0.338048	-0.491972	-0.372805
0.364032	0.337968	0.296757	0.326937	0.409503	0.369425	-0.296956	0.353654	0.267768	0.36058	0.388709	-0.276611	0.31671	-0.376706	-0.388416	0.152254	0.210907	-0.284636	-0.398778	0.311872	-0.373706	0.23138	0.377455	0.306374	-0.325175	0.28244	-0.39496	0.280954	-0.327937	-0.387276	-0.282939	-0.405581
0.451897	0.398912	0.382142	0.381769	0.271353	0.382803	-0.19848	0.405368	0.296512	0.390261	0.320634	-0.330248	0.290942	-0.368369	-0.246577	0.394342	0.109816	-0.306715	-0.339601	0.397413	-0.313614	0.388898	0.347165	0.370712	-0.388872	0.369125	-0.308588	0.382805	-0.172935	-0.422314	-0.293872	-0.412638
0.378831	0.359269	0.379922	0.463027	0.442361	0.430677	-0.446041	0.465357	0.392063	0.467867	0.455996	-0.452637	0.498049	-0.407634	-0.411212	0.458144	0.511439	-0.386492	-0.485473	0.399595	-0.436439	0.483257	0.389655	0.4253	-0.445673	0.445888	-0.404471	0.405825	-0.394096	-0.454732	-0.467839	-0.449808
0.444466	0.338692	0.398919	0.376116	0.343057	0.452924	-0.401396	0.456771	0.423187	0.401444	0.356202	-0.411091	0.323661	-0.292526	-0.351106	0.390166	0.451889	-0.449676	-0.430942	0.392768	-0.377649	0.420135	0.422169	0.385344	-0.386163	0.338066	-0.326964	0.453824	-0.374816	-0.336791	-0.381864	-0.426136
0.455834	0.374558	0.427933	0.460103	0.44073	0.39035	-0.48506	0.505047	0.465434	0.385454	0.444325	-0.477203	0.409459	-0.473007	-0.334665	0.486574	0.509986	-0.445667	-0.440639	0.444966	-0.43206	0.419619	0.414386	0.402221	-0.448544	0.464558	-0.400823	0.392203	-0.342208	-0.37272	-0.469433	-0.399882
0.444456	0.439726	0.462002	0.417151	0.479606	0.345458	-0.364128	0.409871	0.339794	0.431336	0.383788	-0.390794	0.493925	-0.416266	-0.379927	0.383418	0.412238	-0.4469	-0.358576	0.426726	-0.370632	0.440049	0.478732	0.447477	-0.444628	0.383148	-0.361835	0.384985	-0.426526	-0.408841	-0.382797	-0.479596
0.463569	0.310611	0.510427	0.382822	0.434097	0.432555	-0.434469	0.363458	0.479245	0.449708	0.433849	-0.412527	0.398998	-0.47472	-0.374097	0.435897	0.486304	-0.405122	-0.331471	0.443966	-0.453596	0.42135	0.476163	0.386897	-0.447342	0.454379	-0.42542	0.45716	-0.488347	-0.411577	-0.369146	-0.478921
0.431109	0.337498	0.439877	0.333615	0.415637	0.438156	-0.450486	0.37228	0.472842	0.359716	0.363879	-0.334567	0.461463	-0.417922	-0.454724	0.460092	0.380153	-0.465586	-0.401096	0.413945	-0.381777	0.366581	0.466312	0.423072	-0.393164	0.424138	-0.471627	0.442703	-0.451596	-0.378234	-0.460234	-0.476363
0.317864	0.370101	0.384542	0.352828	0.491411	0.33011	-0.42792	0.456724	0.437495	0.402542	0.375224	-0.411947	0.381826	-0.372188	-0.463091	0.297608	0.469365	-0.334209	-0.315709	0.458412	-0.44936	0.404108	0.45599	0.425019	-0.455634	0.343183	-0.371413	0.425203	-0.38899	-0.398833	-0.378761	-0.398057
0.462867	0.382928	0.423924	0.395106	0.353825	0.419984	-0.394828	0.27103	0.421246	0.356612	0.394858	-0.39347	0.430432	-0.411676	-0.366954	0.364948	0.431686	-0.397787	-0.357087	0.447427	-0.425441	0.451698	0.425416	0.350763	-0.357515	0.40998	-0.362719	0.411022	-0.469438	-0.37717	-0.424466	-0.341557
0.433615	0.449366	0.372955	0.345674	0.378416	0.370796	-0.24624	0.255028	0.370441	0.434662	0.367305	-0.335172	0.35294	-0.393312	-0.416184	0.317077	0.373515	-0.420746	-0.471223	0.372884	-0.358117	0.396017	0.324469	0.349301	-0.391591	0.321479	-0.415139	0.372984	-0.369174	-0.406064	-0.3989	-0.427345
0.333112	0.361345	0.35128	0.338541	0.456825	0.344065	-0.272863	0.406677	0.338692	0.438106	0.458989	-0.340455	0.453457	-0.462271	-0.330591	0.480215	0.388087	-0.425431	-0.212155	0.400039	-0.46551	0.449952	0.395755	0.418364	-0.315412	0.404361	-0.45424	0.429808	-0.523858	-0.352499	-0.409711	-0.383634
0.415657	0.411191	0.457111	0.411778	0.432089	0.490021	-0.494387	0.471055	0.425529	0.383989	0.429443	-0.369214	0.382777	-0.383581	-0.395184	0.416833	0.487495	-0.410961	-0.371492	0.476066	-0.364264	0.425093	0.415122	0.412605	-0.39103	0.421351	-0.363876	0.366065	-0.366787	-0.411696	-0.346971	-0.468825
0.455991	0.332519	0.401424	0.405527	0.449472	0.410907	-0.471281	0.497495	0.419884	0.407232	0.499339	-0.43809	0.475284	-0.361578	-0.475875	0.436685	0.421519	-0.46728	-0.32458	0.474598	-0.46506	0.453013	0.459764	0.422757	-0.403868	0.4185	-0.350042	0.400374	-0.412949	-0.455774	-0.472588	-0.493458
0.459868	0.313468	0.232671	0.411948	0.284497	0.238812	-0.282892	0.360805	0.447054	0.318605	0.201994	-0.371637	0.18129	-0.336551	-0.012298	0.282081	0.118185	-0.228222	-0.101036	0.170733	-0.355931	0.231627	0.198981	0.308456	-0.227583	0.390298	-0.28193	0.411267	-0.161094	-0.353943	-0.356421	-0.204322
0.367972	0.334887	0.306388	0.315963	0.392419	0.365248	-0.359304	0.329207	0.382581	0.319716	0.410505	-0.413102	0.325729	-0.353826	-0.432878	0.38459	0.280051	-0.345558	-0.434647	0.430807	-0.420246	0.339199	0.349712	0.399527	-0.367404	0.340549	-0.385375	0.337845	-0.364771	-0.391573	-0.445697	-0.372149
0.353447	0.473407	0.356095	0.331867	0.452749	0.468029	-0.461592	0.468929	0.345738	0.383124	0.313974	-0.451964	0.494776	-0.357082	-0.437313	0.407276	0.491812	-0.371646	-0.366703	0.416009	-0.45405	0.430945	0.39739	0.420907	-0.42527	0.467204	-0.49173	0.34848	-0.403051	-0.462332	-0.32571	-0.391237
0.438027	0.429171	0.405739	0.436142	0.445761	0.437014	-0.447776	0.423377	0.404849	0.366259	0.433087	-0.403722	0.412304	-0.41417	-0.378392	0.437589	0.517315	-0.358433	-0.412924	0.457275	-0.458477	0.444824	0.421073	0.379238	-0.402331	0.352773	-0.366539	0.384694	-0.331947	-0.42718	-0.392906	-0.388379
0.493832	0.381296	0.416013	0.395532	0.323594	0.501812	-0.298518	0.431671	0.419057	0.521364	0.396006	-0.44639	0.415201	-0.300926	-0.460818	0.320531	0.389715	-0.374809	-0.347154	0.413634	-0.40658	0.44482	0.444766	0.440131	-0.359354	0.438793	-0.317288	0.359755	-0.421216	-0.455438	-0.452212	-0.399891
0.444264	0.340408	0.471331	0.397426	0.326671	0.42923	-0.355628	0.443067	0.404851	0.471005	0.370974	-0.368915	0.426637	-0.411883	-0.306191	0.356622	0.341776	-0.346159	-0.346429	0.338121	-0.403958	0.371303	0.33634	0.425866	-0.378167	0.356098	-0.280203	0.332696	-0.329769	-0.371912	-0.375576	-0.402673
0.410917	0.391847	0.410549	0.400646	0.40488	0.460527	-0.375641	0.421666	0.431713	0.34038	0.413737	-0.486339	0.438299	-0.464357	-0.351224	0.493118	0.498881	-0.393426	-0.410168	0.452927	-0.429193	0.486548	0.496007	0.433525	-0.387956	0.482246	-0.405858	0.412565	-0.448785	-0.476728	-0.405985	-0.476221
0.367876	0.436425	0.371595	0.377643	0.410221	0.404321	-0.331816	0.404234	0.469689	0.463678	0.426578	-0.401964	0.348724	-0.401092	-0.432567	0.383179	0.297145	-0.368596	-0.439911	0.388701	-0.356149	0.441025	0.448297	0.368578	-0.410411	0.406832	-0.372128	0.353303	-0.342525	-0.391657	-0.40345	-0.441939
0.448396	0.385635	0.466976	0.440929	0.393779	0.384122	-0.438548	0.410173	0.351749	0.476406	0.428676	-0.415208	0.436256	-0.359538	-0.405731	0.403117	0.507434	-0.43079	-0.357624	0.477221	-0.382022	0.37084	0.373657	0.346979	-0.364214	0.381703	-0.40358	0.456916	-0.311386	-0.399494	-0.398593	-0.365985
0.447108	0.378747	0.380089	0.432678	0.389149	0.436001	-0.391672	0.473143	0.432481	0.37663	0.366883	-0.400047	0.386698	-0.488584	-0.431734	0.364458	0.344358	-0.430376	-0.31729	0.430267	-0.466032	0.457471	0.342782	0.449426	-0.475337	0.421107	-0.412647	0.395562	-0.38152	-0.389814	-0.311291	-0.405402
0.458385	0.371658	0.514045	0.47981	0.422355	0.444833	-0.41824	0.383881	0.451234	0.429773	0.393928	-0.496245	0.394708	-0.357177	-0.472471	0.453084	0.427435	-0.383423	-0.333214	0.370172	-0.402475	0.452859	0.464505	0.399818	-0.461578	0.420024	-0.352114	0.43485	-0.480944	-0.434767	-0.469797	-0.406847
0.39281	0.300142	0.447898	0.428748	0.464326	0.411975	-0.476436	0.375327	0.44444	0.471655	0.335828	-0.421024	0.443284	-0.398352	-0.39538	0.428096	0.498086	-0.471628	-0.35405	0.421394	-0.383792	0.435027	0.475886	0.387841	-0.41084	0.469245	-0.297556	0.440202	-0.403499	-0.434932	-0.41529	-0.408302
0.466313	0.528155	0.323883	0.366243	0.497019	0.412686	-0.326891	0.313506	0.391332	0.447313	0.353345	-0.463422	0.461578	-0.386321	-0.378289	0.370077	0.448942	-0.416836	-0.477666	0.395578	-0.452344	0.360015	0.42556	0.402704	-0.33674	0.418553	-0.504637	0.390458	-0.40555	-0.480273	-0.503506	-0.442194
0.479203	0.410641	0.449065	0.364644	0.349414	0.411722	-0.312807	0.458248	0.457279	0.441769	0.446688	-0.475944	0.378365	-0.367946	-0.457805	0.437353	0.444914	-0.452002	-0.335009	0.406119	-0.446708	0.382989	0.430246	0.356879	-0.423218	0.367022	-0.422099	0.362797	-0.424897	-0.396369	-0.441757	-0.414365
0.352433	0.376001	0.386069	0.364531	0.290355	0.261546	-0.251416	0.406497	0.277099	0.396517	0.317587	-0.334193	0.201381	-0.313168	-0.328929	0.232067	0.158667	-0.321458	-0.313705	0.375772	-0.28773	0.287392	0.325544	0.380216	-0.366821	0.37526	-0.315212	0.316176	-0.297195	-0.339268	-0.30603	-0.397765
0.420332	0.433122	0.415815	0.412295	0.345038	0.388106	-0.194879	0.351883	0.460319	0.289589	0.406959	-0.363016	0.264893	-0.308499	-0.345401	0.437327	0.240284	-0.386466	-0.188042	0.281647	-0.320797	0.407315	0.311299	0.355889	-0.413373	0.281446	-0.321638	0.410636	-0.35026	-0.418808	-0.353972	-0.3864
0.349368	0.419653	0.35331	0.438098	0.330071	0.448097	-0.445568	0.369618	0.420467	0.463654	0.351789	-0.374105	0.464601	-0.42662	-0.447458	0.393184	0.490103	-0.485488	-0.463281	0.44975	-0.399524	0.416428	0.406199	0.445317	-0.364897	0.454193	-0.38178	0.427887	-0.434353	-0.421923	-0.350582	-0.396576
0.399506	0.328776	0.494122	0.376515	0.351086	0.424227	-0.363591	0.299178	0.465829	0.423004	0.48635	-0.389001	0.438103	-0.447085	-0.498443	0.426424	0.368107	-0.459025	-0.366738	0.440789	-0.363032	0.451804	0.43183	0.457881	-0.381214	0.457389	-0.37534	0.483008	-0.365948	-0.438045	-0.433533	-0.376566
0.410845	0.385763	0.419076	0.484309	0.47041	0.424289	-0.392464	0.388416	0.415243	0.346136	0.468705	-0.419084	0.402913	-0.39252	-0.378373	0.495631	0.436714	-0.388416	-0.319404	0.452747	-0.467907	0.450943	0.471573	0.446789	-0.472043	0.401021	-0.451141	0.43679	-0.3924	-0.475046	-0.424518	-0.40449
0.369653	0.363688	0.392726	0.367778	0.46169	0.38042	-0.447951	0.448963	0.389454	0.324809	0.410439	-0.387378	0.436588	-0.335956	-0.402974	0.424974	0.422218	-0.453754	-0.45403	0.405701	-0.367115	0.367261	0.428808	0.456918	-0.457899	0.44144	-0.358507	0.396829	-0.372842	-0.466298	-0.372648	-0.427703
0.451829	0.325157	0.46138	0.345297	0.392251	0.471018	-0.448201	0.294298	0.419207	0.482551	0.453823	-0.391694	0.41985	-0.466618	-0.390752	0.383997	0.468884	-0.387518	-0.402772	0.383463	-0.359984	0.33378	0.43328	0.447673	-0.413731	0.43314	-0.443647	0.374178	-0.429579	-0.470637	-0.457234	-0.395338
0.368565	0.288461	0.438182	0.384924	0.402299	0.453973	-0.388252	0.293686	0.405447	0.389479	0.34033	-0.373173	0.40852	-0.380038	-0.359318	0.310236	0.365352	-0.40244	-0.435392	0.414939	-0.363697	0.393078	0.458363	0.39352	-0.43287	0.355138	-0.393528	0.387417	-0.385961	-0.342862	-0.342562	-0.389467
0.387741	0.290994	0.332156	0.355341	0.496762	0.419212	-0.350158	0.349151	0.328168	0.38364	0.344975	-0.361164	0.33933	-0.341234	-0.322284	0.271759	0.390229	-0.361008	-0.436214	0.448607	-0.416654	0.456824	0.380434	0.366677	-0.388106	0.443538	-0.393345	0.433709	-0.417026	-0.445393	-0.435062	-0.401795
0.35902	0.437289	0.404855	0.336452	0.437846	0.437457	-0.386397	0.216863	0.38961	0.42947	0.318648	-0.415364	0.428361	-0.4066	-0.346973	0.428087	0.261189	-0.381672	-0.448366	0.387149	-0.3258	0.371399	0.326316	0.333202	-0.328879	0.405484	-0.353914	0.364042	-0.464733	-0.34324	-0.405958	-0.429668
0.37211	0.489777	0.476551	0.394289	0.492415	0.392123	-0.419807	0.453101	0.482212	0.37047	0.377381	-0.447974	0.471981	-0.493902	-0.500201	0.451922	0.458571	-0.481195	-0.485979	0.466944	-0.409183	0.387081	0.506345	0.46209	-0.468923	0.493435	-0.430573	0.443951	-0.362662	-0.426892	-0.477548	-0.366511
0.410773	0.442167	0.44038	0.385059	0.429674	0.496167	-0.432645	0.34924	0.432623	0.429623	0.486766	-0.453883	0.421547	-0.378538	-0.338312	0.451364	0.424971	-0.449693	-0.364965	0.402792	-0.447399	0.408499	0.351341	0.506008	-0.426916	0.472315	-0.352202	0.413853	-0.414296	-0.45721	-0.450777	-0.362785
0.387842	0.391746	0.351433	0.398403	0.382951	0.476386	-0.413248	0.351055	0.389358	0.372587	0.359268	-0.478725	0.472483	-0.388717	-0.42452	0.428244	0.358163	-0.409388	-0.389727	0.363629	-0.447301	0.409908	0.369295	0.478926	-0.400097	0.388722	-0.502396	0.408605	-0.418058	-0.39924	-0.428048	-0.47047
0.38124	0.458814	0.327766	0.4134	0.33835	0.392265	-0.366451	0.361207	0.345183	0.326231	0.399588	-0.347852	0.405917	-0.381865	-0.359251	0.44225	0.464258	-0.455084	-0.354406	0.468776	-0.427947	0.431371	0.402011	0.448195	-0.410692	0.390702	-0.346408	0.467338	-0.396753	-0.384224	-0.404599	-0.425722
0.389716	0.245356	0.270068	0.363469	0.466696	0.310557	-0.297456	0.228154	0.324672	0.44891	0.394523	-0.338296	0.335312	-0.367288	-0.36687	0.380649	0.40218	-0.345793	-0.424277	0.29121	-0.458571	0.339771	0.417607	0.311914	-0.410916	0.442559	-0.470333	0.383544	-0.28309	-0.401485	-0.444012	-0.454868
0.3719	0.404358	0.320049	0.364281	0.384805	0.444887	-0.358112	0.407253	0.343745	0.375383	0.413655	-0.364314	0.412753	-0.356032	-0.347735	0.358224	0.44672	-0.439216	-0.408739	0.383519	-0.362752	0.339615	0.309565	0.423247	-0.410452	0.389799	-0.317576	0.41822	-0.434262	-0.415814	-0.357413	-0.43413
0.324721	0.463712	0.50085	0.496739	0.41783	0.421168	-0.208707	0.330246	0.450383	0.279964	0.404994	-0.350364	0.384152	-0.359947	-0.395312	0.0812869	0.0235016	-0.411326	-0.324841	0.313138	-0.390036	0.405029	0.336629	0.315531	-0.337448	0.425665	-0.29803	0.362808	-0.425167	-0.381877	-0.342424	-0.392307
0.487039	0.40585	0.433516	0.467771	0.330219	0.457184	-0.429578	0.382939	0.417668	0.427081	0.444255	-0.471327	0.387566	-0.374317	-0.384962	0.435356	0.439312	-0.464584	-0.402516	0.459039	-0.396189	0.430724	0.460348	0.391311	-0.471591	0.413759	-0.418532	0.397857	-0.489931	-0.494779	-0.48741	-0.431184
0.329693	0.314897	0.470485	0.422818	0.373676	0.381833	-0.435779	0.351868	0.339638	0.417838	0.424867	-0.379948	0.397418	-0.428573	-0.385932	0.337487	0.297677	-0.429836	-0.384202	0.409809	-0.351667	0.350175	0.440023	0.407792	-0.367856	0.345995	-0.38933	0.371726	-0.373971	-0.39942	-0.404177	-0.338451
0.467886	0.465448	0.340274	0.457863	0.388429	0.468791	-0.342293	0.379729	0.39528	0.313387	0.47381	-0.491931	0.423941	-0.318022	-0.447467	0.515265	0.471159	-0.404341	-0.361228	0.422922	-0.49025	0.406903	0.431772	0.40419	-0.398834	0.483428	-0.425062	0.345473	-0.393293	-0.419928	-0.455968	-0.390734
0.451928	0.451346	0.488872	0.36913	0.394807	0.434023	-0.387754	0.499973	0.396932	0.438767	0.408905	-0.455844	0.341295	-0.414307	-0.44563	0.406579	0.500815	-0.454348	-0.392598	0.366295	-0.465386	0.442439	0.363638	0.388405	-0.394243	0.495662	-0.420696	0.450859	-0.379103	-0.483412	-0.430818	-0.481641
0.368744	0.386207	0.352863	0.412724	0.458579	0.422371	-0.405778	0.502677	0.40379	0.415501	0.426871	-0.466121	0.392055	-0.368551	-0.417616	0.429476	0.467567	-0.39111	-0.381152	0.42504	-0.419023	0.443528	0.466631	0.44591	-0.419738	0.441916	-0.455253	0.439917	-0.398891	-0.462118	-0.389569	-0.477419
0.393609	0.408163	0.327254	0.35827	0.38357	0.42169	-0.360929	0.373713	0.348316	0.462897	0.376415	-0.461105	0.342113	-0.389515	-0.44328	0.436521	0.445292	-0.439204	-0.343208	0.417768	-0.419849	0.405521	0.412553	0.376163	-0.425609	0.379299	-0.404276	0.386796	-0.425042	-0.403284	-0.448087	-0.437997
0.418208	0.421808	0.367269	0.479741	0.449872	0.388557	-0.418823	0.388909	0.311787	0.37685	0.424495	-0.432228	0.457108	-0.44836	-0.378644	0.339338	0.461504	-0.410652	-0.423961	0.378895	-0.386541	0.475492	0.346218	0.41142	-0.378425	0.392461	-0.366909	0.368789	-0.460094	-0.390043	-0.367992	-0.370526
0.482637	0.410615	0.466934	0.456293	0.391891	0.400324	-0.410214	0.465576	0.45293	0.478737	0.422866	-0.5035	0.372446	-0.434929	-0.466066	0.392504	0.385914	-0.475263	-0.337269	0.44851	-0.430403	0.446074	0.423043	0.473162	-0.444045	0.446912	-0.406475	0.467513	-0.425087	-0.41513	-0.409567	-0.428555
0.428989	0.393559	0.519117	0.420975	0.397438	0.504027	-0.446398	0.407536	0.367362	0.442797	0.397597	-0.402081	0.450855	-0.42606	-0.493528	0.432046	0.294388	-0.495278	-0.318871	0.454674	-0.499012	0.39198	0.432027	0.399643	-0.402013	0.453125	-0.393467	0.467622	-0.362563	-0.393371	-0.439318	-0.488768
0.489832	0.464325	0.363244	0.406477	0.395072	0.48649	-0.478597	0.415676	0.409925	0.407269	0.456496	-0.437903	0.40664	-0.365997	-0.465544	0.385242	0.353075	-0.401259	-0.478952	0.474398	-0.492074	0.377606	0.430668	0.455129	-0.484993	0.41172	-0.430194	0.418326	-0.381353	-0.389403	-0.485268	-0.47387
0.458495	0.26932	0.357832	0.480262	0.358486	0.367537	-0.349756	0.461046	0.404162	0.375701	0.434825	-0.365123	0.445273	-0.381826	-0.382949	0.386061	0.458988	-0.453863	-0.265015	0.36999	-0.381548	0.344233	0.376861	0.383916	-0.347303	0.416545	-0.364417	0.459855	-0.376702	-0.397105	-0.375689	-0.454695
0.281948	0.343415	0.149096	0.440793	0.399747	0.282964	-0.514969	0.458809	0.47518	0.339027	0.305274	-0.304036	0.446279	-0.358247	-0.303962	0.195416	0.483031	-0.384462	-0.297345	0.397428	-0.42875	0.25287	0.34389	0.215184	-0.370822	0.515838	-0.5074	0.287866	-0.378369	-0.439093	-0.273101	-0.219064
0.470472	0.410515	0.414706	0.445303	0.43271	0.407762	-0.543303	0.386316	0.402704	0.390732	0.346056	-0.48171	0.428451	-0.461301	-0.41754	0.406533	0.461369	-0.440296	-0.437406	0.498441	-0.446241	0.486316	0.413729	0.368214	-0.373531	0.38885	-0.52822	0.410587	-0.501847	-0.520323	-0.50262	-0.455258
0.411189	0.382885	0.35462	0.477197	0.387741	0.451924	-0.371634	0.347493	0.380935	0.364937	0.431118	-0.419055	0.421008	-0.447826	-0.339301	0.348515	0.451911	-0.436797	-0.318303	0.389159	-0.403954	0.422742	0.365002	0.438865	-0.458811	0.328495	-0.395929	0.372995	-0.377341	-0.344207	-0.352947	-0.422262
0.361371	0.445609	0.415226	0.398482	0.3697	0.442978	-0.430432	0.415597	0.425245	0.404653	0.473665	-0.409692	0.403041	-0.398258	-0.461581	0.494107	0.453506	-0.424367	-0.429152	0.40721	-0.446913	0.427001	0.410497	0.460162	-0.391677	0.448797	-0.377254	0.389443	-0.352557	-0.476627	-0.392018	-0.425508
0.31278	0.371705	0.412656	0.412901	0.343874	0.437691	-0.330828	0.451964	0.434774	0.317259	0.366282	-0.347456	0.432941	-0.430872	-0.415234	0.389654	0.406492	-0.458872	-0.270101	0.408958	-0.429725	0.38723	0.362515	0.40431	-0.366272	0.407499	-0.430361	0.323869	-0.402661	-0.335092	-0.431773	-0.441632
0.38194	0.244384	0.481333	0.449164	0.421563	0.404522	-0.378333	0.501836	0.385945	0.361083	0.426646	-0.402331	0.402697	-0.400032	-0.338796	0.464361	0.446527	-0.427462	-0.30094	0.450633	-0.406819	0.426522	0.350053	0.429276	-0.404179	0.40794	-0.292157	0.433433	-0.477085	-0.459331	-0.250632	-0.448946
0.364224	0.342136	0.402826	0.426081	0.351462	0.400639	-0.375528	0.317824	0.366275	0.420786	0.43931	-0.370581	0.391984	-0.456914	-0.371225	0.405219	0.361552	-0.395845	-0.314438	0.337449	-0.357815	0.403797	0.483561	0.43287	-0.44204	0.398655	-0.408291	0.382309	-0.335325	-0.463213	-0.392148	-0.407619
0.326609	0.401135	0.443085	0.406539	0.38169	0.481932	-0.436763	0.352774	0.311689	0.358175	0.348929	-0.321884	0.428105	-0.295006	-0.345288	0.458462	0.24698	-0.419998	-0.266358	0.459895	-0.394325	0.344037	0.34614	0.396984	-0.353536	0.439292	-0.384206	0.35214	-0.360484	-0.393935	-0.45847	-0.402914
0.455809	0.396368	0.359121	0.437278	0.361554	0.495454	-0.400542	0.425477	0.414439	0.362412	0.469367	-0.454804	0.43906	-0.401196	-0.46938	0.474176	0.401492	-0.424074	-0.380022	0.490548	-0.434667	0.396848	0.476233	0.396569	-0.472301	0.483804	-0.409837	0.450486	-0.383449	-0.440009	-0.426588	-0.448735
0.29921	0.344381	0.332246	0.274839	0.376611	0.357463	-0.414374	0.295694	0.323238	0.416208	0.359576	-0.322638	0.447753	-0.418742	-0.397876	0.372927	0.403561	-0.332505	-0.424054	0.333017	-0.411569	0.284474	0.424199	0.38726	-0.372802	0.38013	-0.407098	0.381257	-0.381434	-0.380108	-0.440065	-0.427454
0.50547	0.360267	0.459363	0.416871	0.445793	0.421195	-0.446756	0.441756	0.37111	0.394521	0.372127	-0.441209	0.417718	-0.42231	-0.434745	0.442385	0.382783	-0.412296	-0.445697	0.417993	-0.454731	0.487756	0.408276	0.492633	-0.495777	0.401651	-0.470128	0.463076	-0.333879	-0.412428	-0.443671	-0.496685
0.42597	0.391248	0.371496	0.427487	0.393128	0.395221	-0.394144	0.398394	0.436101	0.375608	0.39164	-0.426283	0.395831	-0.357078	-0.367691	0.448606	0.356856	-0.441948	-0.392802	0.407734	-0.377247	0.357583	0.430506	0.38695	-0.463344	0.388221	-0.359614	0.415168	-0.420052	-0.411373	-0.341909	-0.361139
0.446512	0.426942	0.394774	0.432356	0.41615	0.389975	-0.355099	0.423331	0.471374	0.489737	0.40685	-0.412559	0.421357	-0.441752	-0.471769	0.425994	0.439254	-0.501317	-0.393992	0.461219	-0.500183	0.417686	0.432901	0.495004	-0.373562	0.468719	-0.471918	0.487103	-0.385723	-0.487599	-0.462444	-0.473952
0.384649	0.469302	0.432122	0.352525	0.378615	0.43504	-0.377671	0.473672	0.423671	0.421477	0.426001	-0.391878	0.466144	-0.39416	-0.4003	0.392927	0.393395	-0.446751	-0.412232	0.456206	-0.38908	0.391638	0.354986	0.383996	-0.405809	0.369457	-0.406614	0.344932	-0.390827	-0.38822	-0.418376	-0.420584
0.400949	0.286093	0.417676	0.451044	0.435207	0.373309	-0.328525	0.349976	0.284516	0.347895	0.331989	-0.412841	0.347103	-0.439635	-0.340704	0.45078	0.484459	-0.422839	-0.500994	0.382136	-0.336491	0.349964	0.365789	0.357809	-0.458475	0.325292	-0.333043	0.367331	-0.481325	-0.352296	-0.397298	-0.469524
0.46695	0.421295	0.33779	0.431224	0.374713	0.389361	-0.382182	0.487071	0.383416	0.397271	0.369561	-0.416759	0.420315	-0.467456	-0.410787	0.346242	0.451457	-0.43201	-0.457263	0.441594	-0.442469	0.405807	0.373268	0.371905	-0.399952	0.445653	-0.474898	0.427659	-0.416477	-0.326276	-0.406882	-0.421598
0.384364	0.42479	0.445885	0.465553	0.455404	0.414731	-0.452409	0.312245	0.392286	0.364837	0.39226	-0.443572	0.431141	-0.396364	-0.517897	0.422119	0.46174	-0.494037	-0.396453	0.380501	-0.49574	0.427892	0.417098	0.390306	-0.395595	0.482474	-0.408259	0.461983	-0.346541	-0.464814	-0.390346	-0.469823
0.506109	0.502909	0.470156	0.468564	0.377507	0.39782	-0.392213	0.387791	0.465428	0.379645	0.411113	-0.499185	0.387169	-0.464758	-0.402058	0.50431	0.417628	-0.498838	-0.421555	0.4847	-0.402504	0.455339	0.48205	0.463029	-0.41497	0.410765	-0.357155	0.491469	-0.399846	-0.435514	-0.465529	-0.410363
0.469649	0.463064	0.444259	0.499611	0.383135	0.469029	-0.370188	0.42752	0.341535	0.385818	0.375828	-0.432951	0.516539	-0.379974	-0.414664	0.406492	0.470466	-0.452393	-0.471747	0.403568	-0.449585	0.378353	0.497112	0.45343	-0.402132	0.366903	-0.493339	0.484887	-0.454422	-0.365496	-0.37515	-0.40533
0.476322	0.480264	0.371232	0.403436	0.448304	0.364828	-0.446025	0.331816	0.380423	0.374458	0.482664	-0.332645	0.432843	-0.463422	-0.424552	0.491021	0.372948	-0.432264	-0.395541	0.404296	-0.374485	0.390901	0.450837	0.386629	-0.35038	0.297829	-0.419155	0.375622	-0.366431	-0.390917	-0.388928	-0.470609
0.406218	0.399861	0.285168	0.435079	0.478818	0.482084	-0.50468	0.429744	0.341308	0.250065	0.391686	-0.405344	0.300281	-0.385692	-0.379665	0.340565	0.369478	-0.391674	-0.367089	0.500819	-0.479505	0.459398	0.395533	0.29374	-0.337304	0.355635	-0.339903	0.353749	-0.368132	-0.408554	-0.283778	-0.47276
0.302347	0.351819	0.488914	0.40134	0.329085	0.448077	-0.314021	0.310214	0.315286	0.34323	0.476001	-0.461029	0.430928	-0.411921	-0.413316	0.405805	0.237066	-0.403948	-0.363122	0.348716	-0.318796	0.404105	0.447192	0.46418	-0.475063	0.459001	-0.278857	0.408004	-0.326895	-0.446255	-0.310617	-0.335206
0.369292	0.392185	0.297133	0.415761	0.423111	0.420444	-0.457158	0.369285	0.411705	0.460846	0.419715	-0.365986	0.434872	-0.400428	-0.3574	0.395274	0.44279	-0.347923	-0.324915	0.352121	-0.460316	0.422329	0.442371	0.472318	-0.476689	0.375388	-0.381775	0.404849	-0.427298	-0.36383	-0.466413	-0.406004
0.417011	0.427429	0.448417	0.400263	0.316447	0.440164	-0.393067	0.305334	0.506816	0.417207	0.444384	-0.449145	0.39001	-0.390181	-0.48541	0.438888	0.432614	-0.452512	-0.393309	0.401925	-0.465107	0.413423	0.4398	0.44698	-0.395264	0.45325	-0.323662	0.437516	-0.397337	-0.465443	-0.455122	-0.361116
0.223957	0.627059	0.595184	0.394407	0.203693	0.533495	-0.379661	0.413843	0.295463	0.383905	0.515945	-0.413304	0.29396	-0.386812	-0.530946	0.533059	0.562499	-0.318527	-0.483913	0.318154	-0.306651	0.515671	0.513091	0.565469	-0.338284	0.564038	-0.27972	0.380679	-0.333545	-0.489386	-0.266279	-0.471679
0.361701	0.441271	0.358966	0.447981	0.364986	0.385395	-0.371576	0.492792	0.408358	0.405333	0.347096	-0.421975	0.367091	-0.402857	-0.362695	0.341623	0.421029	-0.459119	-0.390921	0.384596	-0.393827	0.410162	0.416817	0.41181	-0.422701	0.376925	-0.451001	0.376985	-0.401601	-0.43506	-0.364905	-0.428308
0.293773	0.3526	0.299039	0.30591	0.420056	0.449899	-0.377838	0.252353	0.30187	0.409553	0.481308	-0.339858	0.40841	-0.381253	-0.422944	0.326231	0.502762	-0.435707	-0.487076	0.336144	-0.486729	0.374839	0.371479	0.346023	-0.439349	0.501074	-0.334618	0.454098	-0.427904	-0.304641	-0.518438	-0.370637
0.410173	0.387565	0.391099	0.466935	0.420537	0.490903	-0.394627	0.419261	0.419347	0.404856	0.427705	-0.413132	0.511132	-0.466206	-0.455931	0.505413	0.381006	-0.461216	-0.35618	0.457988	-0.433223	0.43721	0.379791	0.473531	-0.442984	0.481233	-0.455849	0.43895	-0.400428	-0.422019	-0.476996	-0.424684
0.314629	0.303771	0.350082	0.331786	0.344706	0.320297	-0.298516	0.400263	0.303301	0.268952	0.355875	-0.388473	0.352172	-0.397238	-0.360905	0.257495	0.302857	-0.295221	-0.24473	0.306973	-0.386484	0.338398	0.367074	0.402505	-0.35412	0.306334	-0.329043	0.288188	-0.236104	-0.310316	-0.253828	-0.268795
0.380391	0.402519	0.442536	0.408731	0.392689	0.417695	-0.376166	0.316931	0.461497	0.449503	0.430948	-0.40411	0.408844	-0.370242	-0.313203	0.371347	0.404275	-0.459705	-0.433721	0.488817	-0.390593	0.438791	0.479609	0.434598	-0.403717	0.4231	-0.515712	0.487684	-0.35314	-0.43838	-0.355168	-0.439826
0.321775	0.37992	0.440387	0.419444	0.377296	0.364074	-0.331717	0.261547	0.380028	0.434223	0.306863	-0.414874	0.30109	-0.376104	-0.319937	0.352663	0.344201	-0.361705	-0.349051	0.326776	-0.287662	0.387389	0.361481	0.438523	-0.436634	0.353536	-0.31953	0.345633	-0.398287	-0.432918	-0.355414	-0.417172
0.338023	0.343631	0.238596	0.346382	0.302428	0.210227	-0.176005	0.301594	0.235482	0.365772	0.338998	-0.337338	0.264116	-0.189954	-0.121109	0.223277	0.255381	-0.288481	-0.229499	0.244719	-0.314726	0.268035	0.236931	0.302024	-0.293262	0.323857	-0.368378	0.280445	-0.210445	-0.309865	-0.370257	-0.228041
0.438961	0.377149	0.447313	0.447475	0.399868	0.404521	-0.397827	0.392294	0.413446	0.415088	0.41808	-0.479281	0.406681	-0.423107	-0.372287	0.482178	0.427651	-0.384517	-0.349172	0.343277	-0.382212	0.424556	0.412332	0.416543	-0.426756	0.432708	-0.443144	0.471962	-0.469543	-0.460354	-0.364132	-0.395413
0.307928	0.218615	0.248861	0.301079	0.221704	0.3165	-0.251645	0.20319	0.269106	0.291384	0.243451	-0.390833	0.233163	-0.36372	-0.228354	0.336822	0.343346	-0.281701	-0.352334	0.372404	-0.298618	0.337863	0.385944	0.345843	-0.289715	0.23458	-0.37868	0.257135	-0.344514	-0.318832	-0.244922	-0.316583
0.511289	0.33341	0.456204	0.446298	0.40448	0.401946	-0.46476	0.48332	0.432327	0.448262	0.435982	-0.504279	0.439558	-0.432177	-0.345794	0.470693	0.374648	-0.417277	-0.451367	0.423476	-0.480532	0.463316	0.457709	0.460436	-0.470424	0.418511	-0.462162	0.440918	-0.339797	-0.413774	-0.424148	-0.383732
0.464627	0.441396	0.378591	0.434903	0.433461	0.380035	-0.473419	0.505127	0.36195	0.437162	0.465839	-0.439447	0.451309	-0.48133	-0.37852	0.414244	0.399771	-0.375686	-0.361802	0.397148	-0.434589	0.370078	0.465738	0.423592	-0.362363	0.415352	-0.497787	0.462999	-0.342392	-0.390619	-0.434028	-0.474596
0.385473	0.357432	0.406109	0.483156	0.321685	0.387487	-0.41331	0.433353	0.461562	0.377218	0.414384	-0.441188	0.409929	-0.376268	-0.484746	0.429535	0.4475	-0.486053	-0.362406	0.450786	-0.478566	0.46332	0.401283	0.393377	-0.464305	0.440455	-0.370143	0.47119	-0.442893	-0.418918	-0.465454	-0.414266
0.491502	0.37249	0.384722	0.428299	0.35893	0.509364	-0.358238	0.3972	0.421748	0.456077	0.39473	-0.438503	0.504887	-0.374612	-0.461975	0.431305	0.495475	-0.412167	-0.365215	0.42632	-0.460853	0.466243	0.474486	0.478007	-0.409312	0.347002	-0.450876	0.425303	-0.428286	-0.466617	-0.392123	-0.423171
0.495083	0.4405	0.462556	0.374048	0.473279	0.484798	-0.371612	0.365251	0.332062	0.395252	0.478862	-0.404444	0.454445	-0.473231	-0.431073	0.448578	0.343189	-0.477678	-0.424677	0.454481	-0.36869	0.454068	0.48272	0.493174	-0.422587	0.40241	-0.495116	0.382756	-0.417861	-0.426713	-0.509216	-0.352353
0.386955	0.519937	0.489946	0.427365	0.433294	0.40641	-0.461131	0.373168	0.482814	0.428679	0.393935	-0.449815	0.470089	-0.480521	-0.384085	0.392754	0.26653	-0.48393	-0.496375	0.460012	-0.414788	0.451468	0.483238	0.440394	-0.476566	0.474452	-0.404698	0.374165	-0.459416	-0.388493	-0.393142	-0.392327
0.428922	0.300498	0.456033	0.403314	0.357565	0.413262	-0.507812	0.415279	0.408653	0.485111	0.462396	-0.490407	0.395788	-0.474115	-0.406212	0.403424	0.426104	-0.408597	-0.344779	0.462591	-0.47981	0.481212	0.428992	0.447995	-0.381149	0.393905	-0.439404	0.445388	-0.401271	-0.476125	-0.467165	-0.453711
0.377265	0.394607	0.433114	0.410183	0.358998	0.34536	-0.379347	0.27291	0.370657	0.378279	0.365102	-0.438657	0.481278	-0.45233	-0.372762	0.476181	0.33185	-0.433009	-0.355761	0.425524	-0.437119	0.312195	0.411521	0.396572	-0.335409	0.446871	-0.401003	0.366214	-0.426805	-0.352381	-0.331411	-0.406566
0.371836	0.36309	0.349667	0.436713	0.38117	0.40418	-0.359853	0.353237	0.362112	0.446828	0.356042	-0.458461	0.426155	-0.360531	-0.384815	0.384021	0.39361	-0.411579	-0.470092	0.358761	-0.401707	0.367427	0.411328	0.345548	-0.450728	0.33233	-0.463649	0.384809	-0.392396	-0.456731	-0.393893	-0.428136
0.401192	0.365277	0.326625	0.447122	0.334148	0.363752	-0.391654	0.491095	0.449183	0.32419	0.377209	-0.358616	0.322393	-0.353418	-0.365201	0.463189	0.439301	-0.462128	-0.380948	0.401015	-0.411438	0.422426	0.394463	0.425924	-0.394197	0.409469	-0.30244	0.366323	-0.399343	-0.436029	-0.30696	-0.35178
0.356851	0.383708	0.381534	0.433291	0.402111	0.274358	-0.284587	0.392645	0.492519	0.363961	0.342556	-0.454324	0.351958	-0.290727	-0.438033	0.316785	0.309467	-0.368312	-0.498329	0.31209	-0.335301	0.220002	0.320426	0.404369	-0.432573	0.468515	-0.327156	0.409043	-0.33638	-0.295683	-0.429111	-0.331062
0.392063	0.401242	0.318453	0.386252	0.437256	0.360453	-0.349937	0.434979	0.403916	0.418391	0.32023	-0.395188	0.327348	-0.362618	-0.353897	0.456328	0.393298	-0.409049	-0.357474	0.448102	-0.378486	0.349349	0.361008	0.45788	-0.401856	0.381585	-0.399445	0.435308	-0.458462	-0.354232	-0.422458	-0.441084
0.422413	0.35203	0.472243	0.501517	0.449495	0.464912	-0.411441	0.515542	0.419606	0.460557	0.403895	-0.401398	0.426572	-0.448946	-0.452779	0.478919	0.470774	-0.441986	-0.477157	0.411904	-0.405738	0.479661	0.386102	0.426141	-0.405964	0.408357	-0.380149	0.420183	-0.403354	-0.470674	-0.468	-0.388456
0.383031	0.442444	0.423585	0.400318	0.408281	0.417188	-0.388396	0.352173	0.442446	0.392143	0.386799	-0.422788	0.462787	-0.441777	-0.435398	0.388491	0.332046	-0.369544	-0.416166	0.457096	-0.390619	0.473978	0.432139	0.360943	-0.453607	0.366492	-0.416953	0.379894	-0.314622	-0.398366	-0.417255	-0.398589
0.452066	0.427653	0.496065	0.484912	0.353433	0.430746	-0.409223	0.373494	0.370757	0.374283	0.470714	-0.435585	0.498238	-0.361241	-0.355199	0.367264	0.534849	-0.428027	-0.428962	0.400283	-0.405695	0.403899	0.415435	0.421692	-0.384233	0.361023	-0.361332	0.482597	-0.354524	-0.425433	-0.367111	-0.340163
0.346529	0.390051	0.306506	0.315946	0.400977	0.393221	-0.337439	0.335939	0.355983	0.420704	0.311665	-0.35527	0.313668	-0.411836	-0.41788	0.352248	0.326202	-0.412731	-0.38217	0.371081	-0.366025	0.431033	0.394553	0.435449	-0.42092	0.343524	-0.409961	0.428466	-0.306343	-0.402689	-0.445682	-0.443425
0.417811	0.39855	0.377892	0.452821	0.441883	0.360209	-0.420693	0.344793	0.420226	0.359155	0.356849	-0.442067	0.477767	-0.386843	-0.476167	0.337531	0.348185	-0.43618	-0.358536	0.477743	-0.389679	0.40721	0.458114	0.385503	-0.478971	0.425122	-0.424369	0.383403	-0.438623	-0.472818	-0.465999	-0.377004
0.502052	0.43954	0.475209	0.479563	0.411998	0.40757	-0.477123	0.420031	0.4518	0.381508	0.515621	-0.418027	0.427007	-0.463121	-0.431974	0.500836	0.415839	-0.425597	-0.367044	0.501999	-0.444474	0.401015	0.389379	0.482157	-0.366604	0.469507	-0.411072	0.416187	-0.479474	-0.469171	-0.418674	-0.489662
0.411218	0.297589	0.39979	0.483857	0.457714	0.483008	-0.328102	0.47165	0.355327	0.433453	0.473999	-0.427753	0.378014	-0.287671	-0.295044	0.490861	0.522862	-0.343298	-0.291961	0.434548	-0.400174	0.362796	0.375953	0.357013	-0.328314	0.373545	-0.447578	0.449499	-0.446192	-0.400906	-0.371144	-0.434058
0.507052	0.32193	0.39279	0.453231	0.411558	0.507452	-0.40674	0.358097	0.462249	0.404233	0.524342	-0.44887	0.383272	-0.479743	-0.359927	0.393678	0.517883	-0.395667	-0.398652	0.399765	-0.488757	0.413832	0.443064	0.484154	-0.455586	0.480771	-0.519023	0.445356	-0.411712	-0.476301	-0.389716	-0.378831
0.461547	0.378102	0.449482	0.394686	0.314343	0.372509	-0.404759	0.378297	0.429042	0.397098	0.48019	-0.458883	0.380109	-0.430535	-0.401195	0.376526	0.317989	-0.447043	-0.423781	0.471051	-0.40962	0.467936	0.486492	0.436468	-0.384627	0.451101	-0.441841	0.405466	-0.377194	-0.369152	-0.364307	-0.449947
0.459152	0.433876	0.439095	0.37121	0.357701	0.426066	-0.481887	0.417078	0.448163	0.324193	0.439692	-0.435909	0.405659	-0.364799	-0.49193	0.506558	0.340766	-0.439887	-0.228051	0.387585	-0.423065	0.32002	0.466106	0.400862	-0.394762	0.423244	-0.474003	0.397575	-0.476962	-0.413882	-0.356273	-0.313405
0.294627	0.440006	0.313014	0.3382	0.330885	0.38952	-0.451264	0.34418	0.442476	0.36008	0.307283	-0.421981	0.433177	-0.312962	-0.366081	0.352357	0.467329	-0.359119	-0.500486	0.338889	-0.356556	0.408608	0.383948	0.345216	-0.357596	0.377276	-0.344005	0.330818	-0.296411	-0.393538	-0.462537	-0.466004
0.489975	0.425063	0.434038	0.437807	0.338441	0.40007	-0.469463	0.479557	0.467187	0.446086	0.404292	-0.410658	0.38354	-0.492674	-0.389061	0.397812	0.404872	-0.448999	-0.402087	0.392843	-0.403989	0.404153	0.377923	0.460701	-0.402391	0.366874	-0.418821	0.417129	-0.34264	-0.480589	-0.346445	-0.46531
0.393177	0.339625	0.473619	0.457947	0.432563	0.437769	-0.432645	0.430628	0.42515	0.435736	0.398999	-0.373863	0.417988	-0.418454	-0.398474	0.404663	0.494559	-0.474524	-0.440519	0.463082	-0.443008	0.476592	0.470266	0.43496	-0.426136	0.450116	-0.462466	0.460905	-0.470413	-0.440827	-0.449337	-0.478958
0.507032	0.312871	0.53211	0.453757	0.387324	0.4309	-0.439826	0.396969	0.399925	0.369955	0.41628	-0.373451	0.48013	-0.470966	-0.361729	0.443183	0.36385	-0.373458	-0.329315	0.384651	-0.434462	0.40993	0.387867	0.488693	-0.475244	0.404846	-0.376747	0.360154	-0.472098	-0.45279	-0.39889	-0.411979
0.423264	0.461987	0.449789	0.367642	0.450147	0.369582	-0.490633	0.432934	0.397285	0.347421	0.463055	-0.43569	0.396555	-0.456112	-0.453265	0.459622	0.472391	-0.389091	-0.365591	0.371586	-0.412353	0.392349	0.40086	0.389832	-0.463093	0.378567	-0.452717	0.341037	-0.438532	-0.466775	-0.326507	-0.421052
0.434494	0.277181	0.423052	0.402712	0.391189	0.407057	-0.389318	0.303609	0.448602	0.334733	0.377406	-0.391585	0.463546	-0.339162	-0.354002	0.449135	0.372547	-0.386334	-0.3469	0.356446	-0.344235	0.430414	0.361474	0.358681	-0.42986	0.381325	-0.378767	0.451229	-0.453962	-0.347271	-0.349946	-0.447504
0.540451	0.236733	0.369086	0.506646	0.48022	0.485639	-0.358949	0.485333	0.316113	0.446179	0.429415	-0.465224	0.357996	-0.504501	-0.404172	0.547734	0.45465	-0.382377	-0.522106	0.461788	-0.465225	0.450393	0.458626	0.467891	-0.434789	0.389232	-0.377272	0.449669	-0.495978	-0.487032	-0.47594	-0.416036
0.392944	0.45662	0.395407	0.354082	0.322459	0.347013	-0.352543	0.366864	0.413292	0.370276	0.432942	-0.384443	0.423954	-0.345445	-0.446401	0.428423	0.362054	-0.366745	-0.383722	0.435026	-0.414774	0.435248	0.407867	0.424034	-0.384067	0.451008	-0.324076	0.426461	-0.439161	-0.360518	-0.462636	-0.355233
0.441705	0.410657	0.464539	0.47914	0.286668	0.483138	-0.369755	0.419582	0.507145	0.405433	0.499427	-0.381119	0.456754	-0.463927	-0.47392	0.423707	0.489996	-0.420139	-0.490388	0.515826	-0.429205	0.389185	0.459728	0.406535	-0.492098	0.397606	-0.333758	0.438452	-0.384216	-0.346898	-0.395588	-0.423259
0.38134	0.389522	0.362905	0.458979	0.394012	0.413632	-0.436209	0.457016	0.417587	0.435063	0.474767	-0.414431	0.366535	-0.395212	-0.448685	0.413512	0.433052	-0.40899	-0.294575	0.440176	-0.429187	0.400304	0.408403	0.450399	-0.380586	0.385667	-0.458662	0.454677	-0.402652	-0.472901	-0.414145	-0.426395
0.354134	0.364535	0.341391	0.405479	0.486087	0.409741	-0.35576	0.347242	0.353738	0.301903	0.36106	-0.35391	0.400013	-0.387439	-0.424263	0.316503	0.338068	-0.443393	-0.403303	0.427937	-0.393778	0.363262	0.410372	0.383267	-0.382116	0.350647	-0.329961	0.435938	-0.422317	-0.361618	-0.370717	-0.412822
0.469929	0.356702	0.355537	0.346735	0.379617	0.40993	-0.447964	0.371138	0.409601	0.423097	0.403357	-0.394288	0.440908	-0.459475	-0.413303	0.395987	0.430961	-0.436614	-0.441483	0.453919	-0.37279	0.436666	0.409765	0.431075	-0.404679	0.426221	-0.4166	0.446721	-0.428172	-0.432387	-0.418066	-0.443523
0.443007	0.304299	0.408816	0.430658	0.370718	0.383892	-0.338632	0.437874	0.328565	0.33373	0.365695	-0.403247	0.449838	-0.371953	-0.449397	0.419008	0.382482	-0.363541	-0.439009	0.37429	-0.404183	0.324556	0.301475	0.355092	-0.415536	0.36916	-0.357801	0.397623	-0.429935	-0.315998	-0.375249	-0.430043
0.413329	0.346589	0.382133	0.398143	0.452904	0.410501	-0.45908	0.453968	0.444183	0.472639	0.404542	-0.415441	0.450562	-0.457831	-0.436036	0.377692	0.451162	-0.456046	-0.422057	0.448348	-0.399428	0.465244	0.482262	0.397307	-0.450111	0.404587	-0.375573	0.502746	-0.462234	-0.474456	-0.401433	-0.416835
0.410614	0.446509	0.411144	0.378418	0.451442	0.432476	-0.372329	0.365109	0.432796	0.466628	0.385645	-0.414653	0.455372	-0.368189	-0.412921	0.337234	0.361015	-0.460264	-0.31707	0.444168	-0.367188	0.455576	0.394032	0.452001	-0.398415	0.388838	-0.418952	0.479322	-0.361826	-0.379522	-0.375642	-0.453049
0.402482	0.341382	0.374347	0.399682	0.397794	0.426119	-0.420363	0.331556	0.368545	0.473076	0.428614	-0.467366	0.389888	-0.392893	-0.370385	0.497244	0.433804	-0.462482	-0.418144	0.418953	-0.428359	0.381184	0.408905	0.369261	-0.432075	0.339751	-0.411183	0.413539	-0.453486	-0.362713	-0.367297	-0.371194
0.412798	0.373747	0.486051	0.414797	0.452532	0.439327	-0.46933	0.410942	0.446242	0.345243	0.358014	-0.413372	0.397469	-0.379894	-0.447365	0.484966	0.393987	-0.46165	-0.481216	0.423166	-0.431399	0.457432	0.407819	0.364931	-0.392009	0.418909	-0.486834	0.456314	-0.51316	-0.488182	-0.384775	-0.434852
0.441372	0.381372	0.46476	0.455689	0.392483	0.384066	-0.383129	0.318794	0.34191	0.324969	0.408477	-0.403029	0.345859	-0.396325	-0.376414	0.221379	0.173577	-0.400546	-0.330701	0.387347	-0.338241	0.329556	0.41841	0.417529	-0.361812	0.404087	-0.349991	0.413382	-0.351308	-0.399525	-0.329404	-0.340648
0.488185	0.393386	0.41839	0.460762	0.364475	0.374196	-0.30273	0.43705	0.443885	0.403065	0.370633	-0.434245	0.445184	-0.429349	-0.416567	0.293674	0.310593	-0.354539	-0.401405	0.441321	-0.35217	0.341652	0.439538	0.466123	-0.46041	0.428836	-0.354995	0.438387	-0.332033	-0.391653	-0.343003	-0.422834
0.420275	0.46639	0.385002	0.368731	0.394156	0.37899	-0.373422	0.407906	0.441453	0.42335	0.418627	-0.463867	0.376947	-0.44007	-0.425797	0.4641	0.389651	-0.377858	-0.422237	0.428744	-0.364877	0.405191	0.432589	0.422205	-0.460004	0.393957	-0.449417	0.412793	-0.406094	-0.406497	-0.416353	-0.396406
0.354186	0.479239	0.460904	0.474481	0.267325	0.38941	-0.383865	0.325083	0.360762	0.443331	0.40693	-0.480423	0.345794	-0.385433	-0.324686	0.434006	0.39128	-0.36049	-0.399616	0.445596	-0.342357	0.399689	0.450783	0.437556	-0.444437	0.452925	-0.397451	0.330398	-0.400886	-0.375955	-0.371054	-0.390868
0.405149	0.347202	0.359754	0.462212	0.32791	0.407778	-0.431269	0.465077	0.402462	0.391891	0.429964	-0.456071	0.386561	-0.43721	-0.446902	0.426613	0.46327	-0.448867	-0.307778	0.381635	-0.451593	0.420895	0.443521	0.457451	-0.417913	0.456227	-0.363292	0.441752	-0.453946	-0.46301	-0.446931	-0.441434
0.37891	0.425397	0.421374	0.498195	0.456913	0.41623	-0.428205	0.278162	0.516429	0.407439	0.426394	-0.395762	0.430076	-0.409833	-0.479094	0.479364	0.397737	-0.505501	-0.445644	0.384648	-0.446552	0.468113	0.438944	0.397962	-0.486874	0.41419	-0.43624	0.427537	-0.43329	-0.458559	-0.442218	-0.438523
0.370816	0.407618	0.459192	0.386792	0.383347	0.437269	-0.439067	0.431978	0.475973	0.385515	0.41925	-0.460447	0.415266	-0.347407	-0.345637	0.35101	0.438088	-0.356814	-0.344246	0.452954	-0.419384	0.420105	0.431838	0.365653	-0.378158	0.456872	-0.335229	0.492	-0.392462	-0.444764	-0.342019	-0.396905
0.36213	0.293841	0.368376	0.460436	0.271123	0.401063	-0.408063	0.393619	0.371773	0.350705	0.42728	-0.383932	0.406201	-0.418655	-0.351431	0.359157	0.364679	-0.423895	-0.345026	0.331361	-0.426802	0.369671	0.442658	0.440684	-0.343804	0.413031	-0.399704	0.439897	-0.343774	-0.461944	-0.448766	-0.449219
0.428531	0.460973	0.473781	0.357535	0.450361	0.496353	-0.449023	0.428901	0.50605	0.401535	0.375846	-0.411995	0.35659	-0.435712	-0.508952	0.528593	0.402978	-0.440005	-0.386874	0.415801	-0.510616	0.515684	0.476771	0.501366	-0.431255	0.413436	-0.340967	0.414989	-0.484822	-0.383459	-0.360403	-0.487801
0.429755	0.548827	0.468779	0.458901	0.324476	0.291148	-0.288677	0.558896	0.435305	0.3881	0.432988	-0.396178	0.337416	-0.381254	-0.323372	0.308677	0.298422	-0.426437	-0.323565	0.391626	-0.388967	0.261465	0.392957	0.359433	-0.334128	0.338863	-0.312082	0.462072	-0.204206	-0.478044	-0.419455	-0.338254
0.385822	0.326263	0.496981	0.453355	0.371009	0.42436	-0.363077	0.368623	0.456569	0.323001	0.337716	-0.407414	0.470079	-0.387357	-0.360735	0.487862	0.445574	-0.443112	-0.385873	0.403894	-0.427042	0.441673	0.489962	0.410782	-0.421076	0.428912	-0.465243	0.457801	-0.419192	-0.391517	-0.363191	-0.381394
0.378247	0.35805	0.387226	0.391346	0.315167	0.389979	-0.406165	0.296998	0.34549	0.336373	0.309002	-0.419552	0.329297	-0.322827	-0.447213	0.378943	0.385943	-0.426671	-0.364345	0.359864	-0.342616	0.339555	0.380355	0.369789	-0.428172	0.387242	-0.316374	0.285463	-0.328377	-0.351301	-0.295788	-0.370464
0.417485	0.257946	0.313164	0.384356	0.458766	0.404983	-0.322563	0.320732	0.355852	0.365973	0.372057	-0.405179	0.302802	-0.432619	-0.389321	0.401113	0.462017	-0.387884	-0.352385	0.447191	-0.38566	0.396245	0.430144	0.471558	-0.449201	0.450501	-0.379679	0.353962	-0.401227	-0.349708	-0.45713	-0.431613
0.374704	0.377312	0.412431	0.442794	0.344194	0.357738	-0.359486	0.367239	0.382254	0.505004	0.400959	-0.394163	0.494866	-0.413997	-0.502424	0.370962	0.519627	-0.482842	-0.387822	0.417479	-0.434717	0.470455	0.420921	0.394692	-0.419757	0.360532	-0.428236	0.470702	-0.403159	-0.448429	-0.461815	-0.414291
0.447355	0.399291	0.380607	0.50061	0.455977	0.385638	-0.376807	0.46778	0.42722	0.425112	0.458744	-0.374919	0.477147	-0.360647	-0.492691	0.446638	0.434475	-0.476554	-0.387309	0.427309	-0.402167	0.39618	0.425467	0.331641	-0.344799	0.377876	-0.4106	0.372232	-0.441272	-0.374731	-0.422514	-0.45119
0.399772	0.456617	0.369994	0.413764	0.452024	0.4755	-0.475721	0.363707	0.388972	0.432596	0.436291	-0.376892	0.47192	-0.369704	-0.38482	0.35172	0.379981	-0.423871	-0.328528	0.482376	-0.418432	0.436652	0.426868	0.428228	-0.423343	0.404211	-0.382223	0.471781	-0.481174	-0.424176	-0.342583	-0.463417
0.356351	0.372281	0.356177	0.410092	0.33758	0.450441	-0.366765	0.318031	0.357331	0.359106	0.388327	-0.39251	0.285011	-0.384603	-0.464335	0.424659	0.305211	-0.407323	-0.341587	0.428059	-0.451833	0.408057	0.353854	0.376362	-0.340286	0.428771	-0.401528	0.360138	-0.476601	-0.468667	-0.345629	-0.343012
0.403575	0.402307	0.391859	0.400978	0.428325	0.405651	-0.3747	0.450181	0.406063	0.435136	0.377433	-0.3922	0.440174	-0.371768	-0.428613	0.458489	0.415885	-0.442538	-0.423031	0.461869	-0.488096	0.376511	0.469489	0.388043	-0.359093	0.376814	-0.407418	0.435821	-0.460746	-0.444269	-0.491566	-0.483124
0.42246	0.374818	0.42252	0.438223	0.394319	0.437321	-0.409097	0.452609	0.430425	0.479846	0.415045	-0.375208	0.455302	-0.313885	-0.443469	0.39261	0.353695	-0.429289	-0.358767	0.454804	-0.454847	0.393988	0.402365	0.504536	-0.471724	0.440153	-0.397177	0.363561	-0.400742	-0.443115	-0.392135	-0.368473
0.442633	0.422359	0.446932	0.381124	0.443743	0.433854	-0.370946	0.29505	0.382646	0.394443	0.378956	-0.363967	0.37105	-0.458227	-0.385927	0.409484	0.482081	-0.444893	-0.41082	0.451189	-0.398556	0.373038	0.442345	0.386342	-0.516813	0.36495	-0.483308	0.478005	-0.4385	-0.349022	-0.372673	-0.501542
0.425392	0.460314	0.386552	0.443742	0.445001	0.482	-0.375263	0.522665	0.570547	0.482045	0.338841	-0.397297	0.352997	-0.387376	-0.445213	0.381353	0.397521	-0.475307	-0.250712	0.439449	-0.425248	0.451622	0.311136	0.44549	-0.339714	0.39552	-0.456999	0.389337	-0.408256	-0.36728	-0.307977	-0.271068
0.432004	0.510158	0.40577	0.453828	0.370774	0.418653	-0.344545	0.519661	0.337175	0.403803	0.476612	-0.441869	0.328962	-0.419213	-0.385631	0.386698	0.477352	-0.454	-0.391811	0.447174	-0.448882	0.40149	0.479161	0.452492	-0.379104	0.430645	-0.447215	0.404423	-0.46492	-0.385703	-0.405987	-0.432809
0.36083	0.348296	0.421695	0.44079	0.293261	0.350583	-0.35826	0.367286	0.341145	0.435331	0.410689	-0.343362	0.343793	-0.356282	-0.343306	0.456072	0.258444	-0.370676	-0.356173	0.36467	-0.415658	0.429606	0.370661	0.344296	-0.345727	0.322556	-0.407258	0.321593	-0.319151	-0.417966	-0.330605	-0.375488
0.494928	0.509634	0.555997	0.480479	0.326086	0.523332	-0.41542	0.346766	0.31958	0.387607	0.482768	-0.36897	0.317315	-0.464639	-0.386642	0.469538	0.534694	-0.413299	-0.305648	0.460866	-0.434997	0.50178	0.52032	0.450092	-0.507212	0.34518	-0.309065	0.360476	-0.420976	-0.452591	-0.109595	-0.493074
0.421741	0.45481	0.406902	0.481022	0.470531	0.494642	-0.362969	0.407575	0.363717	0.456721	0.398945	-0.355326	0.313141	-0.435005	-0.450561	0.439633	0.386781	-0.383072	-0.435259	0.421632	-0.364335	0.486741	0.390114	0.411374	-0.417474	0.406579	-0.496666	0.453521	-0.428778	-0.427813	-0.34743	-0.394734
0.438731	0.422375	0.382902	0.420029	0.356452	0.399412	-0.436827	0.377129	0.460101	0.431161	0.404327	-0.422326	0.338034	-0.459997	-0.424454	0.448417	0.461659	-0.425781	-0.322311	0.425853	-0.342698	0.426568	0.405153	0.437665	-0.291766	0.417389	-0.370778	0.427854	-0.399634	-0.338624	-0.421624	-0.348084
0.380323	0.431942	0.392012	0.399815	0.449336	0.484502	-0.529893	0.430847	0.421311	0.419404	0.416582	-0.354864	0.400205	-0.449409	-0.448233	0.379473	0.432266	-0.395481	-0.390103	0.420047	-0.397444	0.341859	0.501353	0.394353	-0.464768	0.3738	-0.458231	0.336902	-0.484665	-0.41422	-0.435798	-0.419556
0.403439	0.482347	0.442877	0.451495	0.390363	0.447101	-0.466937	0.390167	0.44148	0.47839	0.447176	-0.434475	0.390693	-0.417028	-0.407815	0.391198	0.415069	-0.433683	-0.368432	0.428842	-0.440699	0.468213	0.392766	0.442474	-0.404083	0.426557	-0.416825	0.396171	-0.489889	-0.42127	-0.41703	-0.421054
0.327782	0.414329	0.396608	0.420356	0.375885	0.355475	-0.403136	0.320403	0.360757	0.363479	0.469985	-0.441893	0.360664	-0.434927	-0.397053	0.337961	0.355682	-0.42968	-0.358615	0.466895	-0.374466	0.446357	0.354808	0.446005	-0.446779	0.346224	-0.400539	0.461484	-0.446666	-0.467475	-0.490592	-0.373163
0.444113	0.376958	0.405334	0.413895	0.341423	0.422509	-0.507705	0.346942	0.445974	0.379001	0.341736	-0.378636	0.406875	-0.319489	-0.421119	0.429788	0.415751	-0.446757	-0.455678	0.366443	-0.451802	0.353721	0.403065	0.390436	-0.341746	0.381141	-0.372018	0.348044	-0.364795	-0.438987	-0.326561	-0.38437
0.470935	0.438759	0.382951	0.495566	0.460765	0.370777	-0.433769	0.466602	0.411841	0.403506	0.474968	-0.438838	0.372096	-0.471547	-0.448246	0.393175	0.491121	-0.498184	-0.45714	0.462396	-0.484358	0.416998	0.397666	0.446894	-0.443231	0.447815	-0.502836	0.443428	-0.451212	-0.41799	-0.446994	-0.471548
0.301322	0.270101	0.353736	0.371174	0.387876	0.412756	-0.339251	0.30946	0.311029	0.382924	0.347459	-0.370939	0.313773	-0.376635	-0.317813	0.21505	0.348262	-0.303066	-0.326525	0.332389	-0.289607	0.339825	0.383823	0.306952	-0.362752	0.300603	-0.29345	0.362947	-0.364362	-0.338399	-0.338273	-0.2919
0.393265	0.488699	0.419578	0.494412	0.480635	0.448299	-0.468733	0.342966	0.329747	0.400788	0.37708	-0.424326	0.400885	-0.394482	-0.470883	0.403027	0.46318	-0.434358	-0.452215	0.434894	-0.459384	0.439595	0.420853	0.470525	-0.445269	0.319396	-0.388716	0.408639	-0.425451	-0.47906	-0.484578	-0.394296
0.419243	0.403597	0.466106	0.486474	0.38575	0.48308	-0.442634	0.473633	0.480987	0.421614	0.503578	-0.457938	0.483559	-0.490225	-0.439114	0.446398	0.53087	-0.410209	-0.480291	0.443413	-0.42511	0.406873	0.433648	0.42509	-0.438283	0.381355	-0.470872	0.467813	-0.448003	-0.41398	-0.438401	-0.432328
0.412371	0.458475	0.350242	0.462979	0.34698	0.473205	-0.363233	0.323949	0.44613	0.391689	0.403315	-0.385374	0.482751	-0.41644	-0.452359	0.504467	0.357427	-0.348071	-0.301238	0.372644	-0.471186	0.392419	0.426354	0.410443	-0.376109	0.402074	-0.417293	0.426105	-0.504448	-0.393626	-0.377731	-0.419322
0.44302	0.329511	0.41923	0.382239	0.451827	0.403474	-0.415732	0.503502	0.415053	0.357734	0.383292	-0.480326	0.450078	-0.441555	-0.382472	0.412781	0.500438	-0.421667	-0.35601	0.488173	-0.412915	0.425578	0.500248	0.448263	-0.365833	0.418426	-0.440761	0.395727	-0.4512	-0.439657	-0.491101	-0.473444
0.349204	0.194771	0.308669	0.319618	0.296549	0.30505	-0.324795	0.248993	0.454882	0.336354	0.279996	-0.278273	0.395732	-0.416345	-0.21275	0.436484	0.365108	-0.287834	-0.319678	0.465225	-0.435039	0.424109	0.306377	0.383957	-0.32032	0.313246	-0.401442	0.368254	-0.233495	-0.355729	-0.305854	-0.38999
0.385402	0.467914	0.238594	0.432447	0.358986	0.501595	-0.345951	0.52639	0.477288	0.388222	0.36104	-0.361833	0.383287	-0.423707	-0.565846	0.500878	0.523355	-0.510452	-0.359415	0.324087	-0.279908	0.537073	0.358642	0.39158	-0.448455	0.425367	-0.340222	0.366461	-0.520632	-0.333784	-0.381871	-0.377929
0.412014	0.499335	0.307855	0.378162	0.356175	0.359123	-0.395669	0.465352	0.399921	0.45885	0.400695	-0.318443	0.430551	-0.450323	-0.5288	0.52154	0.414254	-0.526406	-0.294979	0.481206	-0.497576	0.501126	0.530314	0.368062	-0.438086	0.353922	-0.364915	0.42178	-0.453569	-0.419458	-0.454515	-0.367636
0.42219	0.396821	0.372949	0.394147	0.368516	0.493964	-0.460845	0.422907	0.449205	0.363938	0.387903	-0.430848	0.446493	-0.345505	-0.375498	0.40032	0.423467	-0.38001	-0.392907	0.403362	-0.395392	0.423035	0.394656	0.449121	-0.43305	0.424252	-0.412669	0.422915	-0.457339	-0.390336	-0.445581	-0.425243
0.315684	0.367545	0.314592	0.401992	0.326883	0.376211	-0.350171	0.266129	0.353897	0.403986	0.417291	-0.319931	0.318771	-0.437292	-0.311789	0.393136	0.324344	-0.349003	-0.362783	0.329585	-0.355111	0.438449	0.349086	0.439726	-0.436336	0.364769	-0.32153	0.355583	-0.253229	-0.414205	-0.335685	-0.357407
0.41292	0.310343	0.402515	0.466751	0.344891	0.383124	-0.440743	0.410832	0.367879	0.333406	0.391006	-0.413228	0.481459	-0.41375	-0.287442	0.397219	0.516644	-0.398134	-0.384328	0.492357	-0.454334	0.355899	0.368191	0.360965	-0.434358	0.482648	-0.333293	0.470025	-0.358195	-0.387295	-0.381399	-0.426248
0.263358	0.522459	0.39242	0.436727	0.330788	0.441043	-0.1895	0.392568	0.361348	0.4518	0.446703	-0.441409	0.224718	-0.455355	-0.327079	0.323281	0.358499	-0.36799	-0.388961	0.327823	-0.425355	0.348315	0.450075	0.40903	-0.445036	0.397688	-0.399886	0.333727	-0.370478	-0.492235	-0.395083	-0.435673
0.387432	0.339325	0.428746	0.394704	0.355719	0.482195	-0.306618	0.399185	0.477302	0.310142	0.352512	-0.363373	0.395738	-0.393842	-0.416079	0.453683	0.238387	-0.384539	-0.293039	0.367439	-0.45937	0.355659	0.47539	0.374637	-0.411717	0.445314	-0.362479	0.458001	-0.466655	-0.414209	-0.444365	-0.456502
0.335736	0.363276	0.433835	0.328441	0.302552	0.386416	-0.423876	0.340275	0.386191	0.32087	0.397613	-0.332273	0.325253	-0.379536	-0.399433	0.400744	0.40294	-0.32629	-0.268031	0.428226	-0.336509	0.305539	0.334829	0.350289	-0.398697	0.339976	-0.362514	0.415568	-0.414446	-0.419068	-0.445161	-0.442074
0.427693	0.537803	0.490571	0.388129	0.426439	0.476196	-0.350892	0.320876	0.498048	0.338797	0.425218	-0.422954	0.438133	-0.456974	-0.441301	0.36529	0.319353	-0.461053	-0.364055	0.400809	-0.452169	0.465975	0.480976	0.488251	-0.439048	0.395039	-0.424866	0.417371	-0.466107	-0.379966	-0.485791	-0.480516
0.422076	0.382983	0.322915	0.376983	0.327467	0.30922	-0.428483	0.363938	0.357488	0.437792	0.390288	-0.439926	0.394157	-0.382163	-0.399503	0.399912	0.471719	-0.413859	-0.274534	0.447994	-0.397493	0.304971	0.361236	0.417115	-0.360206	0.453359	-0.358618	0.397637	-0.302198	-0.417093	-0.378963	-0.440786
0.405028	0.381773	0.300569	0.399355	0.307499	0.336615	-0.395521	0.229286	0.272548	0.310978	0.407569	-0.365074	0.366158	-0.377817	-0.303929	0.378046	0.340733	-0.33953	-0.351711	0.413016	-0.43002	0.388326	0.292176	0.358637	-0.386705	0.43415	-0.284959	0.289171	-0.31277	-0.390671	-0.325515	-0.384157
0.339887	0.322277	0.345672	0.294659	0.326759	0.334629	-0.515247	0.25568	0.307873	0.339552	0.33716	-0.416443	0.358929	-0.319034	-0.337319	0.31386	0.359497	-0.392422	-0.436899	0.372312	-0.434416	0.381805	0.26555	0.391475	-0.397272	0.3859	-0.316134	0.376249	-0.445194	-0.402997	-0.412903	-0.342216
0.427896	0.419515	0.454071	0.357591	0.292454	0.259308	-0.346648	0.471611	0.267535	0.3531	0.298558	-0.377464	0.282539	-0.381139	-0.21548	0.307531	0.376595	-0.367699	-0.345811	0.364654	-0.364957	0.361185	0.424455	0.42382	-0.313453	0.322331	-0.241697	0.298744	-0.309428	-0.334874	-0.265104	-0.425636
0.414068	0.362249	0.132163	0.341402	0.385787	0.305247	-0.298851	0.445319	0.342175	0.438699	0.244329	-0.369014	0.295044	-0.309884	-0.359786	0.259946	0.250642	-0.375806	-0.247965	0.366478	-0.379058	0.300054	0.418631	0.296563	-0.382483	0.382987	-0.28576	0.323182	-0.302008	-0.398564	-0.341463	-0.31516
0.403395	0.350973	0.469594	0.418517	0.400064	0.385582	-0.447871	0.444735	0.377023	0.464764	0.427255	-0.398509	0.51251	-0.371512	-0.41624	0.503134	0.461749	-0.377157	-0.428453	0.444338	-0.490452	0.465295	0.412927	0.461054	-0.471734	0.456475	-0.423871	0.481284	-0.405517	-0.458847	-0.410866	-0.481372
0.418391	0.323054	0.367234	0.328912	0.4352	0.341417	-0.43426	0.47162	0.389015	0.362103	0.338025	-0.438706	0.366066	-0.350292	-0.391115	0.446574	0.327027	-0.375196	-0.442462	0.374607	-0.436453	0.408455	0.394353	0.384806	-0.405448	0.422947	-0.410171	0.418798	-0.416408	-0.369473	-0.377383	-0.42732
0.410116	0.437641	0.449025	0.42293	0.375317	0.466786	-0.461717	0.466421	0.447871	0.329028	0.392683	-0.495146	0.425894	-0.454036	-0.512412	0.533607	0.496502	-0.424173	-0.371665	0.393238	-0.433977	0.36714	0.445826	0.364475	-0.452745	0.456178	-0.382074	0.3496	-0.37636	-0.424898	-0.313183	-0.417571
0.386606	0.327231	0.452013	0.501037	0.417739	0.406767	-0.396662	0.393361	0.469825	0.36787	0.446074	-0.40846	0.442329	-0.407656	-0.367806	0.494408	0.471274	-0.483758	-0.439232	0.414331	-0.474694	0.419309	0.457795	0.508469	-0.44164	0.479282	-0.341846	0.419396	-0.34038	-0.408111	-0.415917	-0.441499
0.452604	0.32938	0.39544	0.443251	0.396764	0.452364	-0.474461	0.353719	0.425958	0.464667	0.353943	-0.396314	0.476202	-0.408072	-0.509022	0.332559	0.406351	-0.449202	-0.481184	0.439263	-0.464103	0.491706	0.44655	0.435562	-0.485868	0.314452	-0.360913	0.492641	-0.392875	-0.391234	-0.373859	-0.467301
0.398598	0.358255	0.429865	0.434882	0.410896	0.413056	-0.375753	0.456522	0.425612	0.395815	0.310061	-0.379452	0.364521	-0.399675	-0.449143	0.280392	0.389231	-0.38813	-0.337477	0.398593	-0.320816	0.420893	0.354466	0.47418	-0.373799	0.339515	-0.379523	0.360332	-0.374481	-0.386117	-0.357258	-0.420967
0.415413	0.373953	0.41833	0.417197	0.373382	0.386193	-0.372225	0.375822	0.41206	0.411516	0.370405	-0.438146	0.352984	-0.389231	-0.452492	0.466599	0.364466	-0.455344	-0.449161	0.43983	-0.406787	0.435484	0.431586	0.373461	-0.441378	0.396521	-0.386197	0.364495	-0.404013	-0.358963	-0.483782	-0.43596
0.47472	0.361881	0.528731	0.424009	0.390103	0.478994	-0.290353	0.433956	0.34355	0.401881	0.432064	-0.391379	0.364963	-0.312906	-0.442718	0.423656	0.54392	-0.452682	-0.309605	0.353367	-0.412681	0.324775	0.391286	0.356182	-0.316885	0.340908	-0.240024	0.493102	-0.35168	-0.420678	-0.298364	-0.448682
0.333669	0.235411	0.231071	0.225832	0.395071	0.255409	-0.349167	0.388479	0.302818	0.203289	0.267575	-0.441129	0.132579	-0.258013	-0.174011	0.146881	-0.0430869	-0.216035	-0.376746	0.261115	-0.292102	0.357216	0.337733	0.285481	-0.313617	0.277673	-0.182492	0.304019	-0.141207	-0.272427	-0.252918	-0.400468
0.416409	0.433525	0.407373	0.456314	0.34482	0.339959	-0.307019	0.345981	0.267732	0.398604	0.354524	-0.368181	0.337492	-0.417494	-0.287412	0.389084	0.269309	-0.331747	-0.343141	0.434732	-0.3557	0.374794	0.396572	0.374946	-0.344614	0.354571	-0.413533	0.452225	-0.379466	-0.311264	-0.314254	-0.411321
0.519608	0.481219	0.501033	0.514143	0.282385	0.32192	-0.45864	0.473862	0.330284	0.494191	0.456907	-0.427568	0.379016	-0.44425	-0.265388	0.532617	0.402528	-0.479538	-0.447737	0.463303	-0.416977	0.477362	0.522619	0.428048	-0.287567	0.496569	-0.32941	0.422376	-0.438242	-0.351215	-0.407381	-0.385025
0.440991	0.394262	0.469961	0.463874	0.436586	0.396416	-0.346703	0.360719	0.435515	0.347292	0.385603	-0.394499	0.368506	-0.397058	-0.461679	0.353038	0.340191	-0.471886	-0.423269	0.446677	-0.393618	0.33728	0.415782	0.420865	-0.383974	0.45072	-0.461312	0.444605	-0.44734	-0.466439	-0.403723	-0.461874
0.419154	0.435355	0.333368	0.404322	0.354384	0.400691	-0.355414	0.430447	0.452739	0.337835	0.457122	-0.339064	0.307081	-0.340949	-0.440902	0.438694	0.375568	-0.425056	-0.381889	0.384211	-0.449789	0.455194	0.427628	0.375228	-0.417482	0.359476	-0.410052	0.378384	-0.304085	-0.384579	-0.428448	-0.446099
0.320672	0.0641173	0.311067	0.354169	0.219811	0.251287	-0.230905	0.235805	0.349956	0.235883	0.318199	-0.309883	0.299152	-0.20192	-0.255614	0.132549	0.157018	-0.301033	-0.250384	0.224027	-0.333038	0.383166	0.320747	0.214921	-0.284769	0.311381	-0.208057	0.445136	-0.195277	-0.359179	-0.287498	-0.39278
0.37551	0.32169	0.382545	0.408697	0.403493	0.408644	-0.350703	0.403297	0.366363	0.413903	0.3999	-0.345748	0.307196	-0.393274	-0.409892	0.362736	0.465634	-0.359188	-0.308555	0.348291	-0.417949	0.314892	0.39436	0.409853	-0.396604	0.378994	-0.431885	0.31699	-0.436939	-0.396208	-0.382083	-0.4371
0.439472	0.446053	0.388787	0.458736	0.484299	0.415434	-0.369121	0.399058	0.527136	0.462501	0.374559	-0.373606	0.37899	-0.347854	-0.474581	0.42123	0.455321	-0.463379	-0.414735	0.381666	-0.438779	0.464448	0.310961	0.39781	-0.383532	0.399115	-0.396347	0.372137	-0.377782	-0.389498	-0.3548	-0.394353
0.404295	0.455462	0.438377	0.363227	0.451139	0.34619	-0.393597	0.263082	0.417664	0.366155	0.419114	-0.435432	0.455829	-0.36019	-0.428755	0.373165	0.432864	-0.4137	-0.33321	0.399889	-0.443659	0.410341	0.470081	0.397264	-0.415956	0.437203	-0.340022	0.362916	-0.555681	-0.366906	-0.330765	-0.419154
0.408709	0.454769	0.398496	0.445876	0.320398	0.440867	-0.469766	0.284304	0.339101	0.348078	0.449668	-0.428713	0.488461	-0.416367	-0.453623	0.476367	0.472728	-0.412749	-0.347895	0.384307	-0.420517	0.47266	0.393559	0.371628	-0.34044	0.47319	-0.458781	0.406974	-0.449249	-0.444763	-0.441014	-0.3682
0.427489	0.485603	0.372467	0.459049	0.51475	0.445485	-0.412757	0.47954	0.44258	0.458746	0.44872	-0.401162	0.451545	-0.361966	-0.438543	0.369488	0.501406	-0.452205	-0.446388	0.438683	-0.490679	0.411385	0.40737	0.408998	-0.477114	0.452703	-0.360638	0.471316	-0.42246	-0.412629	-0.42374	-0.437293
0.392166	0.364696	0.306404	0.446343	0.322932	0.435848	-0.42737	0.470359	0.346114	0.382336	0.449128	-0.340958	0.373651	-0.347439	-0.369453	0.313115	0.408031	-0.432068	-0.346845	0.36234	-0.428262	0.45943	0.388394	0.420822	-0.416333	0.386911	-0.345728	0.360811	-0.410963	-0.380267	-0.448832	-0.333783
0.39661	0.382053	0.514674	0.401842	0.414257	0.470537	-0.363115	0.424617	0.31078	0.465158	0.496027	-0.377849	0.481211	-0.467357	-0.43631	0.510411	0.450085	-0.44333	-0.508085	0.454339	-0.384086	0.349459	0.457895	0.376066	-0.402317	0.413399	-0.450222	0.504626	-0.381013	-0.379573	-0.452156	-0.408148
0.442131	0.452446	0.48733	0.437496	0.448303	0.396214	-0.404324	0.42037	0.481318	0.454291	0.495713	-0.416459	0.474241	-0.415542	-0.453396	0.478937	0.47269	-0.408711	-0.36796	0.503579	-0.416863	0.493262	0.390188	0.47734	-0.474613	0.426384	-0.369603	0.433985	-0.478936	-0.406725	-0.428591	-0.42601
0.47592	0.474579	0.309393	0.496658	0.441716	0.405568	-0.472115	0.356036	0.388925	0.428876	0.380667	-0.375943	0.409446	-0.444672	-0.472998	0.426453	0.438277	-0.419964	-0.417251	0.453572	-0.468283	0.390127	0.374126	0.39408	-0.360636	0.425351	-0.471675	0.426309	-0.434828	-0.476986	-0.390279	-0.352962
0.388894	0.461551	0.461456	0.418171	0.348345	0.453431	-0.390649	0.416713	0.412609	0.340281	0.459488	-0.456411	0.423477	-0.398637	-0.391507	0.377067	0.383128	-0.450962	-0.505945	0.472834	-0.457793	0.440913	0.431517	0.382695	-0.422755	0.364347	-0.429738	0.432189	-0.441565	-0.383917	-0.428643	-0.40946
0.47123	0.420011	0.468591	0.458544	0.419274	0.50126	-0.42299	0.441944	0.423154	0.415267	0.387142	-0.444219	0.445119	-0.398873	-0.402459	0.536863	0.474809	-0.486756	-0.389053	0.435113	-0.460669	0.421369	0.399975	0.441717	-0.419054	0.411994	-0.435558	0.393301	-0.425285	-0.413083	-0.472864	-0.434264
0.42396	0.382371	0.341467	0.496916	0.314312	0.321265	-0.179206	0.432358	0.426254	0.276268	0.429625	-0.395043	0.352527	-0.357144	-0.414257	0.277827	0.286837	-0.358824	-0.200147	0.290197	-0.42301	0.261742	0.390352	0.341344	-0.413388	0.407458	-0.325081	0.383981	-0.353223	-0.452544	-0.348328	-0.30827
0.424762	0.475959	0.405425	0.497531	0.415918	0.408387	-0.381141	0.42384	0.446352	0.474708	0.378018	-0.453048	0.37536	-0.397227	-0.494669	0.37342	0.462432	-0.465345	-0.354724	0.435324	-0.367827	0.462704	0.39006	0.441151	-0.472432	0.436284	-0.478995	0.379221	-0.445593	-0.380571	-0.407822	-0.448571
0.376092	0.335425	0.332335	0.271055	0.426859	0.416171	-0.494387	0.370284	0.378496	0.47643	0.331425	-0.423962	0.363288	-0.429089	-0.399616	0.373329	0.44068	-0.364031	-0.400052	0.398657	-0.437825	0.356986	0.419793	0.468087	-0.381663	0.363634	-0.455925	0.368382	-0.353276	-0.366346	-0.420461	-0.429461
0.336623	0.275589	0.2922	0.298635	0.42121	0.323635	-0.515281	0.457393	0.329402	0.372851	0.369634	-0.337828	0.261197	-0.306853	-0.383705	0.150849	0.424991	-0.454411	-0.543384	0.441486	-0.319219	0.4512	0.33961	0.410718	-0.432225	0.410715	-0.510943	0.378815	-0.459898	-0.371623	-0.207822	-0.468127
0.498551	0.349477	0.339799	0.492178	0.363271	0.385542	-0.3888	0.437206	0.388056	0.419432	0.441009	-0.38954	0.409608	-0.419946	-0.416625	0.422401	0.370419	-0.42982	-0.420015	0.441707	-0.426029	0.381845	0.435825	0.40657	-0.371034	0.354855	-0.433371	0.418388	-0.451279	-0.387663	-0.414776	-0.421324
0.501818	0.453915	0.450168	0.408272	0.387369	0.456345	-0.47872	0.495866	0.437545	0.462958	0.465359	-0.439531	0.392743	-0.449085	-0.403978	0.442289	0.411568	-0.474938	-0.365481	0.433735	-0.428723	0.474886	0.463524	0.511451	-0.419873	0.408941	-0.429369	0.404271	-0.411899	-0.455508	-0.373643	-0.461604
0.286268	0.506473	0.315055	0.353195	0.546115	0.300054	-0.168018	0.591574	0.323702	0.566092	0.481445	-0.465855	0.438218	-0.522172	-0.219978	0.414523	0.394104	-0.314649	-0.298479	0.397174	-0.374001	0.486103	0.34502	0.529528	-0.381897	0.289064	-0.547818	0.371006	-0.415679	-0.2777	-0.48185	-0.451499
0.365966	0.40895	0.447315	0.376292	0.315068	0.476442	-0.431058	0.312069	0.442656	0.393285	0.453636	-0.392928	0.349202	-0.361528	-0.421536	0.399541	0.355473	-0.424022	-0.283471	0.432723	-0.375272	0.452772	0.463908	0.478438	-0.418735	0.441273	-0.395315	0.360737	-0.415148	-0.3665	-0.426932	-0.455903
0.475778	0.476211	0.423082	0.475721	0.419116	0.416201	-0.371784	0.364244	0.393667	0.479265	0.469336	-0.381416	0.424234	-0.406893	-0.415137	0.395038	0.417303	-0.472971	-0.448046	0.506588	-0.400368	0.410159	0.434685	0.446992	-0.422867	0.436287	-0.47493	0.47479	-0.457067	-0.391972	-0.47309	-0.386986
0.440695	0.313663	0.446684	0.409897	0.30769	0.400163	-0.34148	0.38099	0.320319	0.346288	0.338926	-0.374022	0.370911	-0.317522	-0.445226	0.446364	0.482611	-0.355497	-0.457857	0.33092	-0.430249	0.422512	0.438866	0.312536	-0.43426	0.427614	-0.462731	0.336823	-0.312702	-0.359438	-0.389637	-0.372147
0.459181	0.469258	0.343921	0.468589	0.518236	0.347287	-0.104609	0.374092	0.448709	0.303117	0.402271	-0.320541	0.344488	-0.439788	-0.491073	0.0687698	0.106931	-0.413144	-0.356883	0.37518	-0.466082	0.232564	0.355215	0.445368	-0.385478	0.331042	-0.301065	0.41351	-0.24269	-0.46801	-0.402139	-0.407927
0.377683	0.438189	0.3349	0.400014	0.430006	0.427597	-0.439298	0.365138	0.290594	0.356497	0.364324	-0.385968	0.353233	-0.414147	-0.40325	0.345225	0.331282	-0.442909	-0.417234	0.361098	-0.410293	0.45314	0.429891	0.370461	-0.422814	0.436575	-0.32608	0.359976	-0.320589	-0.421764	-0.456712	-0.482544
0.413697	0.401235	0.383917	0.407933	0.404662	0.389616	-0.377882	0.48532	0.393262	0.384008	0.432583	-0.380548	0.430121	-0.399218	-0.39672	0.368546	0.451291	-0.374947	-0.467476	0.444002	-0.463958	0.389155	0.416832	0.473727	-0.404993	0.443007	-0.470959	0.453505	-0.344123	-0.469976	-0.359026	-0.404395
0.345066	0.344186	0.418693	0.319978	0.335471	0.44149	-0.376335	0.324525	0.43149	0.328696	0.446429	-0.46042	0.471083	-0.370385	-0.370202	0.389689	0.427474	-0.428461	-0.446198	0.39618	-0.452744	0.389526	0.461742	0.458714	-0.409731	0.388009	-0.372688	0.345404	-0.388824	-0.39241	-0.507847	-0.383896
0.392328	0.385144	0.321756	0.436588	0.36383	0.375984	-0.399863	0.498713	0.369015	0.357392	0.362322	-0.358705	0.375168	-0.38393	-0.384639	0.394219	0.440388	-0.396625	-0.469848	0.426738	-0.443698	0.4275	0.442705	0.436661	-0.425417	0.470239	-0.47716	0.447596	-0.462656	-0.395989	-0.434415	-0.407575
0.482842	0.298046	0.424747	0.469943	0.412193	0.370655	-0.394075	0.497567	0.404446	0.39707	0.461889	-0.477685	0.408931	-0.387399	-0.379875	0.504804	0.476796	-0.441365	-0.326359	0.363356	-0.366491	0.505608	0.383052	0.477096	-0.463433	0.373937	-0.445378	0.429691	-0.44684	-0.405813	-0.41026	-0.435455
0.458772	0.421853	0.450233	0.494409	0.448189	0.411458	-0.381822	0.438939	0.420123	0.439012	0.480455	-0.396865	0.51126	-0.429835	-0.406857	0.435461	0.393687	-0.427027	-0.352067	0.402161	-0.480761	0.402161	0.471443	0.451844	-0.402874	0.452291	-0.331051	0.387432	-0.466408	-0.424971	-0.376124	-0.510165
0.248801	0.345229	0.450013	0.39703	0.130571	0.26845	-0.35699	0.275394	0.347765	0.290513	0.378579	-0.395476	0.416784	-0.40919	-0.311935	0.3593	0.569515	-0.272166	-0.415051	0.484767	-0.348275	0.300179	0.324627	0.33963	-0.312848	0.400496	-0.344475	0.406217	-0.336427	-0.33731	-0.363847	-0.296418
0.404182	0.387626	0.331514	0.345755	0.330634	0.449031	-0.379478	0.415657	0.398385	0.377081	0.395871	-0.423513	0.406662	-0.401111	-0.438834	0.379663	0.437755	-0.437663	-0.449607	0.371568	-0.35294	0.414779	0.366082	0.380857	-0.41553	0.378762	-0.43604	0.389705	-0.416394	-0.464693	-0.397592	-0.453871
0.384686	0.408413	0.426631	0.35707	0.398852	0.391803	-0.386395	0.336272	0.415981	0.422434	0.402573	-0.422041	0.419602	-0.38778	-0.409428	0.351138	0.428409	-0.386164	-0.427459	0.411766	-0.429488	0.356282	0.409288	0.411619	-0.399769	0.387569	-0.323409	0.358903	-0.329981	-0.405579	-0.367058	-0.45035
0.511656	0.222497	0.406306	0.257024	0.383468	0.360878	-0.314614	0.559648	0.194241	0.40279	0.412707	-0.39806	0.328109	-0.182377	-0.197399	0.112444	0.180717	-0.243104	-0.398507	0.277363	-0.320777	0.0827149	0.2961	0.342556	-0.147277	0.203791	-0.427861	0.391837	0.161324	-0.373091	-0.162567	-0.250283
0.449624	0.425111	0.393088	0.414614	0.472471	0.387383	-0.398893	0.453751	0.426407	0.401434	0.478691	-0.452812	0.475109	-0.483219	-0.374248	0.513547	0.473997	-0.485591	-0.359276	0.472505	-0.427603	0.435156	0.445797	0.495447	-0.436582	0.428971	-0.437358	0.501084	-0.38385	-0.424248	-0.427739	-0.479598
0.369473	0.296018	0.410452	0.38271	0.323193	0.366548	-0.302311	0.425302	0.326977	0.359493	0.379255	-0.384415	0.372634	-0.383808	-0.341966	0.452166	0.319426	-0.442105	-0.335577	0.409587	-0.396436	0.345259	0.340299	0.395972	-0.379554	0.422965	-0.341137	0.345867	-0.357454	-0.355699	-0.390707	-0.335704
0.481506	0.286298	0.381129	0.443797	0.367071	0.400396	-0.456237	0.481934	0.426883	0.358818	0.414926	-0.404707	0.442312	-0.432473	-0.407241	0.458314	0.456093	-0.452616	-0.386059	0.364791	-0.396894	0.477656	0.460002	0.476007	-0.375212	0.360487	-0.431086	0.488879	-0.380629	-0.441022	-0.485399	-0.41854
0.321644	0.193836	0.356133	0.427423	0.440609	0.391615	-0.32425	0.416574	0.395771	0.331704	0.407799	-0.375987	0.350169	-0.291626	-0.332059	0.397243	0.375741	-0.364469	-0.380026	0.346188	-0.360832	0.367726	0.411115	0.335993	-0.391969	0.391554	-0.391779	0.393396	-0.381608	-0.468175	-0.364333	-0.448072
0.36995	0.266474	0.263107	0.392335	0.321805	0.339052	-0.363286	0.285547	0.386046	0.308483	0.367998	-0.339611	0.338427	-0.287991	-0.406648	0.393434	0.358155	-0.368596	-0.229791	0.359452	-0.400304	0.401316	0.322863	0.29089	-0.313143	0.433487	-0.308687	0.325234	-0.327235	-0.345277	-0.302059	-0.326545
0.355135	0.351911	0.442003	0.363554	0.381376	0.383021	-0.413406	0.375836	0.456356	0.386125	0.361076	-0.387547	0.398831	-0.450496	-0.468986	0.427879	0.418625	-0.422847	-0.354798	0.42993	-0.387567	0.432303	0.491697	0.407778	-0.475169	0.424441	-0.475671	0.436515	-0.44311	-0.424986	-0.432622	-0.480887
0.404858	0.428206	0.359692	0.456498	0.379488	0.462576	-0.436046	0.456746	0.348382	0.353088	0.4238	-0.41952	0.444333	-0.430352	-0.418398	0.422322	0.370917	-0.476235	-0.46168	0.424032	-0.378059	0.385458	0.392221	0.488164	-0.420534	0.422595	-0.39088	0.407032	-0.447667	-0.448186	-0.393718	-0.456919
0.320176	0.320006	0.38669	0.39046	0.309469	0.345807	-0.262585	0.308029	0.301364	0.398358	0.323753	-0.311169	0.26388	-0.383686	-0.323026	0.382385	0.234069	-0.339181	-0.356067	0.339791	-0.3621	0.348704	0.322165	0.407432	-0.376838	0.28316	-0.304364	0.294849	-0.262038	-0.369778	-0.360523	-0.279218
0.422169	0.484511	0.422358	0.302114	0.265815	0.421423	-0.433782	0.347754	0.315722	0.384802	0.391032	-0.482484	0.224789	-0.386786	-0.397138	0.411794	0.429218	-0.306458	-0.315916	0.369675	-0.337593	0.383324	0.406298	0.334897	-0.376592	0.39663	-0.346425	0.452126	-0.462733	-0.434596	-0.393245	-0.419111
0.430282	0.373565	0.38774	0.462963	0.374097	0.423894	-0.439404	0.464803	0.452817	0.382666	0.455639	-0.403466	0.4543	-0.391772	-0.407153	0.404303	0.480316	-0.474166	-0.385496	0.408855	-0.403136	0.437138	0.446933	0.38175	-0.362685	0.386488	-0.445247	0.40114	-0.401444	-0.477245	-0.392609	-0.431039
0.348403	0.363542	0.314104	0.333307	0.448172	0.343917	-0.432653	0.372531	0.346871	0.307101	0.37384	-0.414518	0.399566	-0.4052	-0.274078	0.355067	0.465797	-0.418992	-0.323318	0.437578	-0.408443	0.329666	0.380603	0.312902	-0.440249	0.366451	-0.4013	0.385188	-0.309549	-0.341719	-0.335529	-0.423411
0.474559	0.468545	0.4372	0.421465	0.36864	0.447488	-0.332998	0.371093	0.43961	0.471815	0.506168	-0.397686	0.43293	-0.478161	-0.483195	0.410861	0.376077	-0.496086	-0.419284	0.390813	-0.407117	0.489204	0.406294	0.508339	-0.453237	0.42878	-0.442528	0.415054	-0.409777	-0.458489	-0.472737	-0.414966
0.404197	0.423599	0.341537	0.396149	0.370868	0.378741	-0.334676	0.363221	0.319235	0.356364	0.377166	-0.337207	0.425232	-0.317581	-0.416194	0.335659	0.301388	-0.424571	-0.453525	0.434615	-0.377894	0.463351	0.420964	0.396296	-0.324704	0.412838	-0.424993	0.353036	-0.279102	-0.436678	-0.428508	-0.327403
0.494877	0.338802	0.43512	0.452926	0.462782	0.417752	-0.414371	0.444489	0.321004	0.496035	0.464229	-0.390164	0.398847	-0.455933	-0.431103	0.435381	0.496224	-0.432525	-0.421011	0.452566	-0.45531	0.462989	0.386814	0.374921	-0.377478	0.449022	-0.398946	0.468472	-0.419492	-0.375637	-0.410578	-0.478516
0.436387	0.381891	0.476994	0.424329	0.413655	0.361727	-0.389997	0.451704	0.456904	0.343254	0.387743	-0.470718	0.330101	-0.420931	-0.33314	0.312494	0.203213	-0.412096	-0.363512	0.346642	-0.383795	0.344319	0.409062	0.332435	-0.40865	0.446991	-0.385851	0.361587	-0.422173	-0.387827	-0.4034	-0.33597
0.414179	0.298538	0.40912	0.469979	0.372316	0.423076	-0.477636	0.44255	0.546639	0.296864	0.451102	-0.372357	0.468398	-0.455066	-0.250759	0.423563	0.511759	-0.373616	-0.346353	0.407688	-0.377927	0.310329	0.478481	0.347142	-0.413425	0.417544	-0.484527	0.327767	-0.465259	-0.480361	-0.307703	-0.374259
0.355314	0.305291	0.44847	0.329638	0.41869	0.341094	-0.332894	0.446176	0.418168	0.317498	0.437232	-0.410907	0.291052	-0.334933	-0.297888	0.226422	0.280837	-0.35575	-0.380481	0.418803	-0.343124	0.271165	0.383493	0.418619	-0.347583	0.423888	-0.409501	0.456136	-0.330989	-0.358549	-0.394063	-0.330804
0.375243	0.301705	0.350527	0.33012	0.465042	0.42568	-0.498155	0.255407	0.366171	0.344844	0.479471	-0.3392	0.326465	-0.446688	-0.404465	0.405347	0.402381	-0.45138	-0.371022	0.397664	-0.382629	0.380715	0.371081	0.369813	-0.323053	0.436776	-0.401306	0.452858	-0.35762	-0.421047	-0.442064	-0.464129
0.426401	0.387916	0.422107	0.336884	0.305315	0.444023	-0.459903	0.361344	0.433338	0.377905	0.378003	-0.385443	0.337855	-0.441771	-0.352788	0.429265	0.440849	-0.384618	-0.417169	0.34757	-0.443643	0.456066	0.355091	0.410178	-0.404077	0.387592	-0.387231	0.371582	-0.329053	-0.453162	-0.35486	-0.372669
0.470134	0.319502	0.41056	0.471523	0.442105	0.492366	-0.46807	0.456573	0.414031	0.427273	0.496369	-0.419704	0.463297	-0.391938	-0.350345	0.513271	0.453126	-0.480528	-0.391232	0.405245	-0.519862	0.517562	0.400769	0.466443	-0.482143	0.377331	-0.491993	0.470777	-0.420017	-0.446065	-0.391703	-0.487788
0.341707	0.459227	0.396264	0.335306	0.392929	0.394927	-0.384905	0.415807	0.432585	0.425966	0.368278	-0.419622	0.471383	-0.427257	-0.454589	0.419347	0.397782	-0.437606	-0.345189	0.459498	-0.351449	0.41878	0.409008	0.383382	-0.425155	0.417064	-0.369754	0.390079	-0.435189	-0.378298	-0.380929	-0.393854
0.361301	0.44831	0.294149	0.367648	0.355491	0.466591	-0.230971	0.266821	0.132689	0.262942	0.412608	-0.356416	0.227069	-0.280772	-0.265293	0.146918	0.506857	-0.406562	-0.344827	0.301034	-0.4354	0.391059	0.285256	0.346819	-0.467682	0.312239	-0.203969	0.260577	-0.382921	-0.46898	-0.467182	-0.366323
0.493732	0.496994	0.0757454	0.18801	0.209815	0.237109	-0.239812	0.590147	0.319884	0.467109	0.285234	-0.356948	0.318753	-0.303712	0.0630968	0.258157	-0.251593	-0.140389	-0.329173	0.269568	-0.190661	0.261793	0.253927	0.232513	-0.398469	0.404481	-0.351124	0.245461	-0.201159	-0.334201	-0.43355	-0.352653
0.463578	0.388907	0.312591	0.378674	0.415452	0.452846	-0.448276	0.435153	0.460732	0.381405	0.427577	-0.413155	0.314372	-0.378836	-0.395309	0.403637	0.465803	-0.399528	-0.356661	0.380641	-0.413717	0.444922	0.368023	0.430495	-0.468001	0.407482	-0.461174	0.422961	-0.469851	-0.387215	-0.443724	-0.348114
0.404699	0.373112	0.39364	0.446507	0.384206	0.408881	-0.478742	0.436807	0.479405	0.43057	0.439389	-0.483354	0.403621	-0.396168	-0.397999	0.413559	0.419619	-0.442615	-0.39233	0.404138	-0.389933	0.453264	0.419585	0.473529	-0.381762	0.422661	-0.383807	0.397556	-0.443523	-0.406201	-0.482108	-0.489006
0.344282	0.411803	0.32445	0.35647	0.315363	0.380844	-0.409079	0.37102	0.347868	0.321367	0.324719	-0.372103	0.446425	-0.331703	-0.363798	0.471376	0.325952	-0.326453	-0.343797	0.413509	-0.404198	0.456308	0.392662	0.396977	-0.398226	0.43511	-0.484566	0.349346	-0.365528	-0.379807	-0.37646	-0.409083
0.373341	0.401536	0.364531	0.342765	0.437477	0.416841	-0.343308	0.2719	0.369849	0.39552	0.433387	-0.414138	0.362752	-0.274528	-0.366241	0.418385	0.408481	-0.397651	-0.290185	0.356048	-0.368031	0.36488	0.34586	0.347401	-0.417269	0.381194	-0.361661	0.424108	-0.339305	-0.3336	-0.431636	-0.407798
0.413336	0.385399	0.439185	0.36727	0.394009	0.440653	-0.418725	0.40318	0.379926	0.453786	0.4194	-0.390465	0.384432	-0.424973	-0.408537	0.46556	0.357736	-0.357554	-0.302258	0.435114	-0.363116	0.411849	0.389408	0.469727	-0.392618	0.393179	-0.413332	0.455028	-0.372325	-0.377322	-0.479609	-0.430774
0.480186	0.314651	0.371035	0.463628	0.428298	0.467873	-0.447903	0.455197	0.379755	0.379748	0.409713	-0.428076	0.455623	-0.393563	-0.437021	0.417615	0.410246	-0.464738	-0.454804	0.445914	-0.424566	0.438286	0.418542	0.461396	-0.462789	0.436365	-0.382941	0.390534	-0.46251	-0.415618	-0.413405	-0.387245
0.388394	0.492471	0.332772	0.330937	0.298686	0.430094	-0.444432	0.511134	0.487435	0.509035	0.310275	-0.288479	0.40817	-0.361173	-0.591892	0.404386	0.491752	-0.470248	-0.454138	0.383922	-0.229009	0.527111	0.41189	0.423998	-0.41251	0.384541	-0.463107	0.317748	-0.407532	-0.362524	-0.520969	-0.338966
0.427647	0.346789	0.392367	0.519075	0.281955	0.371059	-0.321066	0.409746	0.387539	0.301954	0.450277	-0.463503	0.361967	-0.349128	-0.42814	0.423207	0.336787	-0.403159	-0.279728	0.417806	-0.394777	0.374857	0.460992	0.355405	-0.345101	0.349222	-0.315807	0.391351	-0.364961	-0.435161	-0.31649	-0.260711
0.274351	0.125976	0.354228	0.328241	0.13959	0.42419	-0.563972	0.422115	0.393137	0.314382	0.450639	-0.4145	0.293261	-0.353059	-0.467777	0.284144	0.274433	-0.268974	-0.246851	0.366784	-0.347703	0.349267	0.350758	0.363742	-0.396347	0.256713	-0.320185	0.386211	-0.470321	-0.249306	-0.244069	-0.263877
0.329565	0.408287	0.404565	0.399151	0.395237	0.475584	-0.430475	0.424883	0.455585	0.394689	0.446843	-0.432714	0.453084	-0.432638	-0.342366	0.402647	0.476013	-0.374358	-0.437685	0.415548	-0.407296	0.399114	0.324371	0.446056	-0.482133	0.398566	-0.368832	0.449067	-0.488442	-0.432231	-0.436509	-0.378121
0.400977	0.39443	0.359305	0.39117	0.327031	0.383984	-0.31749	0.306507	0.415222	0.417559	0.395189	-0.371216	0.375134	-0.383389	-0.305123	0.41658	0.405899	-0.371256	-0.358116	0.432085	-0.34918	0.336841	0.447472	0.401715	-0.43815	0.35832	-0.390236	0.322826	-0.380904	-0.464709	-0.354139	-0.446279
0.463132	0.435944	0.411618	0.434068	0.474751	0.414111	-0.455728	0.448216	0.43149	0.404619	0.477367	-0.473331	0.482296	-0.446438	-0.439114	0.423354	0.374286	-0.510795	-0.442384	0.425937	-0.45022	0.459272	0.456108	0.405264	-0.476002	0.406549	-0.423289	0.390363	-0.464961	-0.43868	-0.418664	-0.487306
0.351751	0.369091	0.397184	0.382849	0.372859	0.373509	-0.427944	0.429351	0.391188	0.440643	0.32804	-0.384874	0.435279	-0.313765	-0.482483	0.394994	0.41501	-0.401529	-0.347856	0.356568	-0.375544	0.338004	0.422736	0.323186	-0.34577	0.423349	-0.411268	0.392979	-0.470474	-0.352721	-0.446215	-0.379426
0.496505	0.399797	0.372731	0.418626	0.385654	0.413589	-0.400279	0.383923	0.444562	0.463295	0.396387	-0.409305	0.478938	-0.489594	-0.429387	0.513953	0.467088	-0.491604	-0.459151	0.422432	-0.441223	0.420984	0.508332	0.41137	-0.396581	0.458949	-0.404868	0.424104	-0.473983	-0.412694	-0.342562	-0.487324
0.293568	0.397421	0.349558	0.426216	0.325098	0.346158	-0.418512	0.295372	0.399596	0.362435	0.377544	-0.377534	0.314499	-0.416818	-0.355002	0.316475	0.298817	-0.330993	-0.295329	0.395851	-0.319441	0.354437	0.358363	0.407555	-0.393377	0.334186	-0.400934	0.387122	-0.451195	-0.391203	-0.301532	-0.297864
0.39656	0.353991	0.298845	0.395366	0.377179	0.318178	-0.366581	0.233055	0.243506	0.368976	0.273636	-0.273786	0.409436	-0.362822	-0.393742	0.191013	0.408455	-0.42823	-0.417738	0.362648	-0.355047	0.30175	0.276323	0.328029	-0.294871	0.309763	-0.281566	0.306927	-0.285344	-0.352783	-0.383928	-0.41648
0.356184	0.349857	0.42479	0.43284	0.390874	0.36014	-0.494294	0.377348	0.353664	0.363474	0.475319	-0.363921	0.421015	-0.394506	-0.438996	0.44072	0.430729	-0.44938	-0.441186	0.388499	-0.444957	0.352146	0.450308	0.405073	-0.362372	0.440744	-0.453789	0.317178	-0.395605	-0.3897	-0.417829	-0.353962
0.33807	0.438772	0.328063	0.388161	0.399904	0.411747	-0.358598	0.347256	0.464915	0.480613	0.379313	-0.423628	0.456652	-0.399663	-0.455393	0.408946	0.430815	-0.471766	-0.409697	0.440077	-0.444332	0.418182	0.432175	0.431633	-0.4354	0.469982	-0.393945	0.407565	-0.476546	-0.405776	-0.490562	-0.433287
0.377865	0.424839	0.396803	0.303522	0.128505	0.40376	-0.293212	0.257732	0.173245	0.37562	0.336312	-0.454273	0.180978	-0.340202	-0.346242	0.271152	0.462134	-0.288901	-0.3053	0.464117	-0.281373	0.384105	0.416262	0.472504	-0.398315	0.328731	-0.424912	0.304751	-0.329084	-0.426636	-0.274224	-0.414256
0.48518	0.3883	0.372871	0.383862	0.430271	0.455259	-0.327848	0.393548	0.334463	0.349639	0.412735	-0.412453	0.361664	-0.363803	-0.3776	0.353569	0.467417	-0.417959	-0.377799	0.463594	-0.398573	0.368543	0.436375	0.362963	-0.434332	0.369063	-0.455025	0.388832	-0.411529	-0.305431	-0.392405	-0.454218
0.461347	0.342051	0.360975	0.459636	0.298288	0.371777	-0.3822	0.362774	0.359901	0.343834	0.404487	-0.390558	0.409269	-0.365834	-0.381566	0.413953	0.358762	-0.456404	-0.340809	0.354042	-0.456572	0.380489	0.406516	0.327932	-0.332553	0.391455	-0.417415	0.362061	-0.341554	-0.406402	-0.430256	-0.441481
0.475599	0.318727	0.483201	0.477706	0.266011	0.45972	-0.279525	0.240353	0.459489	0.480273	0.364914	-0.483969	0.34881	-0.418138	-0.418505	0.500377	0.541245	-0.375913	-0.385086	0.478271	-0.38352	0.380286	0.372683	0.445969	-0.382218	0.49494	-0.391233	0.471114	-0.3306	-0.362981	-0.357919	-0.373687
0.391909	0.348365	0.297808	0.341324	0.336252	0.335308	-0.40548	0.34019	0.376994	0.329063	0.36817	-0.407143	0.338104	-0.38499	-0.431019	0.395561	0.360772	-0.364982	-0.329318	0.370996	-0.406739	0.411128	0.354559	0.407748	-0.39037	0.363643	-0.447836	0.346083	-0.399218	-0.379742	-0.324185	-0.336709
0.435993	0.377349	0.451361	0.453214	0.428201	0.475878	-0.483814	0.39613	0.405356	0.407686	0.358824	-0.399256	0.43631	-0.437726	-0.461334	0.443479	0.389844	-0.487911	-0.473945	0.438999	-0.402222	0.407495	0.506277	0.35703	-0.461176	0.444359	-0.489847	0.460971	-0.398497	-0.424849	-0.444263	-0.470325
0.39524	0.358626	0.364108	0.405985	0.451612	0.454868	-0.424848	0.502145	0.376157	0.367996	0.463086	-0.437922	0.482116	-0.404208	-0.500273	0.454919	0.401938	-0.478132	-0.426777	0.470408	-0.459955	0.486684	0.402915	0.502057	-0.398794	0.363833	-0.460572	0.457306	-0.400285	-0.447059	-0.419665	-0.437763
0.485678	0.470685	0.334768	0.411736	0.363425	0.472225	-0.457258	0.393372	0.447274	0.394073	0.484997	-0.448175	0.426067	-0.416454	-0.383891	0.408201	0.500176	-0.465729	-0.390561	0.481729	-0.391799	0.403585	0.438415	0.435724	-0.435959	0.472441	-0.493345	0.456448	-0.484212	-0.429271	-0.42617	-0.377825
0.401401	0.340971	0.484465	0.42632	0.375463	0.391914	-0.435556	0.37086	0.41192	0.364006	0.357205	-0.393258	0.432484	-0.4685	-0.464534	0.495725	0.458866	-0.406858	-0.395046	0.424752	-0.376282	0.470925	0.390386	0.377307	-0.39438	0.439435	-0.429082	0.441561	-0.360901	-0.389372	-0.393892	-0.367156
0.474506	0.303459	0.364733	0.439306	0.382505	0.411127	-0.463772	0.459103	0.404598	0.439058	0.443387	-0.407431	0.373623	-0.342519	-0.380262	0.426744	0.42599	-0.420523	-0.448351	0.390133	-0.43175	0.387197	0.441665	0.472569	-0.390957	0.349035	-0.319882	0.467941	-0.459073	-0.43077	-0.446207	-0.386456
0.430656	0.418778	0.408003	0.389373	0.381854	0.445713	-0.470853	0.363012	0.471411	0.473546	0.469043	-0.507283	0.45217	-0.45092	-0.491838	0.463422	0.419937	-0.473517	-0.40422	0.484422	-0.383416	0.495214	0.466242	0.505621	-0.428609	0.405263	-0.4825	0.441516	-0.444234	-0.51016	-0.437914	-0.383828
0.354978	0.406828	0.398881	0.333074	0.475085	0.50477	-0.574079	0.450123	0.550115	0.301169	0.348467	-0.247879	0.242112	-0.487886	-0.415216	0.329846	0.425199	-0.381537	-0.266486	0.459538	-0.30151	0.281158	0.451812	0.343966	-0.449674	0.469524	-0.543358	0.360478	-0.415385	-0.448884	-0.506922	-0.454503
0.481627	0.365069	0.414125	0.406495	0.465842	0.334808	-0.277816	0.43852	0.438674	0.349185	0.44509	-0.359629	0.349006	-0.436639	-0.460941	0.2873	0.252045	-0.401044	-0.379521	0.413522	-0.371637	0.320124	0.388346	0.368306	-0.365915	0.411297	-0.343053	0.364928	-0.359336	-0.377847	-0.360099	-0.341116
0.480189	0.420519	0.484377	0.449883	0.416356	0.445598	-0.469931	0.414424	0.486198	0.379055	0.470527	-0.452663	0.359572	-0.508496	-0.464187	0.488034	0.461512	-0.463376	-0.410318	0.472331	-0.380373	0.422825	0.360348	0.377605	-0.426773	0.403123	-0.396366	0.432749	-0.426069	-0.388301	-0.473485	-0.452697
0.399938	0.328836	0.435558	0.434179	0.380622	0.550678	-0.509875	0.429942	0.377958	0.425123	0.343634	-0.343414	0.300962	-0.42372	-0.39608	0.266661	0.476139	-0.390658	-0.331302	0.455834	-0.478679	0.418675	0.45994	0.369939	-0.362565	0.441371	-0.459853	0.465198	-0.325126	-0.38302	-0.36752	-0.453825
0.472207	0.409322	0.436306	0.460263	0.383823	0.411971	-0.391194	0.358272	0.389565	0.352041	0.472356	-0.452093	0.41832	-0.446941	-0.470773	0.432584	0.446445	-0.486855	-0.47759	0.458478	-0.457001	0.418265	0.398577	0.438802	-0.373416	0.397846	-0.495658	0.384518	-0.419361	-0.413438	-0.309976	-0.437822
0.359404	0.374064	0.39816	0.38322	0.458337	0.419134	-0.450832	0.264454	0.364091	0.387948	0.413285	-0.364263	0.460357	-0.369666	-0.438938	0.382115	0.371498	-0.388638	-0.398802	0.456289	-0.340702	0.422975	0.475201	0.356462	-0.439892	0.480176	-0.451422	0.356355	-0.496932	-0.41554	-0.405021	-0.36095
0.480821	0.443821	0.336565	0.39469	0.452365	0.42048	-0.415368	0.458129	0.411586	0.31052	0.439925	-0.455634	0.387151	-0.369204	-0.30735	0.30391	0.33293	-0.400177	-0.419035	0.395315	-0.41532	0.371465	0.391007	0.431485	-0.445152	0.34041	-0.397154	0.481091	-0.366874	-0.440136	-0.35608	-0.388064
0.444147	0.28442	0.381929	0.375904	0.416171	0.438668	-0.420097	0.430353	0.359768	0.434402	0.467277	-0.386779	0.353929	-0.444734	-0.386611	0.403613	0.488812	-0.453568	-0.404282	0.380041	-0.393259	0.471058	0.366916	0.397776	-0.425659	0.46738	-0.337563	0.45374	-0.406588	-0.365443	-0.447693	-0.491203
0.32792	0.472203	0.353847	0.414339	0.439873	0.372673	-0.377721	0.383158	0.469189	0.390173	0.350783	-0.414707	0.427436	-0.316454	-0.438573	0.413928	0.483863	-0.394594	-0.364448	0.459279	-0.335821	0.332812	0.434754	0.441371	-0.348697	0.399221	-0.426605	0.389871	-0.416937	-0.434431	-0.390515	-0.386719
0.466803	0.444837	0.408951	0.434553	0.456856	0.410908	-0.472701	0.323668	0.518837	0.465338	0.388148	-0.392024	0.436705	-0.405244	-0.473687	0.454968	0.424066	-0.463253	-0.477827	0.503827	-0.407616	0.458578	0.404692	0.370854	-0.416775	0.421592	-0.441888	0.487413	-0.350371	-0.465962	-0.443367	-0.505419
0.372203	0.398046	0.369199	0.371371	0.497077	0.487277	-0.453912	0.35333	0.410053	0.361014	0.437562	-0.448214	0.451005	-0.453424	-0.400168	0.460148	0.418032	-0.40754	-0.460124	0.427519	-0.427893	0.471101	0.361861	0.423548	-0.355532	0.414273	-0.435876	0.482784	-0.426146	-0.452427	-0.44625	-0.417159
0.42629	0.562282	0.406722	0.453962	0.362378	0.413279	-0.402368	0.353774	0.209353	0.353505	0.495047	-0.34229	0.352693	-0.373363	-0.389857	0.335035	0.558142	-0.466116	-0.465121	0.543874	-0.49676	0.375802	0.368812	0.535117	-0.386311	0.54405	-0.311381	0.422877	-0.323068	-0.399172	-0.373828	-0.412697
0.347497	0.412902	0.122063	0.510616	0.528546	0.370525	-0.419945	0.226451	0.536917	0.469424	0.377888	-0.486037	0.321383	-0.418736	-0.432676	0.30769	0.532723	-0.407601	-0.442026	0.46888	-0.378221	0.277802	0.479753	0.389466	-0.387713	0.544284	-0.489626	0.487182	-0.559545	-0.445389	-0.402208	-0.394032
0.428434	0.419517	0.394674	0.380329	0.407061	0.366089	-0.431055	0.325875	0.370401	0.373481	0.441278	-0.459061	0.422929	-0.347426	-0.390731	0.283077	0.322757	-0.370356	-0.327303	0.391537	-0.412244	0.377776	0.471984	0.481527	-0.357722	0.408947	-0.381731	0.472711	-0.449152	-0.463284	-0.41928	-0.362939
0.333282	0.294703	0.263245	0.498378	0.245612	0.485461	-0.360745	0.500429	0.439372	0.41709	0.424002	-0.37925	0.537634	-0.517843	-0.375812	0.401384	0.339107	-0.395798	-0.434093	0.400472	-0.489383	0.513681	0.404364	0.442879	-0.459125	0.41371	-0.396754	0.483729	-0.324112	-0.385589	-0.504119	-0.439204
0.403952	0.3697	0.427449	0.421879	0.50512	0.539985	-0.425872	0.410263	0.485924	0.462288	0.491964	-0.387061	0.419104	-0.452785	-0.31376	0.439418	0.30654	-0.460324	-0.382929	0.411762	-0.397452	0.399736	0.412358	0.497129	-0.381931	0.428073	-0.489143	0.370326	-0.377488	-0.537741	-0.433762	-0.464313
0.367895	0.273214	0.347725	0.295436	0.362415	0.39411	-0.329822	0.334559	0.476068	0.340278	0.409756	-0.334865	0.364945	-0.371544	-0.25939	0.33872	0.478044	-0.320747	-0.300037	0.389023	-0.418619	0.363451	0.423196	0.355999	-0.386618	0.420463	-0.327217	0.362866	-0.421565	-0.313136	-0.296341	-0.352601
0.280452	0.355663	0.45821	0.321169	0.481826	0.347161	-0.489133	0.375289	0.239509	0.431622	0.310973	-0.265097	0.260849	-0.466197	-0.424978	0.245498	0.403781	-0.3203	-0.472195	0.328106	-0.399072	0.257526	0.234779	0.430608	-0.408368	0.361948	-0.295167	0.344472	-0.386019	-0.403861	-0.533934	-0.414406
0.444508	0.349843	0.43151	0.475258	0.43906	0.417765	-0.419214	0.401837	0.41646	0.382581	0.362533	-0.466521	0.414013	-0.430608	-0.453048	0.385498	0.367314	-0.423975	-0.424296	0.451092	-0.389816	0.387141	0.418977	0.447317	-0.464151	0.437146	-0.418729	0.44725	-0.396218	-0.390209	-0.327544	-0.397483
0.389273	0.343335	0.314453	0.461727	0.326173	0.430752	-0.47112	0.344916	0.381121	0.388563	0.453252	-0.378327	0.518456	-0.415655	-0.478745	0.438902	0.447987	-0.390086	-0.413704	0.381986	-0.350277	0.385243	0.401647	0.435195	-0.489151	0.453837	-0.447089	0.36384	-0.323238	-0.470222	-0.429481	-0.398522
0.386696	0.341993	0.368842	0.346356	0.388426	0.313275	-0.319325	0.368393	0.375697	0.285182	0.385248	-0.398195	0.426817	-0.400502	-0.336229	0.352186	0.408376	-0.386918	-0.314304	0.393152	-0.418156	0.354431	0.342405	0.381263	-0.338637	0.391894	-0.369576	0.420467	-0.32361	-0.352699	-0.264259	-0.347575
0.301594	0.378769	0.288641	0.459632	0.202423	0.332496	-0.523513	0.304284	0.33529	0.327364	0.423982	-0.392968	0.478607	-0.37251	-0.502651	0.516357	0.508962	-0.431964	-0.266196	0.455966	-0.439521	0.376973	0.322644	0.467447	-0.469913	0.417113	-0.341041	0.270015	-0.337966	-0.423876	-0.312182	-0.311505
0.283412	0.223588	0.421202	0.268884	0.350782	0.357281	-0.568889	0.312771	0.441312	0.327484	0.36898	-0.37655	0.299799	-0.298506	-0.4974	0.178637	0.247192	-0.423792	-0.50167	0.456946	-0.349286	0.325292	0.309112	0.389846	-0.327499	0.453743	-0.460425	0.351881	-0.419468	-0.40664	-0.353523	-0.342907
0.381921	0.407921	0.39696	0.465727	0.404829	0.417481	-0.442598	0.458943	0.372303	0.418273	0.482021	-0.479962	0.384001	-0.507763	-0.472709	0.466888	0.478836	-0.448769	-0.451779	0.425338	-0.45567	0.423007	0.413258	0.435491	-0.514472	0.365239	-0.480567	0.474625	-0.502435	-0.484751	-0.417503	-0.50122
0.352248	0.32926	0.38816	0.340745	0.339685	0.381863	-0.407842	0.464706	0.396413	0.351573	0.337316	-0.421485	0.354709	-0.319167	-0.418341	0.436764	0.441292	-0.364417	-0.341282	0.372689	-0.433751	0.44341	0.399971	0.340265	-0.392604	0.36499	-0.361582	0.400728	-0.327578	-0.391867	-0.415047	-0.405718
0.400998	0.408257	0.277606	0.351274	0.399722	0.243696	-0.23431	0.237266	0.328902	0.328623	0.31282	-0.33556	0.428702	-0.367466	-0.46717	0.204621	0.213466	-0.349053	-0.361476	0.37407	-0.34165	0.280459	0.354297	0.381364	-0.345916	0.391547	-0.325132	0.282715	-0.404214	-0.382831	-0.262722	-0.318478
0.33591	0.421214	0.45296	0.430554	0.371367	0.357449	-0.39851	0.291637	0.465051	0.424723	0.364102	-0.361604	0.433384	-0.404296	-0.4047	0.485218	0.370384	-0.383425	-0.444283	0.375919	-0.44673	0.332294	0.442273	0.410746	-0.415827	0.381483	-0.440159	0.388762	-0.385627	-0.419062	-0.415975	-0.345994
0.366434	0.376225	0.379254	0.416018	0.389136	0.436223	-0.409823	0.346874	0.421923	0.46768	0.338381	-0.459214	0.359241	-0.379585	-0.450061	0.314925	0.38955	-0.4468	-0.382295	0.461946	-0.397928	0.375503	0.413332	0.373638	-0.418633	0.423207	-0.415923	0.380407	-0.358183	-0.347733	-0.386745	-0.404921
0.415649	0.351998	0.459256	0.407533	0.396914	0.426491	-0.303374	0.44504	0.339525	0.312258	0.413761	-0.417841	0.379002	-0.366496	-0.401749	0.470948	0.515014	-0.467314	-0.448896	0.391688	-0.378287	0.393123	0.413618	0.441055	-0.45023	0.390191	-0.324186	0.460805	-0.452547	-0.334602	-0.422708	-0.398959
0.376653	0.392471	0.463006	0.432032	0.358706	0.406913	-0.43747	0.482126	0.365868	0.432065	0.419502	-0.502439	0.347812	-0.416708	-0.369088	0.349879	0.371078	-0.413921	-0.362489	0.357863	-0.38175	0.447157	0.346548	0.408935	-0.356556	0.42794	-0.441789	0.456555	-0.334585	-0.396635	-0.424408	-0.435839
0.448771	0.357554	0.373475	0.366715	0.410924	0.40908	-0.460246	0.448814	0.480056	0.334289	0.474895	-0.380113	0.43037	-0.340058	-0.439716	0.375926	0.374916	-0.466665	-0.376244	0.387699	-0.4554	0.422789	0.419506	0.415134	-0.391605	0.375117	-0.437033	0.440867	-0.376534	-0.433239	-0.402747	-0.428891
