-0.0137713	-0.000211217	0.00700825	-0.00287103	-0.0440299	-0.0228964	0.0143694	-0.0387807	0.0349693	0.0139782	0.0406843	-0.00241964	-0.0207151	-0.035713	-0.0402407	-0.038569	-0.0330498	0.0485583	0.0266228	-0.0375349	-0.0343954	0.0127047	-0.00457293	0.0180093	0.0134104	0.0438393	-0.0219956	0.000834011	0.00213431	-0.0399328	0.0448959	-0.0232873
0.417205	-0.456218	0.512145	-0.465778	0.488611	-0.478815	0.480987	-0.434943	-0.452146	0.261095	0.393582	-0.409788	-0.476029	-0.42668	-0.378882	0.470856	0.248718	0.418023	-0.501664	0.431151	-0.453989	-0.410005	-0.724972	0.523364	0.45243	-0.39705	-0.453033	0.493316	0.491193	-0.488284	0.511297	0.452685
0.499792	-0.465028	0.378463	-0.471659	0.379087	-0.448981	0.470742	-0.427089	-0.458122	0.42924	0.461996	-0.484753	-0.409994	-0.484778	-0.36011	0.480451	0.573313	0.443021	-0.413603	0.422297	-0.472658	-0.414892	-0.127837	0.429758	0.374631	-0.445199	-0.440048	0.446621	0.40163	-0.380937	0.38466	0.604382
0.458095	-0.474549	0.374068	-0.500299	0.432604	-0.511435	0.490014	-0.521027	-0.480188	0.353361	0.411652	-0.441707	-0.401581	-0.483906	-0.332167	0.429708	0.409772	0.459132	-0.495112	0.418115	-0.426693	-0.461097	0.161186	0.415161	0.456881	-0.511723	-0.497225	0.475568	0.418438	-0.410226	0.404046	0.75983
0.435162	-0.424089	0.492619	-0.477809	0.421726	-0.384859	0.427993	-0.451564	-0.400507	0.442055	0.495118	-0.41459	-0.338671	-0.355227	-0.44418	0.468911	0.556716	0.445455	-0.47642	0.465007	-0.412739	-0.481977	-0.674633	0.391625	0.475182	-0.393071	-0.481162	0.427745	0.374894	-0.505243	0.465982	0.37705
0.41432	-0.418547	0.500699	-0.347079	0.333275	-0.410526	0.412494	-0.413278	-0.376325	0.454269	0.463955	-0.409622	-0.459368	-0.41516	-0.384911	0.389056	0.209714	0.401309	-0.39314	0.372524	-0.43997	-0.455617	0.0845794	0.349225	0.414606	-0.419775	-0.260642	0.418961	0.413804	-0.336289	0.336851	0.656423
0.502175	-0.376094	0.484873	-0.470511	0.455192	-0.400947	0.498449	-0.377112	-0.450884	0.327281	0.451232	-0.466659	-0.456893	-0.456277	-0.517174	0.410373	0.254718	0.453442	-0.447705	0.470296	-0.373845	-0.457829	-0.579691	0.469589	0.476815	-0.428913	-0.371752	0.376491	0.425931	-0.403366	0.493123	0.102865
0.444976	-0.45816	0.530717	-0.500085	0.444469	-0.393275	0.459317	-0.496928	-0.393014	0.479934	0.434074	-0.433008	-0.405812	-0.452457	-0.461094	0.381712	0.527698	0.433807	-0.503732	0.482983	-0.429651	-0.494102	-0.603834	0.37851	0.412335	-0.491697	-0.373797	0.439282	0.4885	-0.461936	0.361708	0.339522
0.429406	-0.388329	0.56155	-0.431563	0.487812	-0.442988	0.428139	-0.408691	-0.480541	0.444358	0.370202	-0.46701	-0.491113	-0.433254	-0.397531	0.457675	0.605272	0.488111	-0.506745	0.430903	-0.408164	-0.470905	-0.4027	0.346858	0.455259	-0.377418	-0.473804	0.390636	0.450348	-0.4791	0.41236	0.122807
0.283264	-0.460851	0.0413499	-0.477801	0.419974	-0.516438	0.319826	-0.449563	-0.480244	0.644398	0.38107	-0.398388	-0.418081	-0.440299	-0.429321	0.372855	0.0071647	0.439346	-0.379062	0.486627	-0.384291	-0.458381	0.483079	0.414611	0.495659	-0.423799	-0.471782	0.400303	0.267474	-0.4679	0.505132	0.784372
0.325098	-0.379029	0.370872	-0.361997	0.426683	-0.495205	0.345964	-0.405005	-0.414086	0.50299	0.449905	-0.342679	-0.380297	-0.416921	-0.486558	0.301055	-0.0792061	0.393844	-0.438355	0.383502	-0.420793	-0.387429	0.362729	0.422297	0.480114	-0.420721	-0.304734	0.366671	0.427297	-0.443321	0.51654	-0.19352
0.443169	-0.363161	0.196173	-0.414471	0.429875	-0.45483	0.374971	-0.465483	-0.427582	0.55049	0.398308	-0.437653	-0.335093	-0.41037	-0.520835	0.413779	0.119112	0.377037	-0.461436	0.363141	-0.468777	-0.462	-0.18862	0.457092	0.408706	-0.453319	-0.409287	0.470268	0.327104	-0.393626	0.502758	-0.270486
0.475297	-0.4288	0.377841	-0.441239	0.432078	-0.455272	0.485611	-0.420669	-0.402754	0.458369	0.3713	-0.438258	-0.448741	-0.484481	-0.458298	0.342088	0.529296	0.358489	-0.381864	0.352618	-0.392782	-0.48723	-0.796321	0.329324	0.49424	-0.464687	-0.485625	0.402765	0.442776	-0.397301	0.403319	0.24632
0.489683	-0.360653	0.55416	-0.465261	0.432828	-0.426683	0.467514	-0.471364	-0.390562	0.527094	0.373751	-0.449737	-0.514162	-0.375059	-0.441832	0.459572	0.475114	0.372497	-0.496066	0.50764	-0.421432	-0.367362	0.468651	0.419487	0.378948	-0.478515	-0.440708	0.492892	0.519258	-0.503405	0.363671	0.619363
0.383189	-0.456899	0.490033	-0.444927	0.385787	-0.426358	0.493468	-0.38458	-0.508534	0.518417	0.496793	-0.455373	-0.380612	-0.45298	-0.42614	0.411302	0.406703	0.292503	-0.433944	0.458047	-0.477387	-0.49369	-0.542722	0.497544	0.456254	-0.473929	-0.548656	0.427136	0.29506	-0.470687	0.496855	0.587952
0.383584	-0.442839	0.592271	-0.47605	0.41191	-0.449958	0.405967	-0.472289	-0.48041	0.414686	0.441691	-0.423165	-0.467963	-0.490643	-0.395903	0.470743	0.494453	0.383776	-0.453895	0.485178	-0.399232	-0.47009	-0.640897	0.462532	0.453213	-0.438902	-0.519816	0.462918	0.453931	-0.465725	0.346102	0.585217
0.478203	-0.501054	0.470551	-0.445614	0.445471	-0.389345	0.481229	-0.462979	-0.406678	0.26292	0.396138	-0.399239	-0.41606	-0.496848	-0.401679	0.469007	0.579937	0.387879	-0.434965	0.516173	-0.404127	-0.447381	-0.716679	0.357126	0.430075	-0.400229	-0.520506	0.407848	0.478737	-0.356606	0.459784	0.605388
0.354491	-0.422685	0.465872	-0.437136	0.456608	-0.421134	0.37658	-0.465594	-0.457059	0.258706	0.473237	-0.363024	-0.349104	-0.451163	-0.380764	0.344655	0.421546	0.373832	-0.372505	0.410851	-0.479686	-0.442979	-0.58188	0.369226	0.441995	-0.373707	-0.49904	0.448336	0.450237	-0.418332	0.501069	0.66129
0.445364	-0.389539	0.528977	-0.398117	0.437544	-0.39604	0.432104	-0.432164	-0.505131	0.459017	0.365159	-0.413438	-0.454227	-0.439836	-0.350899	0.461436	0.449718	0.40029	-0.449839	0.412243	-0.468823	-0.50663	-0.796105	0.418266	0.391212	-0.432959	-0.543573	0.477898	0.412319	-0.365054	0.39885	0.581918
0.469142	-0.473437	0.373702	-0.385524	0.384297	-0.473414	0.479027	-0.462574	-0.383406	0.256136	0.437194	-0.353878	-0.45118	-0.401623	-0.471341	0.351219	0.512455	0.456475	-0.457018	0.364852	-0.459017	-0.475764	-0.666223	0.395873	0.479675	-0.431789	-0.466618	0.415953	0.467906	-0.461805	0.45545	0.240803
0.433614	-0.41619	0.465349	-0.446225	0.497612	-0.508901	0.508561	-0.497421	-0.505565	0.358364	0.433639	-0.473868	-0.498369	-0.373689	-0.368064	0.391065	0.532211	0.415444	-0.434564	0.485219	-0.506862	-0.487882	-0.683894	0.470743	0.397868	-0.485279	-0.518791	0.443556	0.418349	-0.40223	0.387195	0.577758
0.39923	-0.399034	0.503128	-0.46072	0.446536	-0.416208	0.367767	-0.480262	-0.419068	0.287979	0.490334	-0.434522	-0.417231	-0.378538	-0.462706	0.44164	0.33911	0.357002	-0.473222	0.369499	-0.444771	-0.422234	-0.500263	0.43126	0.408832	-0.448861	-0.411654	0.465929	0.422492	-0.409759	0.428385	0.467256
0.408589	-0.31723	-0.302992	-0.447908	0.43171	-0.420022	0.403295	-0.357088	-0.510357	0.360901	0.481689	-0.471918	-0.470189	-0.441454	-0.434873	0.483024	0.351405	0.289261	-0.344861	0.488209	-0.381597	-0.461631	-0.644334	0.447918	0.378145	-0.426756	-0.163282	0.399963	0.517594	-0.378792	0.461724	-0.462443
0.536035	-0.407507	0.383554	-0.455357	0.427114	-0.472478	0.504073	-0.454638	-0.440051	0.347273	0.507029	-0.473942	-0.429926	-0.460853	-0.340524	0.442077	0.295457	0.448802	-0.451015	0.491571	-0.425024	-0.445001	-0.0852746	0.479591	0.445693	-0.489261	-0.449827	0.494421	0.437464	-0.490524	0.412164	0.679125
0.501256	-0.46727	0.554949	-0.481658	0.522322	-0.437982	0.453179	-0.491713	-0.462526	0.291489	0.445721	-0.463924	-0.469718	-0.499355	-0.436269	0.494773	0.496101	0.431104	-0.486893	0.440664	-0.455326	-0.515801	-0.750064	0.428337	0.436842	-0.52513	-0.482501	0.490671	0.425572	-0.478739	0.497972	0.171384
0.344892	-0.458804	-0.0243539	-0.377148	0.43481	-0.348056	0.394417	-0.357748	-0.41979	0.527736	0.310133	-0.415142	-0.373983	-0.459876	-0.388535	0.439173	0.260392	0.461037	-0.463683	0.366728	-0.472855	-0.435712	0.808762	0.352471	0.407107	-0.387595	-0.138247	0.341293	0.348567	-0.363762	0.440149	0.0528371
0.475514	-0.46565	0.51442	-0.400838	0.41644	-0.366528	0.494025	-0.468944	-0.450628	0.394439	0.413615	-0.425924	-0.457468	-0.361956	-0.443073	0.493654	0.583868	0.371303	-0.49446	0.408819	-0.49101	-0.439902	-0.319221	0.467113	0.423454	-0.459406	-0.46396	0.45043	0.510985	-0.383644	0.448861	0.207473
0.466592	-0.395469	0.482935	-0.416273	0.53172	-0.364946	0.486787	-0.436275	-0.51064	0.418952	0.459565	-0.416961	-0.514445	-0.486755	-0.377725	0.469722	0.384725	0.382651	-0.471269	0.449155	-0.473333	-0.48362	-0.488578	0.476353	0.501526	-0.444627	-0.460303	0.411642	0.519797	-0.511127	0.404374	0.572276
0.416941	-0.450791	0.59078	-0.438244	0.500594	-0.437926	0.451154	-0.490561	-0.464784	0.358603	0.419776	-0.411888	-0.42675	-0.497964	-0.437882	0.453487	0.449036	0.406138	-0.481933	0.426126	-0.50526	-0.424302	-0.705601	0.420451	0.399549	-0.494929	-0.418818	0.450781	0.466011	-0.445242	0.423063	0.289193
0.399241	-0.478549	0.433267	-0.469713	0.508726	-0.445029	0.42788	-0.398601	-0.400964	0.48004	0.455042	-0.396052	-0.413721	-0.47809	-0.405976	0.444487	0.521743	0.29025	-0.447798	0.432323	-0.416636	-0.464986	-0.703908	0.450447	0.406552	-0.404712	-0.382556	0.410219	0.46023	-0.496894	0.434263	0.258696
0.427662	-0.410614	0.471231	-0.471803	0.517453	-0.429814	0.427992	-0.475804	-0.503107	0.388984	0.476162	-0.459713	-0.425872	-0.421605	-0.494556	0.398618	0.395715	0.44461	-0.495735	0.427903	-0.409624	-0.470721	-0.668775	0.438115	0.403807	-0.498001	-0.465015	0.446157	0.45604	-0.416933	0.418717	0.59938
0.502079	-0.379038	0.383844	-0.493906	0.494477	-0.410506	0.425457	-0.443818	-0.409004	0.224109	0.510351	-0.435577	-0.41409	-0.443357	-0.473877	0.437382	0.536279	0.417698	-0.445637	0.41868	-0.430214	-0.480005	-0.574343	0.474476	0.47441	-0.482922	-0.530681	0.456772	0.357695	-0.410564	0.429504	0.406233
0.442264	-0.482225	0.495238	-0.461184	0.422418	-0.465547	0.423895	-0.412986	-0.370278	0.51365	0.472427	-0.419386	-0.517954	-0.376691	-0.436959	0.479075	0.60364	0.50248	-0.427577	0.436409	-0.475007	-0.430178	-0.697688	0.523666	0.499439	-0.41592	-0.491303	0.394093	0.512491	-0.481809	0.420215	0.565648
0.450179	-0.387776	0.622403	-0.519402	0.417434	-0.461456	0.409098	-0.486263	-0.455706	0.302936	0.368271	-0.390657	-0.425498	-0.367654	-0.462046	0.476435	0.60067	0.438919	-0.426911	0.446382	-0.404517	-0.459534	0.176735	0.47119	0.476446	-0.373005	-0.446426	0.486225	0.470777	-0.412381	0.51874	0.506223
0.476133	-0.454567	0.553905	-0.351018	0.38141	-0.416223	0.487668	-0.474076	-0.377546	0.329651	0.429415	-0.491265	-0.423761	-0.375537	-0.260762	0.464484	0.409755	0.355524	-0.466656	0.477737	-0.478993	-0.450998	-0.81161	0.442933	0.467394	-0.425411	-0.440627	0.464081	0.445994	-0.450226	0.438717	0.323066
0.505497	-0.399402	0.348812	-0.508696	0.525953	-0.363777	0.462713	-0.422464	-0.443963	0.444218	0.4616	-0.509061	-0.414453	-0.418757	-0.513499	0.402939	0.312294	0.494048	-0.482658	0.478498	-0.531419	-0.465803	-0.74457	0.424162	0.465051	-0.447877	-0.470148	0.519508	0.369962	-0.457697	0.332833	0.646329
0.533351	-0.4093	0.584688	-0.515643	0.475635	-0.354157	0.46085	-0.451729	-0.43463	0.263199	0.452137	-0.480016	-0.436779	-0.524851	-0.473637	0.497408	0.372799	0.294495	-0.480208	0.390142	-0.490584	-0.386782	0.300391	0.509974	0.487611	-0.398873	-0.365321	0.475759	0.394183	-0.350124	0.45946	0.325151
0.378402	-0.457436	0.399282	-0.421077	0.411812	-0.426468	0.378531	-0.44091	-0.392581	0.41976	0.441768	-0.44364	-0.346546	-0.404473	-0.409841	0.377935	0.164667	0.410088	-0.433201	0.442387	-0.42247	-0.370974	0.156303	0.439746	0.499195	-0.418604	-0.404503	0.430959	0.385541	-0.404839	0.380862	0.65312
0.440741	-0.422267	0.559823	-0.43285	0.442855	-0.442952	0.38973	-0.483574	-0.495264	0.251538	0.508347	-0.426025	-0.448632	-0.470747	-0.552351	0.407989	0.475968	0.482911	-0.452292	0.445917	-0.529293	-0.40324	-0.139888	0.519291	0.476202	-0.423402	-0.440814	0.486998	0.476945	-0.470385	0.52572	0.499781
0.197385	-0.324985	-0.494292	-0.304253	0.395588	-0.49699	0.415304	-0.304949	-0.383845	0.516463	0.353399	-0.405986	-0.475361	-0.354697	-0.345562	0.51835	0.230406	0.310724	-0.203096	0.444559	-0.359421	-0.398434	-1.03327	0.40081	0.323291	-0.491864	-0.276469	0.493962	0.494187	-0.428213	0.58576	-0.519239
0.389344	-0.367048	0.381816	-0.44828	0.428356	-0.419126	0.479852	-0.388512	-0.446294	0.495443	0.476365	-0.386031	-0.398644	-0.392749	-0.434412	0.4238	0.301752	0.445847	-0.383934	0.395086	-0.472102	-0.404344	-0.35112	0.47906	0.409765	-0.483485	-0.445058	0.489054	0.35962	-0.463645	0.462281	0.458966
0.484146	-0.407592	0.326336	-0.464561	0.489133	-0.324621	0.404769	-0.383765	-0.43142	0.386736	0.43044	-0.496156	-0.471482	-0.480348	-0.280554	0.398241	0.535838	0.426926	-0.403375	0.380391	-0.3819	-0.426643	-0.493108	0.437539	0.382889	-0.411922	-0.412059	0.440566	0.471135	-0.427944	0.400854	0.43099
0.394717	-0.423063	0.477805	-0.396943	0.461966	-0.392815	0.423388	-0.468713	-0.436873	0.450864	0.4532	-0.450061	-0.470152	-0.479351	-0.364778	0.483061	0.53829	0.386692	-0.511309	0.424324	-0.459772	-0.394709	-0.805698	0.45305	0.510858	-0.40367	-0.511395	0.483634	0.46954	-0.36595	0.492129	0.361063
0.50316	-0.464543	0.490867	-0.51676	0.425763	-0.460928	0.463335	-0.447434	-0.463811	0.288872	0.483732	-0.52497	-0.486255	-0.460877	-0.521287	0.421875	0.447104	0.438618	-0.496284	0.479038	-0.523879	-0.429091	-0.555687	0.488902	0.397838	-0.427851	-0.436489	0.411585	0.436237	-0.488687	0.438944	0.297453
0.407615	-0.493595	0.477439	-0.434908	0.456735	-0.401039	0.519537	-0.41952	-0.463877	0.482372	0.487098	-0.518526	-0.399977	-0.418882	-0.495119	0.415939	0.429528	0.415481	-0.377611	0.409044	-0.481525	-0.431746	0.0503986	0.464681	0.462262	-0.540484	-0.512016	0.417557	0.485502	-0.465518	0.473555	0.300959
0.425174	-0.449663	0.617518	-0.41593	0.47772	-0.363898	0.418303	-0.440181	-0.447151	0.337088	0.443652	-0.400207	-0.492669	-0.372655	-0.389731	0.48012	0.575626	0.466448	-0.463481	0.457859	-0.50591	-0.484362	-0.809264	0.452765	0.411239	-0.485779	-0.438658	0.508832	0.432218	-0.522454	0.423757	0.577513
0.361858	-0.353449	0.0743555	-0.424984	0.417193	-0.418225	0.416581	-0.440551	-0.423948	0.433121	0.374731	-0.478668	-0.466869	-0.396974	-0.518011	0.482151	0.390725	0.428981	-0.44437	0.337889	-0.385883	-0.390807	-0.797301	0.501706	0.402025	-0.43138	-0.437435	0.447121	0.43707	-0.369429	0.521824	0.400381
0.404451	-0.389632	0.465244	-0.465843	0.489066	-0.414055	0.427459	-0.430367	-0.491829	0.40696	0.402499	-0.468666	-0.43412	-0.442606	-0.450064	0.413742	0.496782	0.412585	-0.436679	0.380596	-0.434543	-0.456003	-0.467173	0.398136	0.436479	-0.50714	-0.448365	0.390365	0.418083	-0.494188	0.474116	0.205596
0.385853	-0.378316	0.257574	-0.386463	0.472509	-0.359788	0.408223	-0.50736	-0.476288	0.513294	0.433294	-0.457144	-0.514117	-0.460105	-0.442421	0.499013	0.589488	0.456498	-0.455032	0.468955	-0.461724	-0.488764	-0.526398	0.416448	0.481201	-0.445689	-0.396948	0.441596	0.381735	-0.399147	0.30343	0.382402
0.436	-0.446364	0.481264	-0.460645	0.435498	-0.419027	0.452708	-0.479203	-0.437805	0.494811	0.46308	-0.42158	-0.449539	-0.428258	-0.35218	0.46413	0.468501	0.444096	-0.433172	0.422266	-0.460877	-0.400633	-0.685236	0.445105	0.471783	-0.458446	-0.506916	0.402807	0.507758	-0.459929	0.473478	0.529941
0.465243	-0.40857	0.384859	-0.462994	0.42796	-0.504356	0.436336	-0.510639	-0.369604	0.41365	0.513952	-0.41816	-0.406342	-0.475268	-0.388316	0.453442	0.517623	0.23866	-0.485859	0.520941	-0.451582	-0.376383	-0.520868	0.417306	0.459624	-0.422578	-0.47572	0.42462	0.547495	-0.422067	0.332268	0.459573
0.48391	-0.456984	0.518418	-0.430219	0.504463	-0.419966	0.499584	-0.503084	-0.506664	0.293066	0.446789	-0.496721	-0.534531	-0.478607	-0.478504	0.516541	0.588973	0.344558	-0.430164	0.516182	-0.505234	-0.505217	-0.511659	0.4064	0.434735	-0.450092	-0.435178	0.460724	0.438694	-0.406091	0.497328	0.14964
0.362279	-0.253897	0.108145	-0.268883	0.3527	-0.41106	0.371027	-0.421415	-0.326068	0.448416	0.376318	-0.386218	-0.375541	-0.331116	-0.489605	0.374112	-0.148392	0.300251	-0.411463	0.36738	-0.422186	-0.388782	0.617056	0.418214	0.342587	-0.354237	-0.11803	0.345859	0.436794	-0.436861	0.477707	-0.595593
0.398063	-0.380974	0.049322	-0.510032	0.451918	-0.422547	0.421622	-0.411956	-0.440477	0.565522	0.486675	-0.53647	-0.488385	-0.502248	-0.43738	0.415977	0.512942	0.503785	-0.498941	0.45991	-0.492191	-0.496984	-0.874964	0.50978	0.445844	-0.420674	-0.349836	0.447725	0.57637	-0.307275	0.393528	0.0145747
0.418493	-0.484011	0.473982	-0.460674	0.465452	-0.450147	0.506705	-0.449085	-0.508767	0.519393	0.404366	-0.502882	-0.406726	-0.461179	-0.444846	0.419603	0.47513	0.477905	-0.474118	0.415211	-0.479819	-0.368664	-0.206383	0.463827	0.43402	-0.390533	-0.493822	0.469898	0.515356	-0.439735	0.475286	0.0354069
0.446898	-0.414705	0.436742	-0.399082	0.465441	-0.438541	0.430449	-0.433815	-0.425273	0.390436	0.409031	-0.459375	-0.479961	-0.440416	-0.412228	0.451498	0.576835	0.316644	-0.428019	0.424217	-0.461796	-0.408369	-0.718555	0.398085	0.413143	-0.472374	-0.456268	0.367526	0.410105	-0.461979	0.314989	0.423693
0.434123	-0.456205	0.391854	-0.535467	0.443967	-0.495482	0.522715	-0.503179	-0.4724	0.41384	0.365126	-0.468073	-0.455809	-0.420185	-0.477384	0.447476	0.330781	0.438655	-0.490643	0.489903	-0.512982	-0.386706	-0.586693	0.465708	0.42095	-0.525386	-0.470346	0.45142	0.46925	-0.406884	0.37355	0.225301
0.509904	-0.395763	0.455621	-0.476157	0.471912	-0.475799	0.441618	-0.421876	-0.418792	0.489903	0.428176	-0.418805	-0.506136	-0.437202	-0.464368	0.451962	0.442296	0.505411	-0.481859	0.452404	-0.458588	-0.40055	-0.200852	0.497173	0.389686	-0.451377	-0.505874	0.482937	0.501349	-0.405299	0.495268	0.47339
0.475802	-0.464331	0.395397	-0.374384	0.476058	-0.441061	0.454436	-0.453491	-0.391667	0.201324	0.49756	-0.440283	-0.4206	-0.461541	-0.288478	0.412454	0.410735	0.376141	-0.377763	0.499954	-0.399354	-0.388926	-0.248873	0.367899	0.394924	-0.413379	-0.522466	0.364743	0.359219	-0.421632	0.439201	0.691369
0.386261	-0.474636	0.56404	-0.4169	0.390482	-0.458919	0.487594	-0.382135	-0.470797	0.43063	0.45871	-0.394833	-0.404868	-0.363339	-0.243455	0.388257	0.550864	0.393949	-0.391287	0.468996	-0.40432	-0.469934	-0.370914	0.359338	0.459723	-0.487555	-0.511689	0.411053	0.352158	-0.437338	0.372603	0.475446
0.363426	-0.418535	0.563052	-0.343826	0.366961	-0.3679	0.408424	-0.386695	-0.454072	0.442623	0.487276	-0.481808	-0.384202	-0.45357	-0.342615	0.424573	0.322945	0.355952	-0.42498	0.428858	-0.380377	-0.447394	-0.361406	0.422497	0.437435	-0.430864	-0.402364	0.391077	0.450812	-0.408157	0.389096	0.470487
0.468273	-0.488165	0.488056	-0.42973	0.470412	-0.395658	0.448818	-0.433697	-0.426893	0.53005	0.365172	-0.442258	-0.40037	-0.467966	-0.541506	0.507029	0.511562	0.492479	-0.414721	0.435177	-0.504329	-0.440213	-0.493181	0.50384	0.424851	-0.420666	-0.366283	0.431612	0.494584	-0.498811	0.413061	0.280208
0.428785	-0.444508	0.530662	-0.441435	0.468701	-0.404233	0.371484	-0.453691	-0.500392	0.412058	0.505106	-0.509718	-0.426082	-0.404019	-0.504472	0.447281	0.474195	0.364558	-0.50269	0.379023	-0.458393	-0.435514	-0.756173	0.471285	0.400164	-0.494609	-0.467694	0.406246	0.48668	-0.438851	0.39103	0.472763
0.477083	-0.440126	0.391418	-0.478657	0.451464	-0.479334	0.407244	-0.482492	-0.449396	0.461375	0.432319	-0.440344	-0.42924	-0.431122	-0.381443	0.397563	0.51993	0.363301	-0.44294	0.48235	-0.518285	-0.451005	-0.217838	0.485049	0.458887	-0.464126	-0.529614	0.449894	0.454628	-0.370533	0.483467	0.413674
0.448862	-0.516653	0.361962	-0.48082	0.443406	-0.431436	0.443388	-0.496005	-0.448766	0.333858	0.445446	-0.539778	-0.470641	-0.468662	-0.434519	0.457654	0.527587	0.462719	-0.434654	0.443719	-0.452506	-0.522137	-0.51796	0.519139	0.449311	-0.529406	-0.432464	0.426378	0.450766	-0.478048	0.445701	0.505902
0.484255	-0.485148	0.472406	-0.409638	0.512764	-0.426931	0.412664	-0.442808	-0.465854	0.308793	0.424865	-0.445255	-0.493974	-0.389504	-0.439613	0.462007	0.334356	0.501872	-0.483944	0.482816	-0.411631	-0.452194	-0.619932	0.516055	0.461347	-0.491843	-0.488505	0.416259	0.419465	-0.444121	0.451463	0.421876
0.495591	-0.46154	0.574733	-0.425762	0.440639	-0.31767	0.46756	-0.415973	-0.446361	0.501346	0.421868	-0.421974	-0.427509	-0.444138	-0.455176	0.355533	0.512275	0.33857	-0.433232	0.352905	-0.46076	-0.370591	-0.22845	0.433161	0.39282	-0.36847	-0.445902	0.4715	0.447518	-0.379585	0.4119	0.686021
0.472718	-0.484962	0.523409	-0.409148	0.452137	-0.425155	0.476854	-0.389741	-0.463848	0.345231	0.475267	-0.454232	-0.448763	-0.405678	-0.396458	0.461531	0.551675	0.419439	-0.468717	0.447406	-0.464202	-0.438933	-0.552461	0.359496	0.47772	-0.400703	-0.467024	0.410522	0.411301	-0.43088	0.385635	0.490586
0.369424	-0.503043	0.47915	-0.462154	0.460416	-0.450112	0.436992	-0.482199	-0.491395	0.435738	0.534624	-0.480177	-0.499551	-0.514326	-0.35695	0.446197	0.503256	0.477789	-0.469174	0.472988	-0.429723	-0.370604	-0.536973	0.445093	0.52317	-0.434012	-0.392107	0.537374	0.452856	-0.378061	0.500164	0.379974
0.477336	-0.373601	0.331718	-0.403701	0.443937	-0.421105	0.497847	-0.467914	-0.493029	0.271183	0.503741	-0.473005	-0.513841	-0.403497	-0.394028	0.438825	0.346914	0.441697	-0.502779	0.486596	-0.471104	-0.405378	-0.57242	0.449699	0.382336	-0.461	-0.461907	0.422423	0.468058	-0.441459	0.438086	0.620351
0.481607	-0.475652	0.315771	-0.326827	0.422416	-0.457782	0.355488	-0.449901	-0.465361	0.402752	0.427139	-0.447464	-0.324355	-0.441876	-0.248738	0.417347	0.476903	0.460716	-0.408735	0.301546	-0.361277	-0.454545	-0.490992	0.447264	0.432089	-0.360827	-0.284989	0.428345	0.460082	-0.504711	0.445346	0.702389
0.471494	-0.480659	0.279996	-0.412143	0.482147	-0.460191	0.499141	-0.408908	-0.501976	0.537274	0.390888	-0.462638	-0.476964	-0.489446	-0.502147	0.510838	0.454522	0.457006	-0.423491	0.448687	-0.469828	-0.510806	-0.269752	0.438108	0.440094	-0.511959	-0.464132	0.461988	0.415839	-0.431268	0.393518	0.501273
0.379016	-0.430916	0.332494	-0.462519	0.473659	-0.431395	0.422955	-0.414747	-0.463361	0.515675	0.416794	-0.427246	-0.481864	-0.406761	-0.464795	0.434136	0.317171	0.362039	-0.467786	0.384274	-0.41429	-0.495284	-0.234736	0.497636	0.482118	-0.463065	-0.490196	0.480851	0.392617	-0.460728	0.445827	0.62755
0.444766	-0.50956	0.413947	-0.431492	0.432503	-0.52737	0.500154	-0.42167	-0.49704	0.373193	0.408667	-0.446059	-0.429136	-0.477512	-0.411773	0.419693	0.60249	0.455609	-0.449208	0.4886	-0.499678	-0.445076	-0.501718	0.472281	0.515522	-0.425533	-0.453738	0.470631	0.490427	-0.530105	0.421498	0.583743
0.475398	-0.48328	0.428829	-0.405082	0.470368	-0.375308	0.456873	-0.507263	-0.469658	0.287512	0.51865	-0.500095	-0.400665	-0.44024	-0.464156	0.421191	0.505659	0.435479	-0.451049	0.424128	-0.500182	-0.415976	-0.682462	0.459796	0.470249	-0.402961	-0.445815	0.481631	0.402967	-0.453394	0.466639	0.119405
0.476423	-0.409532	0.417079	-0.398185	0.477902	-0.480608	0.512277	-0.40833	-0.486991	0.451604	0.432021	-0.43729	-0.463993	-0.471882	-0.375191	0.486358	0.453968	0.405194	-0.472144	0.490742	-0.442125	-0.529788	-0.521496	0.428986	0.406023	-0.408241	-0.411524	0.434874	0.41842	-0.436206	0.358365	0.248846
0.440747	-0.48896	0.571305	-0.369605	0.443022	-0.381652	0.429637	-0.407483	-0.45482	0.559266	0.413146	-0.426045	-0.418017	-0.48469	-0.488404	0.518597	0.539491	0.452819	-0.450282	0.389689	-0.423592	-0.423282	-0.428119	0.46354	0.506661	-0.425068	-0.547622	0.471266	0.457203	-0.460798	0.461793	0.270595
0.399509	-0.512092	0.508401	-0.518799	0.435444	-0.424139	0.454009	-0.446658	-0.483015	0.263964	0.502762	-0.471124	-0.406305	-0.50534	-0.410929	0.493409	0.445729	0.473318	-0.425305	0.488638	-0.456744	-0.468779	-0.0287935	0.487852	0.471386	-0.491581	-0.422125	0.450289	0.49765	-0.517218	0.364842	0.556682
0.369805	-0.366205	0.445213	-0.463496	0.421888	-0.386816	0.493503	-0.473805	-0.451546	0.522708	0.382753	-0.381147	-0.448375	-0.418268	-0.322843	0.369434	0.49461	0.438665	-0.491861	0.442894	-0.517756	-0.398343	0.221534	0.471064	0.475225	-0.45898	-0.543638	0.453728	0.386381	-0.360045	0.537419	0.70747
0.420998	-0.432247	0.49018	-0.461819	0.453837	-0.436274	0.407447	-0.411637	-0.398764	0.342781	0.478897	-0.365579	-0.432808	-0.493227	-0.44866	0.398834	0.366208	0.461495	-0.454081	0.425234	-0.489524	-0.415629	-0.465632	0.42054	0.46603	-0.471854	-0.323937	0.386804	0.448905	-0.427232	0.42287	0.209288
0.444837	-0.483487	0.363558	-0.380698	0.51026	-0.435108	0.501314	-0.438092	-0.492172	0.428632	0.433487	-0.433052	-0.453539	-0.477148	-0.338441	0.464427	0.543207	0.402776	-0.507896	0.474829	-0.467505	-0.427464	-0.412329	0.375971	0.50105	-0.473966	-0.449342	0.407076	0.405244	-0.445952	0.356343	0.407852
0.494302	-0.482976	0.39151	-0.512148	0.454419	-0.41171	0.41445	-0.404578	-0.395529	0.350831	0.511991	-0.510274	-0.456149	-0.43228	-0.569171	0.444977	0.273667	0.508081	-0.487012	0.480507	-0.438061	-0.475226	-0.0940649	0.514503	0.493645	-0.429485	-0.277571	0.505507	0.527145	-0.449332	0.358973	0.228701
0.39808	-0.502639	0.0558469	-0.504426	0.468582	-0.427861	0.500638	-0.431787	-0.460608	0.597531	0.412869	-0.440378	-0.502023	-0.425398	-0.485755	0.419705	0.395518	0.438547	-0.42947	0.360149	-0.448223	-0.474348	-0.636297	0.521447	0.423031	-0.3584	-0.316715	0.489601	0.411052	-0.413701	0.428993	0.243262
0.407572	-0.49549	-0.0656142	-0.505595	0.464215	-0.40064	0.509126	-0.481014	-0.390915	0.588802	0.382373	-0.391727	-0.452425	-0.489789	-0.527592	0.518834	0.152728	0.553537	-0.508506	0.410722	-0.435886	-0.502168	-0.307734	0.510087	0.481464	-0.367592	-0.104751	0.445667	0.468915	-0.493954	0.555747	-0.140355
0.44273	-0.391192	0.334486	-0.410076	0.493605	-0.419403	0.456468	-0.43997	-0.474072	0.586877	0.387047	-0.431601	-0.481279	-0.480647	-0.367931	0.393323	0.375049	0.477302	-0.48987	0.43084	-0.415149	-0.437155	-0.840608	0.442809	0.373368	-0.376302	-0.453522	0.413232	0.413771	-0.359755	0.421855	0.437772
0.383596	-0.468164	0.0196508	-0.436564	0.461793	-0.433193	0.390545	-0.444764	-0.41171	0.5209	0.437064	-0.463331	-0.420661	-0.431287	-0.528231	0.437025	0.433272	0.462116	-0.486116	0.387862	-0.495277	-0.390679	-0.14172	0.511762	0.45613	-0.370838	-0.262427	0.455284	0.413309	-0.436001	0.524248	-0.0449226
0.356895	-0.379083	-0.487106	-0.28151	0.409514	-0.296607	0.296407	-0.352776	-0.375397	0.429953	0.426406	-0.302881	-0.497533	-0.340519	-0.443251	0.45592	0.493179	0.392618	-0.247061	0.387678	-0.28623	-0.427745	-0.482828	0.445957	0.193132	-0.416645	-0.155275	0.457643	0.425093	-0.347841	0.542274	-0.592835
0.411416	-0.388239	0.524121	-0.514047	0.527187	-0.490801	0.45893	-0.444597	-0.484463	0.220243	0.40836	-0.498703	-0.497578	-0.453781	-0.467129	0.438831	0.401506	0.316817	-0.529391	0.438893	-0.494157	-0.492626	-0.259066	0.490701	0.480443	-0.505013	-0.510656	0.479199	0.434331	-0.450148	0.518771	0.615216
0.531917	-0.384375	0.398376	-0.455977	0.433119	-0.401048	0.441367	-0.511544	-0.406394	0.334914	0.411092	-0.510095	-0.485867	-0.387674	-0.364517	0.496367	0.191157	0.477056	-0.443464	0.453368	-0.46478	-0.455949	0.16552	0.487375	0.420117	-0.47145	-0.428502	0.41401	0.505379	-0.391903	0.501363	0.806286
0.422825	-0.403325	0.418053	-0.41358	0.461073	-0.386963	0.452738	-0.469086	-0.393309	0.399776	0.490908	-0.51249	-0.515279	-0.496258	-0.355672	0.425129	0.294036	0.412966	-0.40168	0.39611	-0.452331	-0.4076	-0.578418	0.482002	0.399365	-0.439941	-0.418985	0.414607	0.398564	-0.400631	0.37149	0.540154
0.464431	-0.380122	0.293311	-0.449781	0.461085	-0.395635	0.396138	-0.486303	-0.511299	0.414075	0.411832	-0.441442	-0.417197	-0.445189	-0.379758	0.450497	0.501878	0.408472	-0.43911	0.405584	-0.393217	-0.488298	0.012673	0.455052	0.386476	-0.433057	-0.360237	0.41857	0.415695	-0.479461	0.423199	0.438893
0.424937	-0.51727	0.424106	-0.462889	0.511371	-0.407978	0.525669	-0.500192	-0.468619	0.364953	0.460521	-0.512433	-0.457806	-0.460085	-0.43564	0.484397	0.325916	0.530805	-0.426669	0.462998	-0.468851	-0.459968	-0.605663	0.460454	0.46751	-0.451075	-0.506598	0.506166	0.488706	-0.424085	0.469523	0.493193
0.494447	-0.464002	0.556941	-0.429827	0.445227	-0.447939	0.436233	-0.452015	-0.407134	0.434114	0.510197	-0.421658	-0.418676	-0.447342	-0.455979	0.513944	0.500532	0.508695	-0.492686	0.375804	-0.419775	-0.479659	-0.756091	0.422367	0.441813	-0.505249	-0.450405	0.480826	0.443868	-0.51765	0.365659	0.12832
0.406525	-0.455084	0.288485	-0.42847	0.4484	-0.403171	0.487649	-0.437094	-0.405658	0.508859	0.414149	-0.395652	-0.3893	-0.360858	-0.402055	0.48073	0.503534	0.36644	-0.406959	0.478465	-0.448375	-0.495018	-0.296813	0.371541	0.416934	-0.370546	-0.355758	0.464692	0.362974	-0.438932	0.380814	0.727233
0.409833	-0.336692	0.447955	-0.378029	0.460551	-0.402101	0.461631	-0.39326	-0.368246	0.563585	0.465862	-0.408999	-0.368073	-0.407392	-0.485448	0.358305	0.439201	0.416045	-0.384381	0.500664	-0.470351	-0.375665	0.49057	0.44721	0.494728	-0.504527	-0.478578	0.508259	0.486617	-0.41548	0.494443	-0.0606658
0.411602	-0.45607	0.373445	-0.401399	0.459601	-0.362358	0.381968	-0.486579	-0.42606	0.40201	0.378179	-0.49214	-0.440979	-0.478717	-0.440019	0.455344	0.286754	0.428956	-0.401403	0.38755	-0.422192	-0.390639	-0.529306	0.378952	0.381641	-0.370631	-0.442571	0.37324	0.462448	-0.433852	0.376533	0.337776
0.382687	-0.412841	0.441537	-0.476676	0.466036	-0.416295	0.415013	-0.503682	-0.450245	0.45149	0.441962	-0.449409	-0.398311	-0.377104	-0.512261	0.468587	0.360225	0.484437	-0.461096	0.493717	-0.440174	-0.443466	-0.742054	0.458	0.425757	-0.444079	-0.302292	0.463708	0.469058	-0.385655	0.388507	0.237462
0.525298	-0.423656	0.382747	-0.499182	0.481326	-0.463675	0.470184	-0.450503	-0.421128	0.445844	0.506261	-0.510604	-0.467023	-0.44689	-0.519259	0.429025	0.468128	0.524723	-0.433117	0.445902	-0.499641	-0.38547	-0.433988	0.422929	0.382702	-0.422369	-0.284285	0.472075	0.469094	-0.438878	0.364446	0.401385
0.498744	-0.488828	0.439986	-0.524403	0.48221	-0.395489	0.459997	-0.468188	-0.489863	0.335994	0.409224	-0.459652	-0.428564	-0.414934	-0.467444	0.526485	0.563916	0.41067	-0.437951	0.431355	-0.446409	-0.429034	-0.710425	0.452903	0.534978	-0.437231	-0.512529	0.507868	0.510199	-0.431372	0.477789	0.468448
0.494147	-0.513504	0.616021	-0.492499	0.518207	-0.417828	0.516827	-0.495527	-0.475736	0.445251	0.361508	-0.521448	-0.442368	-0.44405	-0.51526	0.492363	0.415292	0.556177	-0.436295	0.420471	-0.463357	-0.407889	-0.406048	0.49495	0.458769	-0.423574	-0.434637	0.396046	0.479057	-0.439233	0.417626	0.227658
0.438382	-0.354412	0.57214	-0.367278	0.407769	-0.443259	0.430521	-0.441575	-0.445517	0.382759	0.38325	-0.462859	-0.44269	-0.376972	-0.432685	0.438418	0.0919317	0.508236	-0.341696	0.420297	-0.384976	-0.423311	-0.887905	0.497923	0.519476	-0.514033	-0.354439	0.454508	0.359758	-0.483284	0.422662	0.47127
0.419721	-0.406503	0.387433	-0.500401	0.391154	-0.412675	0.440858	-0.384863	-0.510541	0.431673	0.455613	-0.421435	-0.414557	-0.453254	-0.42471	0.460395	0.549243	0.482284	-0.458567	0.445825	-0.519074	-0.40744	-0.647502	0.444749	0.396994	-0.396687	-0.4689	0.462719	0.437446	-0.519318	0.422758	0.467128
0.505748	-0.486468	0.360148	-0.453464	0.426572	-0.516494	0.475019	-0.517395	-0.421583	0.237946	0.535926	-0.527823	-0.448387	-0.483668	-0.351172	0.420076	0.399119	0.46957	-0.452588	0.507388	-0.42672	-0.44587	-0.650199	0.433676	0.508226	-0.452378	-0.384139	0.512505	0.456031	-0.446419	0.381233	0.613802
0.402561	-0.398262	0.187225	-0.464606	0.410219	-0.465677	0.516101	-0.420351	-0.359767	0.57807	0.418187	-0.356055	-0.418553	-0.410014	-0.354073	0.438436	0.202323	0.371155	-0.438526	0.393799	-0.457061	-0.42335	-0.754663	0.370766	0.413064	-0.387527	-0.41962	0.458821	0.375046	-0.299241	0.396545	0.693866
0.442219	-0.3789	0.00344518	-0.487389	0.402139	-0.40648	0.509298	-0.429074	-0.463807	0.561927	0.354698	-0.473647	-0.463472	-0.44013	-0.531291	0.489072	-0.0586567	0.508562	-0.406504	0.478502	-0.499729	-0.506297	0.386371	0.530136	0.406806	-0.467941	-0.356708	0.436298	0.438556	-0.479997	0.539605	0.780678
0.44322	-0.517509	0.332026	-0.456118	0.424608	-0.426672	0.439751	-0.442187	-0.512793	0.471221	0.412129	-0.529584	-0.478516	-0.421717	-0.480031	0.449714	0.456022	0.47571	-0.449433	0.438689	-0.496552	-0.443824	-0.724125	0.465574	0.499659	-0.488147	-0.531483	0.472308	0.443194	-0.425848	0.419362	0.385509
0.476998	-0.477149	0.448127	-0.446653	0.533543	-0.394821	0.518686	-0.493685	-0.407132	0.263689	0.385495	-0.480192	-0.420011	-0.432429	-0.385055	0.506262	0.260856	0.358335	-0.516538	0.528139	-0.419461	-0.522946	-0.620126	0.473127	0.436514	-0.514828	-0.434344	0.467412	0.412794	-0.428576	0.403722	0.607831
0.443345	-0.478478	0.39636	-0.513105	0.509419	-0.419317	0.411153	-0.441003	-0.473031	0.460707	0.439309	-0.479692	-0.387378	-0.412661	-0.36514	0.400013	0.430517	0.51847	-0.429538	0.422599	-0.470789	-0.424582	-0.326603	0.399663	0.437558	-0.512613	-0.502927	0.411187	0.461222	-0.405172	0.425471	0.442914
0.503354	-0.46847	0.356201	-0.48577	0.513716	-0.378089	0.478837	-0.514114	-0.417099	0.373848	0.425982	-0.506797	-0.511527	-0.507676	-0.392918	0.397067	0.390901	0.441358	-0.39254	0.494131	-0.52404	-0.415421	-0.624466	0.496268	0.466667	-0.500157	-0.492585	0.472688	0.489806	-0.489869	0.41278	0.231533
0.460707	-0.376846	0.111398	-0.489591	0.403989	-0.473843	0.476709	-0.48957	-0.422253	0.581689	0.466141	-0.457069	-0.423888	-0.407131	-0.474573	0.493643	0.3595	0.385043	-0.397393	0.508831	-0.423914	-0.415096	-0.741985	0.386966	0.448619	-0.408966	-0.308518	0.46797	0.413122	-0.403535	0.455606	0.455027
0.376653	-0.430048	0.526502	-0.422517	0.47577	-0.401308	0.395281	-0.433077	-0.388251	0.50286	0.375894	-0.493658	-0.480824	-0.399454	-0.463376	0.43284	0.575572	0.374494	-0.453714	0.468996	-0.50227	-0.437367	-0.609534	0.498498	0.511271	-0.357764	-0.410164	0.397078	0.445234	-0.382554	0.422035	0.679457
0.426651	-0.390678	0.545823	-0.436069	0.448804	-0.37279	0.425416	-0.458201	-0.493694	0.517999	0.483636	-0.448525	-0.44714	-0.504655	-0.465809	0.436491	0.257949	0.483568	-0.429048	0.351041	-0.460346	-0.459207	-0.663918	0.466059	0.46048	-0.480139	-0.434397	0.491738	0.512892	-0.378581	0.351953	0.522139
0.44292	-0.422457	0.400901	-0.418149	0.45782	-0.438763	0.427324	-0.449911	-0.423863	0.322585	0.487853	-0.469984	-0.398979	-0.457923	-0.35828	0.424074	0.428245	0.332549	-0.475597	0.499456	-0.480662	-0.402406	-0.505657	0.440864	0.477903	-0.403787	-0.425785	0.496404	0.467835	-0.464544	0.391395	0.51594
0.489624	-0.468456	0.608311	-0.536155	0.347009	-0.397284	0.451809	-0.433851	-0.368029	0.344324	0.330964	-0.467821	-0.384048	-0.426083	-0.450749	0.405906	0.359828	0.475448	-0.409098	0.397587	-0.437359	-0.424054	-0.63012	0.481969	0.53579	-0.397527	-0.424344	0.547422	0.348553	-0.478094	0.386677	0.518492
0.490648	-0.475565	0.303657	-0.416191	0.490619	-0.394919	0.488921	-0.408504	-0.488229	0.374079	0.482747	-0.438681	-0.480187	-0.379626	-0.431137	0.441942	0.523059	0.468016	-0.41368	0.489491	-0.461748	-0.43512	-0.642581	0.49421	0.365957	-0.405409	-0.478642	0.448161	0.395817	-0.435251	0.400709	0.612462
0.473012	-0.450305	0.391898	-0.444913	0.49704	-0.463407	0.497219	-0.50163	-0.492585	0.427357	0.495131	-0.433195	-0.482757	-0.419837	-0.449248	0.460025	0.389914	0.447128	-0.470028	0.439868	-0.502255	-0.40722	-0.502511	0.415273	0.500826	-0.525683	-0.465986	0.488453	0.519013	-0.434248	0.381345	0.623572
0.378564	-0.486852	0.495855	-0.487155	0.415506	-0.492059	0.417626	-0.449589	-0.451126	0.37034	0.507386	-0.533668	-0.480794	-0.430588	-0.515998	0.426555	0.320993	0.479003	-0.438514	0.474514	-0.430547	-0.461882	-0.412262	0.443635	0.511091	-0.420411	-0.425223	0.476138	0.41076	-0.523436	0.438897	0.403641
0.449334	-0.492511	0.381719	-0.480961	0.477343	-0.475779	0.475369	-0.519088	-0.491828	0.411378	0.417546	-0.455088	-0.471738	-0.467429	-0.498487	0.483531	0.298597	0.357891	-0.459507	0.457407	-0.467135	-0.463205	-0.65289	0.41332	0.483809	-0.409457	-0.347435	0.377237	0.511142	-0.443199	0.470579	0.124152
0.456869	-0.420365	0.0938147	-0.44292	0.532879	-0.449778	0.458766	-0.384951	-0.464993	0.574343	0.339954	-0.499255	-0.495724	-0.429672	-0.548123	0.437221	0.404274	0.54182	-0.407517	0.444473	-0.492692	-0.455098	-0.500659	0.449718	0.393593	-0.418133	-0.366775	0.474555	0.445263	-0.440491	0.484877	0.296437
0.503802	-0.450166	0.267982	-0.40711	0.433906	-0.422076	0.484606	-0.51872	-0.490809	0.444822	0.514263	-0.509875	-0.523709	-0.485605	-0.503237	0.444336	0.399454	0.430528	-0.414034	0.465348	-0.438863	-0.482347	-0.645716	0.512243	0.410171	-0.412551	-0.397042	0.462505	0.514962	-0.488463	0.367849	0.155505
0.326077	-0.432283	0.534254	-0.388341	0.390186	-0.373867	0.369898	-0.438017	-0.365291	0.463219	0.437325	-0.361928	-0.412033	-0.374222	-0.347078	0.397846	0.254901	0.25912	-0.360912	0.34365	-0.357358	-0.367155	-0.854707	0.273245	0.324142	-0.339116	-0.452232	0.295039	0.335892	-0.33026	0.287575	0.0612069
0.488978	-0.483314	0.551147	-0.440838	0.491426	-0.434479	0.465216	-0.512204	-0.473584	0.353974	0.516978	-0.540209	-0.484624	-0.414621	-0.51257	0.408328	0.440192	0.44706	-0.428134	0.533815	-0.529038	-0.481182	-0.405535	0.427268	0.427663	-0.41786	-0.379102	0.42841	0.504888	-0.540259	0.395864	0.475395
0.427574	-0.473196	0.335887	-0.379431	0.420573	-0.480682	0.460385	-0.434136	-0.477214	0.290182	0.496058	-0.494231	-0.455069	-0.400891	-0.514401	0.455942	0.159232	0.459853	-0.414855	0.457152	-0.465997	-0.397276	-0.00876669	0.447525	0.393103	-0.458873	-0.432401	0.488792	0.416597	-0.500786	0.417835	0.60116
0.512033	-0.51394	-0.00654048	-0.387978	0.556272	-0.360474	0.470516	-0.441202	-0.374161	0.409293	0.466279	-0.473296	-0.43285	-0.407119	-0.537648	0.40576	0.508111	0.400064	-0.389266	0.3781	-0.435525	-0.498608	0.316064	0.469183	0.38315	-0.414449	-0.293777	0.464029	0.553086	-0.33594	0.446283	0.335253
0.465907	-0.392011	0.403628	-0.505556	0.451739	-0.429296	0.439989	-0.410514	-0.427986	0.454492	0.480807	-0.423605	-0.413104	-0.492799	-0.461867	0.425415	0.405447	0.444212	-0.43862	0.380656	-0.43446	-0.477074	-0.68214	0.486997	0.479343	-0.392264	-0.477044	0.445263	0.49809	-0.426243	0.450293	0.701405
0.380682	-0.450514	0.429666	-0.418749	0.482451	-0.422915	0.444178	-0.464131	-0.425092	0.518888	0.510755	-0.454918	-0.422229	-0.500095	-0.388673	0.46615	0.533602	0.454387	-0.513211	0.435418	-0.370358	-0.522976	-0.551502	0.409452	0.424201	-0.510068	-0.443555	0.435096	0.426485	-0.438574	0.432424	0.173624
0.498421	-0.401597	0.25071	-0.463072	0.453788	-0.475454	0.485959	-0.436629	-0.478543	0.243641	0.531463	-0.509565	-0.40755	-0.476725	-0.472105	0.482929	0.449893	0.488798	-0.474948	0.414132	-0.467804	-0.425953	-0.683768	0.457453	0.497094	-0.415801	-0.474337	0.494	0.449755	-0.487413	0.387065	0.594293
0.4301	-0.410748	0.517406	-0.47031	0.461243	-0.44459	0.462274	-0.451663	-0.523067	0.382529	0.42504	-0.42367	-0.400654	-0.439619	-0.362357	0.501662	0.340611	0.53313	-0.47778	0.417352	-0.44891	-0.457914	-0.567843	0.43393	0.520005	-0.459189	-0.50676	0.410268	0.407114	-0.456931	0.41552	0.683117
0.387269	-0.32921	0.431246	-0.411656	0.363393	-0.352474	0.366187	-0.317097	-0.418908	0.406078	0.330784	-0.404778	-0.392658	-0.387736	-0.385726	0.282652	0.118007	0.300158	-0.326235	0.337158	-0.438875	-0.396169	-0.13018	0.365636	0.421647	-0.356863	-0.36748	0.369626	0.360261	-0.420578	0.378326	0.185372
0.508695	-0.474135	0.31259	-0.418739	0.540949	-0.427463	0.505119	-0.47727	-0.394374	0.188868	0.506366	-0.435043	-0.435173	-0.499775	-0.465777	0.460501	0.339774	0.459745	-0.480777	0.463245	-0.511262	-0.490498	-0.7327	0.422957	0.467852	-0.470413	-0.43443	0.446422	0.484491	-0.424935	0.488886	0.369461
0.449876	-0.476454	0.449232	-0.438648	0.502934	-0.445969	0.511457	-0.436751	-0.452467	0.518723	0.453237	-0.446679	-0.418038	-0.392749	-0.401141	0.41715	0.462448	0.510762	-0.491864	0.525129	-0.443711	-0.421415	-0.720363	0.481883	0.418766	-0.481677	-0.487014	0.368539	0.401959	-0.42876	0.358681	0.240341
0.469366	-0.384116	0.515759	-0.454812	0.491327	-0.348586	0.482893	-0.35698	-0.44563	0.590641	0.468325	-0.438591	-0.329686	-0.381464	-0.386783	0.429473	0.299554	0.392825	-0.464516	0.370133	-0.416453	-0.339837	-0.415673	0.427714	0.342694	-0.436647	-0.338598	0.428686	0.361742	-0.43908	0.411119	0.639037
0.386856	-0.533192	0.329592	-0.502933	0.471747	-0.493274	0.497572	-0.40735	-0.444856	0.42244	0.412825	-0.494808	-0.467906	-0.496768	-0.373294	0.430017	0.368042	0.429592	-0.400601	0.440877	-0.449161	-0.414521	-0.789015	0.459333	0.45001	-0.408559	-0.376864	0.452429	0.519301	-0.434738	0.421095	0.509243
0.449946	-0.473815	0.4766	-0.435828	0.469578	-0.526629	0.503023	-0.47809	-0.426588	0.407722	0.504595	-0.448348	-0.510913	-0.447317	-0.446155	0.454416	0.507933	0.477979	-0.403222	0.429389	-0.391989	-0.445451	-0.708006	0.51367	0.434805	-0.441975	-0.458453	0.446106	0.496537	-0.46254	0.484642	0.289235
0.41739	-0.415713	0.43299	-0.473786	0.429285	-0.436923	0.40573	-0.439325	-0.480792	0.413535	0.435957	-0.43508	-0.463021	-0.396915	-0.498259	0.347983	0.421477	0.345453	-0.406385	0.421857	-0.444064	-0.381549	-0.357233	0.462219	0.396481	-0.376319	-0.340866	0.425326	0.414461	-0.364277	0.450576	0.309561
0.392649	-0.358503	0.527513	-0.445996	0.403808	-0.429	0.408585	-0.398553	-0.436791	0.45141	0.364364	-0.430623	-0.382394	-0.394957	-0.43461	0.419657	0.304215	0.369126	-0.406084	0.386735	-0.440618	-0.416962	-0.80118	0.421981	0.410836	-0.458319	-0.36549	0.415162	0.465533	-0.432573	0.318764	0.553235
0.498127	-0.454556	0.35603	-0.490506	0.429559	-0.47068	0.450824	-0.521961	-0.389975	0.310754	0.506417	-0.517523	-0.473895	-0.534731	-0.478332	0.480175	0.472742	0.424415	-0.453236	0.514767	-0.40475	-0.443241	-0.640106	0.495479	0.418931	-0.456775	-0.310286	0.501057	0.446822	-0.483835	0.295628	0.667214
0.488627	-0.402494	0.520323	-0.482341	0.450358	-0.44552	0.405943	-0.436927	-0.39965	0.372481	0.474708	-0.441443	-0.479776	-0.405482	-0.459678	0.466098	0.429754	0.47798	-0.398065	0.43704	-0.454305	-0.41013	-0.61894	0.498758	0.36995	-0.399873	-0.453508	0.413351	0.481992	-0.448566	0.42689	0.367606
0.407158	-0.404993	0.503329	-0.430008	0.484501	-0.460286	0.481785	-0.393643	-0.429174	0.354735	0.391227	-0.489026	-0.415657	-0.446748	-0.380167	0.428085	0.399443	0.353923	-0.467399	0.472777	-0.471166	-0.447182	-0.655151	0.447303	0.448662	-0.457193	-0.495897	0.416944	0.406457	-0.507597	0.521818	0.266535
0.419143	-0.454853	0.336526	-0.493413	0.41746	-0.401646	0.492693	-0.417587	-0.466642	0.492341	0.432797	-0.406304	-0.418113	-0.449677	-0.463517	0.498141	0.381491	0.509236	-0.35881	0.371121	-0.437053	-0.459697	-0.021543	0.394274	0.478042	-0.396777	-0.419972	0.432404	0.437384	-0.439678	0.451426	0.43522
0.503219	-0.398658	0.285018	-0.461827	0.472822	-0.464123	0.445021	-0.423804	-0.426365	0.460273	0.462265	-0.491121	-0.484495	-0.424099	-0.436533	0.448768	0.245808	0.509184	-0.501013	0.39291	-0.500015	-0.445636	-0.67392	0.462763	0.495623	-0.383586	-0.388231	0.404033	0.424654	-0.345839	0.332975	0.203896
0.42074	-0.382539	0.565191	-0.384966	0.432394	-0.454514	0.486082	-0.482343	-0.455164	0.321272	0.492397	-0.474923	-0.495773	-0.518437	-0.444664	0.448469	0.375989	0.460536	-0.479135	0.424578	-0.441552	-0.437114	-0.518914	0.502765	0.432045	-0.468929	-0.395635	0.492306	0.433112	-0.494906	0.403324	0.483985
0.367521	-0.404302	0.58879	-0.422423	0.428447	-0.382991	0.52296	-0.497914	-0.332472	0.057011	0.434341	-0.505364	-0.488219	-0.36794	-0.420489	0.454153	0.386004	0.51186	-0.365028	0.518153	-0.416863	-0.3691	-0.226028	0.439733	0.400904	-0.514159	-0.517403	0.441924	0.34761	-0.490632	0.424733	0.424983
0.462656	-0.468454	0.497403	-0.392352	0.4261	-0.416771	0.440292	-0.412794	-0.439319	0.271688	0.453577	-0.457119	-0.409269	-0.458727	-0.468103	0.368976	0.493976	0.499977	-0.364964	0.342036	-0.456708	-0.464198	-0.480382	0.351016	0.458958	-0.417507	-0.410773	0.433234	0.355254	-0.454881	0.367617	0.266634
0.453883	-0.529809	0.15283	-0.531578	0.477708	-0.428973	0.526342	-0.475224	-0.455823	0.527174	0.426264	-0.414227	-0.499513	-0.507601	-0.418793	0.441278	0.34044	0.439962	-0.46448	0.480809	-0.443272	-0.370548	-0.810279	0.513336	0.402414	-0.478309	-0.454064	0.469137	0.485175	-0.43139	0.334471	0.650272
0.415536	-0.428627	0.493674	-0.513683	0.49088	-0.419734	0.479488	-0.412827	-0.416094	0.428211	0.421157	-0.418874	-0.523523	-0.477203	-0.466865	0.426706	0.479495	0.477457	-0.441452	0.388663	-0.48592	-0.432406	-0.578427	0.485292	0.441671	-0.508195	-0.485236	0.432801	0.434602	-0.400513	0.496107	0.352049
0.360186	-0.449943	0.508035	-0.45528	0.514785	-0.458707	0.445738	-0.484558	-0.43682	0.457463	0.500856	-0.475825	-0.445306	-0.439614	-0.448917	0.434168	0.562245	0.496064	-0.442566	0.475606	-0.503727	-0.426435	-0.249186	0.499777	0.515365	-0.484581	-0.522687	0.497654	0.367886	-0.450351	0.518786	0.563181
0.397519	-0.414638	0.583474	-0.409635	0.481315	-0.439283	0.494719	-0.500522	-0.442864	0.321685	0.453782	-0.453889	-0.468704	-0.41609	-0.453115	0.47299	0.555625	0.408241	-0.449601	0.42232	-0.515868	-0.428799	-0.440759	0.478121	0.48249	-0.492611	-0.479407	0.507375	0.437961	-0.4534	0.492897	0.3747
0.454841	-0.455704	0.423531	-0.384086	0.412295	-0.508537	0.500032	-0.400467	-0.470702	0.498183	0.439053	-0.455225	-0.413724	-0.438042	-0.383412	0.391344	0.513739	0.357542	-0.420834	0.460635	-0.433332	-0.415698	-0.531147	0.504479	0.415556	-0.478656	-0.463062	0.485245	0.416224	-0.4674	0.48377	0.398395
0.421857	-0.433945	0.500721	-0.482217	0.397978	-0.440975	0.421127	-0.442612	-0.436677	0.507317	0.383228	-0.411764	-0.362659	-0.426037	-0.394422	0.453556	0.46424	0.483832	-0.392755	0.410231	-0.390565	-0.415699	-0.690941	0.461198	0.375714	-0.45496	-0.429381	0.382659	0.394924	-0.355716	0.458959	0.0591883
0.47093	-0.454592	0.491957	-0.504052	0.377387	-0.410541	0.490045	-0.470093	-0.460969	0.393296	0.434637	-0.371984	-0.444407	-0.485256	-0.387455	0.390208	0.3997	0.40509	-0.439991	0.446492	-0.496413	-0.432482	-0.666013	0.380346	0.435531	-0.439745	-0.511512	0.412923	0.35541	-0.478383	0.291588	0.229881
0.490676	-0.445795	0.459034	-0.461375	0.483536	-0.436666	0.439907	-0.448699	-0.500705	0.522067	0.505105	-0.445194	-0.442885	-0.502109	-0.379843	0.447083	0.53451	0.4322	-0.54113	0.414987	-0.532722	-0.42736	0.104774	0.449411	0.502478	-0.504115	-0.382154	0.513884	0.475733	-0.432666	0.505894	0.570028
0.440308	-0.52221	0.534496	-0.404466	0.458924	-0.356239	0.478912	-0.500405	-0.47685	0.544691	0.475426	-0.439643	-0.522028	-0.474752	-0.501185	0.435791	0.619467	0.303518	-0.443579	0.389527	-0.505829	-0.376408	-0.273295	0.46906	0.447467	-0.510433	-0.470246	0.398423	0.523897	-0.447375	0.480696	0.196521
0.515629	-0.469041	0.168906	-0.383209	0.443215	-0.517788	0.392187	-0.451078	-0.465646	0.425192	0.50684	-0.477553	-0.40934	-0.3746	-0.351351	0.447512	0.444004	0.408076	-0.490843	0.455224	-0.491616	-0.443807	-0.650113	0.461033	0.430183	-0.411343	-0.400964	0.392458	0.381652	-0.44985	0.487066	0.658394
0.387356	-0.409509	0.404012	-0.500432	0.444892	-0.43461	0.521858	-0.440131	-0.448657	0.39578	0.480869	-0.407407	-0.463154	-0.502424	-0.442316	0.407851	0.407237	0.449388	-0.473221	0.430669	-0.420406	-0.486393	-0.535907	0.398761	0.523267	-0.429831	-0.411144	0.38399	0.442288	-0.472383	0.390935	0.612261
0.494165	-0.40994	0.391312	-0.37135	0.418974	-0.466891	0.453203	-0.442322	-0.414632	0.51217	0.452607	-0.422105	-0.367944	-0.427473	-0.374119	0.410528	0.566277	0.407552	-0.524613	0.455378	-0.431658	-0.457867	-0.622097	0.434668	0.497741	-0.398626	-0.512076	0.453793	0.517968	-0.507421	0.392054	0.538909
0.418518	-0.438591	0.420911	-0.424341	0.515116	-0.392917	0.465833	-0.495489	-0.411587	0.27197	0.477981	-0.437557	-0.364318	-0.502574	-0.313902	0.489293	0.482259	0.435748	-0.493088	0.488381	-0.393801	-0.4655	-0.648073	0.507591	0.459825	-0.421825	-0.440804	0.459215	0.467566	-0.461354	0.435851	0.0894807
0.427521	-0.493481	0.0776394	-0.444186	0.508821	-0.405785	0.456522	-0.483534	-0.398081	0.470164	0.42069	-0.506732	-0.469588	-0.505133	-0.48467	0.410498	0.488541	0.48168	-0.461728	0.412553	-0.446476	-0.456742	-0.329518	0.508112	0.410367	-0.364399	-0.20333	0.517991	0.408597	-0.374085	0.43564	0.273241
0.4741	-0.511425	0.42259	-0.437403	0.493822	-0.455047	0.454981	-0.418751	-0.513432	0.361894	0.476513	-0.481482	-0.363054	-0.479178	-0.42982	0.487675	0.526264	0.448738	-0.395743	0.49309	-0.511546	-0.433475	-0.467574	0.457545	0.467691	-0.430512	-0.532682	0.406618	0.428738	-0.368136	0.445816	0.16707
0.504218	-0.468222	0.395214	-0.468567	0.428683	-0.460395	0.500721	-0.503593	-0.474963	0.383369	0.496341	-0.440899	-0.431872	-0.472532	-0.471523	0.493526	0.494585	0.489957	-0.43097	0.415049	-0.431151	-0.507225	-0.590079	0.487428	0.390523	-0.501766	-0.48729	0.525312	0.40226	-0.447932	0.440443	0.495158
0.404989	-0.499362	-0.0316042	-0.455227	0.476489	-0.435473	0.473074	-0.490307	-0.413663	0.562129	0.403849	-0.53335	-0.455244	-0.480529	-0.546497	0.450925	0.34109	0.513371	-0.470783	0.404035	-0.509181	-0.425019	-0.630188	0.57716	0.425882	-0.36836	-0.294904	0.500247	0.468824	-0.47124	0.517987	0.245164
0.404629	-0.425997	0.440009	-0.497199	0.416512	-0.451251	0.477865	-0.486999	-0.415347	0.40406	0.415938	-0.488916	-0.497313	-0.405367	-0.342829	0.485833	0.454121	0.441735	-0.496251	0.487687	-0.494021	-0.395199	-0.525011	0.424133	0.403517	-0.437711	-0.512896	0.400624	0.499303	-0.483633	0.391514	0.465815
0.534855	-0.509909	0.207385	-0.489869	0.42972	-0.380306	0.416399	-0.42379	-0.503969	0.36682	0.475577	-0.456651	-0.529416	-0.429282	-0.529788	0.473867	0.300129	0.54051	-0.395501	0.540937	-0.537171	-0.490717	-0.432196	0.550753	0.441634	-0.37826	-0.356804	0.490073	0.465983	-0.289867	0.411185	-0.145923
0.412763	-0.50776	0.269837	-0.497214	0.485761	-0.358468	0.541015	-0.40072	-0.47883	0.579087	0.409547	-0.541654	-0.395057	-0.474733	-0.463918	0.502048	0.512493	0.446436	-0.451173	0.487752	-0.453452	-0.504709	-0.676665	0.465375	0.451834	-0.460054	-0.388134	0.468114	0.486475	-0.415855	0.466407	0.35342
0.418643	-0.404384	0.22171	-0.416374	0.462859	-0.365637	0.421764	-0.488452	-0.430574	0.526725	0.464637	-0.4215	-0.496377	-0.39586	-0.44095	0.384853	0.503126	0.395857	-0.39931	0.459973	-0.453942	-0.463063	-0.665845	0.422826	0.463168	-0.441813	-0.393472	0.460222	0.428246	-0.371751	0.341306	0.138457
0.450899	-0.528829	-0.1289	-0.400511	0.490228	-0.476562	0.538524	-0.419137	-0.474363	0.428874	0.529805	-0.482402	-0.537834	-0.495789	-0.46109	0.527272	0.245284	0.378518	-0.409265	0.470296	-0.44672	-0.563	-0.853775	0.553383	0.400223	-0.546614	-0.293853	0.568603	0.491269	-0.448622	0.530468	-0.320879
0.399094	-0.404279	0.2178	-0.368568	0.413768	-0.431513	0.466998	-0.451489	-0.467924	0.491518	0.443047	-0.437956	-0.479638	-0.44857	-0.471744	0.387033	0.42018	0.460172	-0.452649	0.395783	-0.404161	-0.423406	-0.706492	0.514788	0.440034	-0.411752	-0.302396	0.390007	0.403568	-0.467175	0.37888	0.268046
0.454461	-0.54031	0.355386	-0.47947	0.5172	-0.410213	0.42953	-0.496885	-0.355722	0.332497	0.516953	-0.423496	-0.535641	-0.514984	-0.30803	0.457292	0.446524	0.416017	-0.490806	0.416301	-0.435444	-0.489472	-0.296203	0.533497	0.384324	-0.539655	-0.333305	0.524455	0.546134	-0.404776	0.482304	0.69549
0.505128	-0.501793	0.503576	-0.388684	0.493839	-0.470511	0.469732	-0.400703	-0.386458	0.393849	0.380872	-0.484511	-0.476311	-0.490607	-0.538033	0.451577	0.179385	0.409732	-0.48789	0.447193	-0.517405	-0.523727	-0.22184	0.397458	0.40819	-0.426461	-0.504689	0.410466	0.422656	-0.419695	0.470572	0.504899
0.373611	-0.373834	0.508875	-0.460983	0.403766	-0.413249	0.37938	-0.484039	-0.493487	0.45154	0.448216	-0.493845	-0.409227	-0.402864	-0.451207	0.444951	0.326633	0.415835	-0.478622	0.379967	-0.422893	-0.389541	-0.252861	0.398807	0.420584	-0.457998	-0.467368	0.482134	0.448234	-0.440158	0.434212	0.57508
0.407455	-0.434056	0.564402	-0.492709	0.475935	-0.443525	0.387183	-0.433763	-0.459315	0.296742	0.407118	-0.433407	-0.37323	-0.472071	-0.45066	0.408693	0.487084	0.473447	-0.411063	0.458531	-0.367924	-0.38603	-0.556808	0.401533	0.391544	-0.461575	-0.51754	0.41155	0.427776	-0.435624	0.455035	0.313526
0.535474	-0.459967	0.228849	-0.498327	0.480472	-0.318149	0.48197	-0.470299	-0.431649	0.52248	0.372149	-0.523818	-0.45322	-0.489861	-0.390161	0.495166	0.609116	0.46956	-0.381792	0.438214	-0.453472	-0.422531	-0.698018	0.461935	0.522109	-0.504985	-0.416943	0.422816	0.489449	-0.48527	0.380894	0.372839
0.483638	-0.487795	0.377085	-0.459058	0.411994	-0.385854	0.452936	-0.395952	-0.457217	0.41496	0.42568	-0.417587	-0.413833	-0.515637	-0.456333	0.450626	0.45483	0.505753	-0.414388	0.466295	-0.499389	-0.408181	-0.380827	0.492489	0.454736	-0.51543	-0.424666	0.435646	0.529586	-0.474128	0.407616	0.552089
0.437973	-0.442262	0.474593	-0.387895	0.435492	-0.381454	0.459353	-0.478702	-0.473752	0.375427	0.365422	-0.45565	-0.456867	-0.422944	-0.454473	0.451652	0.580666	0.419466	-0.496883	0.514341	-0.444914	-0.45561	-0.551676	0.454352	0.438048	-0.415968	-0.403915	0.478412	0.409759	-0.445015	0.397902	0.246004
0.496364	-0.466278	0.442288	-0.367935	0.42435	-0.458218	0.431492	-0.452113	-0.431389	0.531106	0.436388	-0.411781	-0.504838	-0.425476	-0.295438	0.399927	0.459663	0.46341	-0.525696	0.497756	-0.453488	-0.458959	-0.517037	0.423989	0.484026	-0.456206	-0.447524	0.45911	0.3916	-0.476672	0.430404	0.55938
0.481824	-0.495565	0.476837	-0.484078	0.412222	-0.474969	0.443841	-0.425416	-0.446629	0.482093	0.489665	-0.512175	-0.485989	-0.449996	-0.486913	0.520759	0.367581	0.478448	-0.43968	0.420009	-0.469221	-0.454168	-0.0723316	0.486746	0.438039	-0.472732	-0.492035	0.412339	0.358105	-0.420938	0.384416	0.390837
0.450951	-0.480807	0.352611	-0.444715	0.415772	-0.50068	0.513745	-0.472421	-0.52475	0.43819	0.486947	-0.433734	-0.410864	-0.449714	-0.472777	0.497143	0.436051	0.515386	-0.441557	0.461936	-0.501992	-0.394838	0.175494	0.468889	0.427703	-0.417413	-0.516344	0.440885	0.436301	-0.456659	0.432408	0.133136
0.415799	-0.431326	0.53127	-0.44311	0.370416	-0.439695	0.446515	-0.494574	-0.419703	0.53474	0.399064	-0.422588	-0.397367	-0.478525	-0.358644	0.423813	0.292128	0.413911	-0.430699	0.495886	-0.409237	-0.485338	-0.688873	0.435049	0.413502	-0.465254	-0.380098	0.481643	0.424663	-0.365356	0.4499	0.596737
0.44584	-0.364764	0.257647	-0.466619	0.496394	-0.492478	0.409684	-0.431014	-0.487596	0.356522	0.490711	-0.457761	-0.412222	-0.427961	-0.497638	0.4599	0.462176	0.435952	-0.402037	0.402913	-0.461962	-0.47012	-0.714131	0.415218	0.468865	-0.46382	-0.391737	0.426372	0.461569	-0.386674	0.411284	0.293485
0.504572	-0.438283	0.468894	-0.413468	0.471328	-0.424923	0.424128	-0.430732	-0.393298	0.429822	0.433557	-0.498416	-0.464993	-0.484591	-0.438373	0.501369	0.559024	0.521571	-0.427732	0.499809	-0.438608	-0.4445	-0.121677	0.4587	0.437157	-0.473232	-0.528315	0.499409	0.469456	-0.414722	0.411711	0.274391
0.499566	-0.438743	0.196126	-0.49912	0.434215	-0.486531	0.459592	-0.451533	-0.380451	0.466252	0.402922	-0.38	-0.464228	-0.404012	-0.556073	0.531096	-0.0129132	0.445216	-0.408727	0.483843	-0.4755	-0.402408	-0.420997	0.490389	0.400893	-0.476869	-0.391222	0.534999	0.364609	-0.482682	0.509407	0.599702
0.494427	-0.52152	0.592602	-0.345125	0.403682	-0.45594	0.532079	-0.404711	-0.450646	0.19843	0.435546	-0.465368	-0.480527	-0.400874	-0.482225	0.364843	0.011794	0.303818	-0.447512	0.480703	-0.390153	-0.459277	-0.868629	0.44434	0.434017	-0.483797	-0.556505	0.51423	0.452466	-0.568392	0.165241	0.561341
0.434479	-0.47857	0.446221	-0.480826	0.501275	-0.463407	0.410587	-0.441841	-0.4512	0.536501	0.387064	-0.350385	-0.255028	-0.51467	-0.490304	0.452043	0.482452	0.4224	-0.402995	0.494041	-0.405065	-0.518406	0.398991	0.498724	0.383946	-0.398661	-0.505604	0.377578	0.465567	-0.326414	0.517302	0.205668
0.452984	-0.402968	0.471143	-0.425205	0.411059	-0.396485	0.471853	-0.500281	-0.459175	0.367447	0.496515	-0.430871	-0.435718	-0.385836	-0.405626	0.516043	0.446754	0.431213	-0.428278	0.411594	-0.466881	-0.434466	-0.583813	0.474614	0.492005	-0.433844	-0.43655	0.436617	0.527999	-0.493867	0.457988	0.121413
0.505632	-0.418855	0.260255	-0.464719	0.507316	-0.411694	0.413715	-0.449062	-0.465183	0.307298	0.46388	-0.452536	-0.395312	-0.452634	-0.400638	0.47709	0.396727	0.416702	-0.478919	0.464161	-0.458391	-0.479317	-0.522667	0.378663	0.48347	-0.403672	-0.388515	0.41096	0.465541	-0.476932	0.444163	0.469973
0.407187	-0.439168	0.341264	-0.394267	0.398278	-0.41456	0.524097	-0.450079	-0.446943	0.4598	0.421929	-0.483059	-0.422321	-0.418104	-0.49415	0.481389	0.360002	0.422252	-0.440199	0.438913	-0.47167	-0.430854	-0.435462	0.498462	0.376765	-0.400459	-0.448735	0.380555	0.513013	-0.514139	0.422748	0.681332
0.299055	-0.260046	0.344865	-0.372548	0.334105	-0.314221	0.376645	-0.37196	-0.319677	0.29879	0.359188	-0.323786	-0.341889	-0.357667	-0.334055	0.384764	0.36919	0.236989	-0.294904	0.377078	-0.348193	-0.292541	-0.243975	0.378962	0.380527	-0.332365	-0.385376	0.40629	0.403338	-0.33372	0.320893	0.114364
0.359643	-0.482965	0.320493	-0.427177	0.478031	-0.411305	0.456171	-0.461308	-0.467548	0.346673	0.503099	-0.400239	-0.446599	-0.444297	-0.48764	0.442074	0.542731	0.484532	-0.420638	0.413291	-0.516363	-0.497227	-0.189223	0.48995	0.389382	-0.48032	-0.444143	0.430994	0.445877	-0.408502	0.493985	0.584488
0.498103	-0.38797	0.243923	-0.438248	0.466914	-0.373554	0.4352	-0.391325	-0.506953	0.428859	0.458895	-0.516411	-0.420281	-0.518059	-0.392903	0.440401	0.602299	0.400206	-0.474789	0.460452	-0.40264	-0.443391	-0.557627	0.408615	0.407581	-0.488929	-0.439458	0.41118	0.424153	-0.431486	0.426736	0.436289
0.530483	-0.443043	0.466999	-0.438218	0.499527	-0.453116	0.536092	-0.509033	-0.44706	0.443475	0.425035	-0.410002	-0.50092	-0.511541	-0.405278	0.466711	0.545438	0.357691	-0.472119	0.409331	-0.488554	-0.523613	-0.451742	0.468453	0.473	-0.500352	-0.430469	0.412425	0.390885	-0.411129	0.46412	0.584609
0.522259	-0.402036	0.484645	-0.465045	0.38686	-0.480472	0.433256	-0.356364	-0.495036	0.324074	0.410644	-0.496502	-0.380301	-0.340669	-0.417414	0.465528	0.512825	0.393228	-0.403674	0.43904	-0.497508	-0.485035	-0.485612	0.462479	0.398229	-0.393513	-0.527114	0.450169	0.381289	-0.437975	0.486753	0.605532
0.476299	-0.499836	0.445739	-0.386515	0.486968	-0.425302	0.465378	-0.484198	-0.457502	0.530867	0.447174	-0.47518	-0.508909	-0.473342	-0.480393	0.423508	0.459648	0.498496	-0.413341	0.410596	-0.503252	-0.434239	-0.231444	0.46027	0.463526	-0.512211	-0.36709	0.418213	0.499456	-0.52854	0.39861	0.567156
0.42412	-0.462334	0.642452	-0.44147	0.326739	-0.481834	0.342353	-0.399708	-0.407993	0.459091	0.47858	-0.380603	-0.463458	-0.478599	-0.411834	0.397225	0.619087	0.356994	-0.479019	0.395919	-0.358868	-0.278525	-0.295597	0.409817	0.449552	-0.435588	-0.468039	0.505285	0.525903	-0.376779	0.524503	0.341194
0.44321	-0.384545	0.682653	-0.452986	0.402516	-0.460176	0.514478	-0.489937	-0.524187	0.342331	0.44027	-0.44144	-0.327745	-0.409252	-0.481352	0.425783	0.586727	0.416107	-0.389345	0.310217	-0.422709	-0.515374	-0.876092	0.525782	0.41499	-0.412655	-0.307575	0.396496	0.306539	-0.398412	0.321132	0.766838
0.445249	-0.493653	0.494309	-0.458819	0.406619	-0.384781	0.434098	-0.37651	-0.449945	0.449075	0.438794	-0.444881	-0.497101	-0.507959	-0.46379	0.41372	0.502492	0.448342	-0.42982	0.480313	-0.491328	-0.426087	-0.21425	0.490184	0.461058	-0.471581	-0.450168	0.503775	0.405887	-0.413038	0.511358	0.0899546
0.464144	-0.508239	0.43687	-0.418225	0.466988	-0.492885	0.485449	-0.484296	-0.456172	0.338047	0.462174	-0.507749	-0.53795	-0.454356	-0.511845	0.501148	0.508572	0.462771	-0.477756	0.46534	-0.412373	-0.449373	-0.219726	0.517772	0.504968	-0.434205	-0.431483	0.50888	0.507767	-0.505997	0.473006	0.464743
0.442235	-0.389752	0.317516	-0.398217	0.46033	-0.359388	0.495778	-0.430088	-0.425701	0.472164	0.382915	-0.488225	-0.428703	-0.463794	-0.473813	0.389851	0.39451	0.497834	-0.446285	0.390869	-0.406301	-0.465273	-0.474637	0.48394	0.441972	-0.382421	-0.362349	0.489057	0.387632	-0.494403	0.321143	0.141869
0.44701	-0.387532	0.414508	-0.378718	0.426979	-0.400034	0.48094	-0.42168	-0.399993	0.360195	0.396686	-0.438692	-0.439319	-0.49426	-0.455086	0.489596	0.435953	0.362772	-0.403303	0.391405	-0.396762	-0.490282	-0.0253726	0.418473	0.417562	-0.447183	-0.437518	0.404418	0.368468	-0.444607	0.392865	0.319856
0.397131	-0.406395	-0.137538	-0.422545	0.450346	-0.423302	0.496979	-0.399357	-0.33198	0.470637	0.371545	-0.442083	-0.464902	-0.453342	-0.509538	0.381715	0.36939	0.518011	-0.400824	0.385563	-0.49258	-0.466689	0.566149	0.442626	0.493789	-0.398028	-0.111427	0.473631	0.388245	-0.306754	0.477764	0.080523
0.487691	-0.476615	0.510992	-0.461677	0.510908	-0.418889	0.483964	-0.513818	-0.443677	0.368888	0.44066	-0.393911	-0.393214	-0.479559	-0.386818	0.467912	0.42542	0.488807	-0.399947	0.424898	-0.409022	-0.496474	-0.464552	0.462229	0.413856	-0.414615	-0.450205	0.512805	0.460894	-0.425413	0.485246	0.514246
0.428295	-0.358542	0.265384	-0.396474	0.439184	-0.454798	0.46286	-0.38241	-0.497446	0.557077	0.354874	-0.363174	-0.341428	-0.50034	-0.449943	0.416773	0.278918	0.40818	-0.461197	0.467814	-0.446488	-0.418799	0.355115	0.457532	0.368407	-0.464406	-0.34793	0.464518	0.464541	-0.48405	0.458001	0.0741516
0.417643	-0.447235	0.40183	-0.521604	0.493783	-0.466364	0.43807	-0.47767	-0.48816	0.386621	0.501365	-0.480889	-0.475349	-0.411369	-0.499697	0.455759	0.404185	0.421943	-0.430623	0.413053	-0.490473	-0.465407	-0.442945	0.480496	0.402491	-0.492413	-0.376442	0.417097	0.424644	-0.44617	0.486924	0.446589
0.334145	-0.353925	0.314968	-0.396289	0.34669	-0.334504	0.30256	-0.382676	-0.331221	0.517954	0.448504	-0.30736	-0.374513	-0.403756	-0.422098	0.382054	0.253795	0.433696	-0.365856	0.451997	-0.470787	-0.36073	0.309338	0.346819	0.31912	-0.322059	-0.320127	0.431279	0.362865	-0.260524	0.352758	0.496574
0.369996	-0.420709	0.133112	-0.443047	0.415838	-0.322179	0.464328	-0.428851	-0.412877	0.557122	0.392173	-0.356641	-0.347306	-0.366562	-0.290738	0.414881	0.526182	0.51682	-0.376044	0.382425	-0.400041	-0.273201	-0.808184	0.47282	0.433922	-0.477315	-0.420917	0.365599	0.429425	-0.485278	0.330611	0.622477
0.500038	-0.36063	0.507469	-0.454092	0.387999	-0.433691	0.420485	-0.41294	-0.467776	0.442519	0.454503	-0.467578	-0.389488	-0.454154	-0.49184	0.468798	0.372249	0.431447	-0.456472	0.476319	-0.408727	-0.411741	-0.237293	0.451866	0.462532	-0.479864	-0.451583	0.476199	0.468557	-0.433424	0.353844	0.479886
0.453503	-0.44321	0.576609	-0.499913	0.483587	-0.498084	0.515984	-0.522616	-0.451962	0.463846	0.471006	-0.426222	-0.388085	-0.396551	-0.461178	0.502682	0.548509	0.431185	-0.461838	0.452491	-0.382042	-0.44412	-0.704687	0.37545	0.471905	-0.446391	-0.542787	0.478317	0.499419	-0.363983	0.35771	0.515507
0.449428	-0.331155	0.506781	-0.401085	0.400106	-0.335273	0.325418	-0.334425	-0.389268	0.31769	0.383636	-0.389402	-0.413607	-0.357015	-0.383152	0.384595	0.394304	0.331772	-0.424432	0.420937	-0.443029	-0.434184	-0.720155	0.426259	0.45854	-0.374614	-0.35543	0.416152	0.415282	-0.387787	0.342428	0.0609615
0.487097	-0.420242	0.53095	-0.497258	0.437833	-0.517329	0.509893	-0.466344	-0.427994	0.371961	0.412373	-0.488344	-0.436429	-0.502835	-0.518388	0.435697	0.406003	0.395431	-0.453248	0.483127	-0.459661	-0.448037	-0.440607	0.470139	0.465337	-0.489638	-0.422419	0.457162	0.485657	-0.478731	0.461602	0.362441
0.439633	-0.44228	0.467101	-0.369433	0.518438	-0.495721	0.477168	-0.415326	-0.438546	0.456323	0.529594	-0.49283	-0.396517	-0.465506	-0.407382	0.530405	0.385136	0.391124	-0.503768	0.445081	-0.521442	-0.447407	-0.595736	0.420526	0.489674	-0.486089	-0.540001	0.447376	0.430077	-0.486712	0.407936	0.407123
0.448976	-0.422799	0.384082	-0.4031	0.38699	-0.323545	0.447408	-0.473685	-0.390772	0.349616	0.358639	-0.47926	-0.463419	-0.42782	-0.242615	0.458338	0.524815	0.489308	-0.418164	0.384749	-0.434102	-0.447783	-0.557947	0.382385	0.446351	-0.423542	-0.436071	0.446921	0.452383	-0.430833	0.444071	0.629352
0.433326	-0.517164	0.476525	-0.438331	0.462918	-0.491196	0.431839	-0.380471	-0.423536	0.397836	0.385468	-0.487915	-0.386314	-0.411016	-0.379485	0.446956	0.5262	0.477603	-0.44217	0.441534	-0.447033	-0.412736	-0.499358	0.454402	0.465803	-0.432533	-0.439962	0.50736	0.496278	-0.492679	0.394337	0.385062
0.452663	-0.417557	0.189582	-0.356762	0.53635	-0.497806	0.481861	-0.521512	-0.380922	0.427307	0.464077	-0.444049	-0.527753	-0.382284	-0.527445	0.499062	0.548526	0.493118	-0.409195	0.418512	-0.468516	-0.402014	-0.774195	0.468031	0.475425	-0.468154	-0.405878	0.484558	0.368649	-0.366615	0.373978	0.626142
0.449722	-0.536786	0.471621	-0.339254	0.447976	-0.531388	0.4287	-0.537706	-0.448506	0.545119	0.414176	-0.533494	-0.443052	-0.517571	-0.412836	0.464391	0.450867	0.546296	-0.415474	0.532088	-0.47018	-0.421001	-0.770471	0.494538	0.495669	-0.513657	-0.445359	0.422212	0.440559	-0.445265	0.424297	0.0835009
0.469226	-0.449911	0.357572	-0.471152	0.498819	-0.412578	0.511247	-0.497368	-0.492108	0.417017	0.504523	-0.500836	-0.473451	-0.488011	-0.444659	0.473463	0.442877	0.363924	-0.442488	0.420121	-0.471907	-0.433895	-0.480599	0.448777	0.420067	-0.483088	-0.417589	0.412004	0.47619	-0.431715	0.452544	0.350018
0.500028	-0.419982	0.378788	-0.489709	0.400134	-0.455992	0.461893	-0.417557	-0.482615	0.378305	0.442787	-0.420678	-0.501258	-0.436033	-0.383858	0.461688	0.623661	0.350198	-0.409622	0.466125	-0.421611	-0.419518	-0.80645	0.441583	0.451138	-0.427742	-0.56147	0.414815	0.417319	-0.417645	0.410399	0.138317
0.480157	-0.447599	0.394723	-0.47916	0.468363	-0.463947	0.448668	-0.465579	-0.470133	0.412063	0.461531	-0.496721	-0.390273	-0.446669	-0.433763	0.476853	0.370711	0.383643	-0.430791	0.435161	-0.44393	-0.41878	-0.686991	0.479006	0.408684	-0.462984	-0.447387	0.51245	0.438294	-0.458327	0.483215	0.157435
0.496686	-0.522013	0.436225	-0.400939	0.525182	-0.374669	0.467483	-0.428047	-0.438281	0.449253	0.473808	-0.440682	-0.459598	-0.515616	-0.388442	0.48636	0.320725	0.446446	-0.501337	0.504151	-0.466819	-0.467918	-0.409824	0.509599	0.50822	-0.420326	-0.439106	0.458603	0.46084	-0.476245	0.491544	0.474533
0.219203	-0.354328	0.146468	-0.366088	0.358479	-0.388088	0.353786	-0.279651	-0.466261	0.505216	0.312706	-0.392925	-0.319293	-0.434929	-0.167021	0.214325	-0.0127818	0.404411	-0.243595	0.338701	-0.275274	-0.292811	0.688848	0.305595	0.275307	-0.285539	-0.260361	0.35638	0.236628	-0.397341	0.454194	0.520766
0.239365	-0.38947	-0.143242	-0.373618	0.362222	-0.457332	0.329675	-0.352531	-0.376793	0.360319	0.378575	-0.381304	-0.326368	-0.39326	-0.223523	0.364314	0.272609	0.339499	-0.340927	0.299734	-0.273856	-0.360952	0.0876714	0.411364	0.307521	-0.296259	-0.106787	0.342491	0.264957	-0.344738	0.486153	-0.167982
0.497198	-0.545252	0.525295	-0.334249	0.490932	-0.375247	0.48623	-0.506132	-0.412557	0.544634	0.455326	-0.429034	-0.432122	-0.43335	-0.450302	0.464568	0.455025	0.279305	-0.432833	0.50729	-0.451644	-0.480925	-0.3488	0.431338	0.425375	-0.454001	-0.411119	0.46463	0.477727	-0.503749	0.494404	0.585622
0.449857	-0.515949	0.435682	-0.458706	0.441445	-0.398932	0.406865	-0.397905	-0.486404	0.444593	0.415556	-0.436111	-0.471887	-0.46233	-0.394476	0.475517	0.530128	0.481071	-0.428882	0.497875	-0.508744	-0.450477	-0.0986073	0.445915	0.419392	-0.510355	-0.499358	0.405314	0.458921	-0.445329	0.462747	0.442753
0.491804	-0.491701	0.337831	-0.443494	0.486036	-0.393166	0.485819	-0.429656	-0.440239	0.372909	0.409019	-0.412764	-0.488858	-0.493606	-0.415097	0.44895	0.200571	0.400874	-0.499386	0.451058	-0.479606	-0.389675	-0.0823128	0.444901	0.425563	-0.490304	-0.540792	0.497532	0.386518	-0.406135	0.513799	0.631428
0.482054	-0.418422	0.0250223	-0.450756	0.516113	-0.482036	0.42511	-0.419857	-0.427343	0.564133	0.441652	-0.544687	-0.50168	-0.477263	-0.549759	0.503574	0.323371	0.521826	-0.373191	0.447272	-0.404011	-0.438417	-0.354994	0.481578	0.412649	-0.472259	-0.27937	0.515505	0.411115	-0.462129	0.531702	0.0592198
0.488049	-0.390417	0.481913	-0.487145	0.479473	-0.432962	0.426109	-0.422811	-0.445729	0.348809	0.460105	-0.518834	-0.491986	-0.52251	-0.435655	0.470624	0.425499	0.438331	-0.417213	0.449465	-0.480741	-0.440189	-0.570921	0.433399	0.460618	-0.479134	-0.3074	0.501451	0.465597	-0.390421	0.398171	0.585103
0.414559	-0.469066	0.452496	-0.47948	0.45916	-0.381654	0.441047	-0.463382	-0.457114	0.475773	0.463631	-0.43203	-0.457764	-0.419737	-0.378899	0.494009	0.452918	0.509818	-0.52719	0.471696	-0.424762	-0.473166	-0.512826	0.450284	0.467488	-0.428093	-0.478657	0.522456	0.538916	-0.518533	0.484059	0.476834
0.418477	-0.419242	0.325161	-0.393699	0.484064	-0.458621	0.474313	-0.44096	-0.448904	0.437247	0.344767	-0.453182	-0.437236	-0.436665	-0.371856	0.427942	0.536431	0.515024	-0.413794	0.431637	-0.444385	-0.445403	-0.567033	0.50114	0.460808	-0.436716	-0.381323	0.428507	0.46289	-0.353897	0.47653	0.386466
0.470922	-0.394202	0.237497	-0.41778	0.456446	-0.428169	0.427794	-0.460758	-0.501862	0.377989	0.481491	-0.432495	-0.440404	-0.445416	-0.443115	0.434729	0.399303	0.399945	-0.390464	0.468446	-0.443302	-0.495129	-0.795321	0.407254	0.466842	-0.508161	-0.393226	0.439922	0.52203	-0.454509	0.372163	0.381488
0.451245	-0.457432	0.465884	-0.363094	0.382722	-0.376458	0.414508	-0.403587	-0.425499	0.450985	0.327853	-0.436825	-0.428351	-0.370853	-0.408937	0.388448	0.258739	0.442178	-0.391845	0.414277	-0.376028	-0.425238	-0.587914	0.458369	0.394565	-0.444393	-0.396086	0.46251	0.407838	-0.352014	0.296036	0.413867
0.388856	-0.440171	0.409888	-0.438664	0.51101	-0.433744	0.48053	-0.495963	-0.451282	0.356865	0.488961	-0.467843	-0.473082	-0.521109	-0.426081	0.498452	0.39292	0.428195	-0.454787	0.464244	-0.419026	-0.495998	-0.122418	0.467627	0.452157	-0.496435	-0.394241	0.492008	0.4199	-0.390313	0.414534	0.449537
0.44155	-0.475109	0.201559	-0.470299	0.457815	-0.492031	0.459521	-0.457746	-0.402963	0.40394	0.477292	-0.480576	-0.443884	-0.468565	-0.504085	0.488653	0.598829	0.401144	-0.496405	0.391992	-0.530056	-0.483531	-0.609574	0.463298	0.508145	-0.497833	-0.408609	0.452196	0.435617	-0.449407	0.390753	0.588645
0.415547	-0.427405	0.349812	-0.407183	0.414603	-0.372633	0.427905	-0.426514	-0.386856	0.536874	0.468797	-0.472118	-0.383424	-0.396535	-0.334577	0.421143	0.423328	0.484025	-0.478208	0.380254	-0.385547	-0.411881	-0.653022	0.513923	0.400937	-0.424178	-0.502945	0.459964	0.449269	-0.409954	0.424	0.376144
0.481697	-0.435158	0.426711	-0.467977	0.358373	-0.46052	0.442194	-0.457582	-0.447459	0.380904	0.40414	-0.453462	-0.44844	-0.475629	-0.471682	0.431752	0.396262	0.471595	-0.433022	0.462438	-0.467024	-0.433043	-0.558017	0.441889	0.486652	-0.389257	-0.500973	0.428412	0.424004	-0.40512	0.428078	0.422824
0.407045	-0.373299	0.303771	-0.460442	0.402671	-0.463376	0.505979	-0.432207	-0.446461	0.49532	0.408735	-0.460209	-0.471679	-0.395005	-0.363317	0.49418	0.419578	0.487879	-0.472101	0.45423	-0.462661	-0.4538	0.00504836	0.437685	0.450419	-0.453841	-0.442388	0.507011	0.406528	-0.468216	0.40056	0.639269
0.326229	-0.398012	0.404044	-0.433486	0.39724	-0.571345	0.506226	-0.426196	-0.462224	0.451794	0.320571	-0.419482	-0.386202	-0.436953	-0.499267	0.334333	-0.00631446	0.392364	-0.382463	0.474443	-0.464039	-0.398482	0.626169	0.343027	0.43058	-0.506748	-0.557499	0.386635	0.35378	-0.402922	0.365365	0.550154
0.455387	-0.474478	0.514533	-0.480784	0.438084	-0.379176	0.449683	-0.428494	-0.459745	0.3836	0.460092	-0.418175	-0.417868	-0.452954	-0.489921	0.506889	0.482664	0.4087	-0.509187	0.415775	-0.474495	-0.498681	-0.673347	0.425993	0.413749	-0.468209	-0.426201	0.514208	0.482321	-0.44665	0.454501	0.63155
0.533161	-0.447056	0.513127	-0.358334	0.475109	-0.373838	0.493061	-0.343053	-0.427132	0.385002	0.321071	-0.444708	-0.413671	-0.366159	-0.428538	0.406627	0.553618	0.454127	-0.46896	0.438098	-0.458931	-0.446373	0.0101846	0.406675	0.422584	-0.483238	-0.435726	0.394479	0.337012	-0.347203	0.427313	0.753298
0.446639	-0.408467	0.396144	-0.46885	0.468574	-0.523705	0.391427	-0.467491	-0.37326	0.496776	0.449887	-0.478467	-0.478193	-0.425282	-0.436749	0.413894	0.248903	0.517826	-0.414236	0.419163	-0.496235	-0.382121	-0.364625	0.527924	0.413439	-0.457382	-0.40138	0.481663	0.43775	-0.409784	0.458348	0.0764458
0.343197	-0.467516	0.59	-0.411137	0.425028	-0.488487	0.500542	-0.39493	-0.418563	0.316453	0.390583	-0.478837	-0.499582	-0.394387	-0.325228	0.518362	0.512283	0.396906	-0.447721	0.501595	-0.388781	-0.464034	-0.276673	0.466188	0.38389	-0.371591	-0.402265	0.38626	0.38688	-0.418746	0.442968	0.615784
0.474787	-0.410315	0.0195981	-0.45014	0.517835	-0.380819	0.491538	-0.364836	-0.39331	0.585985	0.45078	-0.497835	-0.436544	-0.470526	-0.512887	0.399516	0.484809	0.525092	-0.414054	0.424925	-0.486862	-0.411664	0.182852	0.452718	0.402946	-0.37434	-0.121388	0.460663	0.399635	-0.37189	0.505538	0.176209
0.450879	-0.415154	0.532021	-0.445054	0.445405	-0.399128	0.494743	-0.467106	-0.496911	0.297044	0.38369	-0.526739	-0.490137	-0.433822	-0.511884	0.521673	0.582115	0.556869	-0.480462	0.453179	-0.396363	-0.469778	0.344819	0.425814	0.461832	-0.480504	-0.45327	0.511441	0.43905	-0.448644	0.43528	0.610907
0.401971	-0.43148	0.530655	-0.450682	0.44073	-0.432722	0.4687	-0.423197	-0.421293	0.428125	0.405484	-0.438772	-0.414597	-0.403971	-0.385759	0.419084	0.535844	0.401292	-0.450987	0.40846	-0.484698	-0.465686	-0.538955	0.521056	0.498355	-0.444667	-0.504592	0.454251	0.466581	-0.423119	0.434534	0.344637
0.382578	-0.439759	0.223741	-0.398091	0.538401	-0.521979	0.52308	-0.417432	-0.463668	0.535999	0.495875	-0.427208	-0.45638	-0.46133	-0.559701	0.480761	0.296493	0.402537	-0.454608	0.512262	-0.418751	-0.395874	0.261863	0.461245	0.523515	-0.453638	-0.279331	0.438071	0.398024	-0.502569	0.458783	-0.0580484
0.464965	-0.380807	0.418172	-0.497729	0.445891	-0.422829	0.444456	-0.48156	-0.433226	0.431658	0.486114	-0.443728	-0.47414	-0.440286	-0.448386	0.4968	0.499175	0.40689	-0.464405	0.406863	-0.466974	-0.413023	-0.283547	0.474009	0.487503	-0.486394	-0.466386	0.462367	0.450946	-0.507832	0.490222	0.406988
0.477778	-0.48234	0.454548	-0.451902	0.403593	-0.453911	0.410484	-0.440469	-0.431033	0.423182	0.441854	-0.393	-0.435633	-0.404046	-0.366859	0.447555	0.284433	0.323204	-0.394199	0.388376	-0.493982	-0.43433	0.0266781	0.422978	0.428885	-0.469008	-0.412992	0.462546	0.464191	-0.472238	0.386892	0.504376
0.385167	-0.363433	0.369396	-0.429731	0.341102	-0.434487	0.426896	-0.392919	-0.360961	0.452846	0.345442	-0.427976	-0.422822	-0.423156	-0.273113	0.379636	0.320386	0.426152	-0.390368	0.41541	-0.30132	-0.399304	-0.257879	0.36416	0.419648	-0.382883	-0.265068	0.406283	0.415151	-0.331499	0.331337	0.0991487
0.498975	-0.42891	0.456998	-0.489417	0.44809	-0.422413	0.462615	-0.417597	-0.49797	0.471632	0.457831	-0.499037	-0.47114	-0.45062	-0.404135	0.50282	0.490355	0.412349	-0.417879	0.495628	-0.465638	-0.434049	-0.521592	0.509733	0.437525	-0.475982	-0.489908	0.410269	0.513999	-0.425046	0.392661	0.220132
0.424216	-0.42953	0.533616	-0.402328	0.41412	-0.426274	0.460904	-0.419807	-0.383694	0.42471	0.428093	-0.38371	-0.489093	-0.471041	-0.396623	0.48209	0.487622	0.518871	-0.500292	0.32735	-0.404238	-0.45805	-0.348956	0.440494	0.448884	-0.449995	-0.403427	0.462527	0.500562	-0.457677	0.411999	0.342312
0.489388	-0.408075	0.399226	-0.519062	0.478947	-0.417879	0.465433	-0.466359	-0.491655	0.356791	0.423486	-0.518986	-0.49553	-0.4578	-0.455407	0.399372	0.479674	0.446227	-0.44809	0.463419	-0.422245	-0.439544	-0.0881566	0.527284	0.394511	-0.442999	-0.533153	0.451181	0.452723	-0.420461	0.484601	0.514841
0.536024	-0.517902	0.616143	-0.543649	0.47418	-0.504255	0.52531	-0.524955	-0.489282	0.0714009	0.520294	-0.489834	-0.494298	-0.533274	-0.327471	0.442035	0.62712	0.411975	-0.461561	0.504122	-0.485267	-0.438149	-0.3974	0.437315	0.525443	-0.47925	-0.469158	0.451202	0.477215	-0.391002	0.526675	0.526561
0.402858	-0.441114	0.26749	-0.431414	0.409538	-0.502446	0.414337	-0.431368	-0.423466	0.487746	0.450401	-0.428453	-0.490381	-0.436393	-0.522076	0.456916	0.455456	0.502338	-0.480453	0.467743	-0.472398	-0.376802	-0.571692	0.449157	0.444003	-0.439554	-0.367302	0.531033	0.48131	-0.423669	0.428148	0.300993
0.481458	-0.484637	0.499561	-0.484483	0.487222	-0.443317	0.443472	-0.487712	-0.524862	0.515309	0.455787	-0.419633	-0.399226	-0.417677	-0.484189	0.444526	0.58939	0.464006	-0.46974	0.427686	-0.472657	-0.41361	-0.450602	0.433019	0.501866	-0.406127	-0.450224	0.471876	0.469511	-0.473015	0.387213	0.424223
0.42214	-0.365173	0.390218	-0.4073	0.423636	-0.374311	0.477434	-0.455545	-0.401104	0.496717	0.417306	-0.516151	-0.430357	-0.465363	-0.358951	0.515483	0.322487	0.546741	-0.505287	0.37416	-0.482488	-0.368734	-0.121719	0.486378	0.37577	-0.424007	-0.49188	0.509173	0.496809	-0.403847	0.416142	0.644236
0.488052	-0.481472	0.4917	-0.489242	0.518102	-0.536438	0.454148	-0.434054	-0.430011	0.551473	0.534806	-0.472075	-0.452801	-0.439258	-0.488187	0.434224	0.512717	0.465687	-0.545123	0.503097	-0.431469	-0.409213	-0.743186	0.436072	0.451101	-0.445011	-0.422957	0.43803	0.477921	-0.567503	0.501825	0.481121
0.407005	-0.381835	0.212769	-0.474512	0.41682	-0.395091	0.324559	-0.440967	-0.452347	0.385222	0.365194	-0.362293	-0.443307	-0.388078	-0.314909	0.359081	0.604193	0.5367	-0.4582	0.408435	-0.320184	-0.323453	-0.419641	0.359174	0.338449	-0.420685	-0.380479	0.344708	0.466447	-0.376999	0.389412	0.564735
0.32813	-0.327522	0.451091	-0.315431	0.378366	-0.299539	0.342856	-0.299466	-0.405053	0.227333	0.314541	-0.395337	-0.284887	-0.39792	-0.447864	0.25489	0.302752	0.30346	-0.368392	0.394157	-0.305599	-0.300337	-0.407004	0.356337	0.35595	-0.397873	-0.37341	0.320593	0.323185	-0.327943	0.25497	0.194316
0.374695	-0.450144	0.232734	-0.33454	0.426532	-0.351008	0.362068	-0.354557	-0.462289	0.514176	0.315396	-0.375103	-0.316303	-0.365265	-0.489278	0.455861	0.219577	0.39669	-0.315638	0.295791	-0.393256	-0.394555	-0.0688697	0.386658	0.463295	-0.37225	-0.139933	0.462816	0.469841	-0.267524	0.345771	0.0615547
0.454121	-0.409961	0.519679	-0.389687	0.489011	-0.364127	0.403041	-0.463514	-0.393509	0.398457	0.413652	-0.435578	-0.425712	-0.384257	-0.378986	0.402735	0.405265	0.47915	-0.462436	0.389399	-0.417492	-0.421017	-0.266749	0.432095	0.448023	-0.512308	-0.481521	0.406025	0.508005	-0.448758	0.425241	0.474378
0.51902	-0.491953	0.316488	-0.505458	0.372943	-0.432026	0.478025	-0.383034	-0.489323	0.37697	0.46296	-0.432213	-0.406848	-0.436174	-0.320254	0.390389	0.441985	0.377146	-0.52204	0.425743	-0.497325	-0.440038	-0.232561	0.382274	0.450921	-0.493241	-0.428994	0.449048	0.371269	-0.416102	0.475045	0.785623
0.377338	-0.446791	0.375823	-0.351975	0.465278	-0.453219	0.454092	-0.356001	-0.465727	0.434663	0.378013	-0.443629	-0.41007	-0.407897	-0.464496	0.326899	0.372318	0.478229	-0.420374	0.347084	-0.418882	-0.42026	-0.773719	0.446806	0.428311	-0.433402	-0.504654	0.36708	0.416381	-0.395661	0.329134	0.2384
0.398107	-0.489752	0.424782	-0.458987	0.456764	-0.423093	0.476587	-0.430725	-0.38717	0.468694	0.449882	-0.455965	-0.513534	-0.461364	-0.377014	0.446413	0.544423	0.391041	-0.468962	0.479271	-0.433154	-0.412791	-0.592012	0.374934	0.465772	-0.494486	-0.406648	0.453497	0.426976	-0.399696	0.399994	0.620138
0.447984	-0.456829	0.398201	-0.42188	0.366362	-0.45272	0.501305	-0.408683	-0.387917	0.342062	0.401182	-0.470528	-0.481181	-0.461796	-0.44486	0.520462	0.591126	0.521587	-0.443898	0.514028	-0.429089	-0.388957	0.0714601	0.39695	0.505478	-0.444282	-0.417443	0.392168	0.433704	-0.425852	0.405941	0.404441
0.328345	-0.498074	0.330177	-0.373397	0.4805	-0.49855	0.511062	-0.455213	-0.39237	0.173432	0.445372	-0.483439	-0.446024	-0.415215	-0.347496	0.493838	0.588937	0.45165	-0.451845	0.424578	-0.377299	-0.485859	-0.137956	0.383938	0.471619	-0.470282	-0.553187	0.48392	0.5219	-0.484934	0.342741	0.773499
0.402792	-0.460102	-0.160703	-0.371567	0.435015	-0.402052	0.49292	-0.417389	-0.395725	0.517332	0.452194	-0.499367	-0.465328	-0.438453	-0.517965	0.442772	0.503638	0.580028	-0.382774	0.47623	-0.496825	-0.398714	0.692234	0.421077	0.431396	-0.410743	-0.176885	0.42366	0.484236	-0.382113	0.517306	-0.287576
0.481673	-0.506146	0.474356	-0.450649	0.451865	-0.439483	0.454512	-0.514561	-0.502008	0.461425	0.487242	-0.448533	-0.445689	-0.434384	-0.361919	0.476845	0.459477	0.380808	-0.462906	0.479398	-0.461851	-0.455375	-0.352202	0.46698	0.507892	-0.463735	-0.421971	0.486614	0.512732	-0.506538	0.466641	0.369456
0.420975	-0.475156	0.235971	-0.416133	0.373861	-0.419596	0.474945	-0.427116	-0.396979	0.486586	0.449086	-0.399485	-0.517617	-0.486494	-0.350593	0.417236	0.461658	0.438322	-0.415178	0.475778	-0.390844	-0.404195	-0.56784	0.417133	0.430731	-0.449867	-0.478627	0.388751	0.413961	-0.364896	0.39456	0.416372
0.482177	-0.429103	0.346088	-0.468516	0.496058	-0.422143	0.467893	-0.522797	-0.470699	0.457616	0.374141	-0.445518	-0.426079	-0.519606	-0.454663	0.417529	0.577758	0.415068	-0.463092	0.490161	-0.482021	-0.417087	0.244032	0.505834	0.405614	-0.429299	-0.393056	0.407932	0.448849	-0.447348	0.404474	0.439278
0.40563	-0.506763	0.17976	-0.440321	0.454629	-0.407103	0.482105	-0.463424	-0.362712	0.504954	0.302213	-0.476314	-0.356818	-0.42938	-0.494392	0.351375	0.480019	0.395227	-0.383594	0.397504	-0.421499	-0.355672	-0.467667	0.509646	0.43146	-0.483785	-0.35272	0.415739	0.39363	-0.315354	0.446704	-0.0565904
0.411472	-0.440024	0.333236	-0.421422	0.462821	-0.445583	0.435984	-0.432386	-0.508403	0.454087	0.473609	-0.427642	-0.4045	-0.513826	-0.513514	0.421226	0.319822	0.412845	-0.487408	0.48805	-0.504418	-0.500577	-0.170347	0.518801	0.439506	-0.411386	-0.427544	0.442617	0.514505	-0.396925	0.416946	0.261994
0.419604	-0.495157	0.409803	-0.410414	0.463834	-0.488294	0.422239	-0.440846	-0.452574	0.51779	0.426109	-0.475283	-0.4807	-0.466475	-0.44665	0.374958	0.363328	0.401477	-0.369672	0.490604	-0.458438	-0.392819	-0.462467	0.403462	0.370109	-0.412442	-0.406432	0.432977	0.480764	-0.473485	0.435141	0.522162
0.520625	-0.471748	0.42114	-0.477642	0.473841	-0.409817	0.458642	-0.428457	-0.445693	0.43151	0.456501	-0.436632	-0.448984	-0.532003	-0.541662	0.433615	0.493404	0.47678	-0.422846	0.506811	-0.549115	-0.460672	-0.401438	0.456715	0.441234	-0.448479	-0.467146	0.431623	0.504323	-0.509659	0.40345	0.231173
0.422354	-0.458336	0.522521	-0.457325	0.47263	-0.462224	0.491404	-0.43861	-0.470889	0.473746	0.506324	-0.39812	-0.442687	-0.403197	-0.44942	0.398498	0.496116	0.441451	-0.488489	0.455518	-0.440346	-0.460952	-0.710217	0.500401	0.454735	-0.485228	-0.505149	0.472667	0.500596	-0.442724	0.443562	0.588498
0.477041	-0.501706	0.581768	-0.424069	0.411258	-0.457087	0.445855	-0.460803	-0.442723	0.581023	0.470265	-0.465101	-0.430615	-0.451698	-0.543191	0.474965	0.422802	0.485454	-0.386776	0.417715	-0.408203	-0.404158	-0.223146	0.457654	0.386305	-0.422055	-0.351865	0.487119	0.493186	-0.464843	0.388374	0.1321
0.47492	-0.462451	0.515962	-0.417982	0.51649	-0.499653	0.452183	-0.43919	-0.517249	0.300854	0.51871	-0.478106	-0.462533	-0.401831	-0.501571	0.489159	0.476167	0.432026	-0.420308	0.438373	-0.45176	-0.384772	-0.508498	0.490074	0.459905	-0.439522	-0.463666	0.419885	0.353793	-0.442538	0.439553	0.124727
0.385714	-0.42651	0.0454703	-0.454758	0.456893	-0.499441	0.487433	-0.486988	-0.469209	0.603253	0.483114	-0.514491	-0.515429	-0.48894	-0.513469	0.507277	0.387552	0.468759	-0.498655	0.45978	-0.524355	-0.435548	-0.462877	0.454064	0.461029	-0.442953	-0.291311	0.499826	0.475348	-0.444142	0.55958	0.109929
0.532132	-0.48824	0.499673	-0.432355	0.397904	-0.445405	0.438635	-0.550804	-0.448006	0.559824	0.497165	-0.462004	-0.437325	-0.441447	-0.284049	0.420012	0.564601	0.446381	-0.41434	0.554808	-0.549625	-0.428356	-0.236722	0.467888	0.38081	-0.437407	-0.449993	0.441578	0.403549	-0.455577	0.431878	0.361751
0.410248	-0.486316	0.409625	-0.408861	0.379278	-0.446846	0.480616	-0.363962	-0.474811	0.325767	0.396166	-0.492095	-0.485364	-0.484305	-0.464511	0.396152	0.428142	0.403842	-0.477504	0.353538	-0.482497	-0.484703	-0.239156	0.388512	0.474216	-0.441269	-0.396397	0.465152	0.358875	-0.453223	0.37446	0.227917
0.47305	-0.435619	0.525159	-0.481249	0.485319	-0.380908	0.373493	-0.500002	-0.395292	0.390635	0.469881	-0.483567	-0.478512	-0.462433	-0.511261	0.358583	0.474111	0.381521	-0.499834	0.468881	-0.474244	-0.436307	-0.633605	0.433795	0.421911	-0.433211	-0.428988	0.458301	0.37618	-0.397893	0.423398	0.49296
0.497899	-0.421927	0.56402	-0.416218	0.454024	-0.475889	0.522618	-0.447213	-0.455945	0.324269	0.513219	-0.404318	-0.514392	-0.467801	-0.385472	0.450291	0.422425	0.37409	-0.434805	0.531188	-0.496857	-0.442283	0.247535	0.426641	0.447571	-0.503357	-0.380453	0.472885	0.32344	-0.402174	0.466342	0.497213
0.488469	-0.545658	0.103033	-0.428232	0.521573	-0.355786	0.416625	-0.415114	-0.50525	0.377802	0.451719	-0.460413	-0.440613	-0.517564	-0.412399	0.495773	0.299103	0.536064	-0.46776	0.460127	-0.493865	-0.488229	-0.724105	0.441914	0.486154	-0.492749	-0.343202	0.478047	0.401639	-0.407966	0.463012	-0.072282
0.415621	-0.371483	0.265113	-0.471595	0.402143	-0.428286	0.468449	-0.429845	-0.493023	0.500419	0.386415	-0.394995	-0.421072	-0.50198	-0.422556	0.488621	0.31265	0.488548	-0.462516	0.456166	-0.422172	-0.463504	-0.153296	0.391814	0.516679	-0.388151	-0.44767	0.467407	0.484615	-0.431606	0.496653	0.475066
0.511383	-0.458657	0.52864	-0.412145	0.463204	-0.411277	0.464301	-0.50031	-0.462303	0.455513	0.456559	-0.463226	-0.417507	-0.445805	-0.49315	0.441115	0.553946	0.397142	-0.509004	0.424894	-0.428997	-0.50094	-0.566753	0.471338	0.43583	-0.423775	-0.503183	0.419861	0.457587	-0.427165	0.423033	0.508304
0.4558	-0.508869	0.341744	-0.466418	0.485198	-0.446239	0.44194	-0.442345	-0.416272	0.421654	0.47479	-0.448257	-0.53615	-0.478196	-0.363601	0.473207	0.395239	0.429691	-0.435465	0.438151	-0.497391	-0.44844	-0.439618	0.454382	0.481399	-0.471185	-0.470328	0.407372	0.490009	-0.483631	0.504012	0.558136
0.447358	-0.46398	0.56214	-0.423296	0.448963	-0.460671	0.349274	-0.41951	-0.469972	0.242527	0.417273	-0.475639	-0.456469	-0.453437	-0.347689	0.43724	0.500041	0.33998	-0.399071	0.378467	-0.437571	-0.411663	-0.436981	0.386185	0.480757	-0.47298	-0.497914	0.44951	0.323641	-0.40369	0.51833	0.477482
0.435769	-0.440286	0.454479	-0.392913	0.420859	-0.414376	0.401067	-0.455251	-0.49911	0.46401	0.358884	-0.455504	-0.465124	-0.49017	-0.332692	0.44991	0.49932	0.401067	-0.490938	0.449141	-0.485853	-0.481033	-0.623319	0.39466	0.480223	-0.470561	-0.489429	0.442805	0.511407	-0.453981	0.382478	0.504484
0.383557	-0.378643	0.438613	-0.388592	0.448729	-0.390981	0.464024	-0.477209	-0.41477	0.380721	0.451645	-0.385642	-0.384231	-0.415783	-0.389864	0.399599	0.316609	0.311435	-0.442006	0.459753	-0.349414	-0.398716	-0.73501	0.403697	0.324055	-0.452561	-0.472257	0.463982	0.392008	-0.38281	0.450313	0.606167
0.448141	-0.461625	0.522638	-0.450393	0.452281	-0.392323	0.446521	-0.43114	-0.498059	0.391448	0.396845	-0.499093	-0.381465	-0.471617	-0.511	0.470603	0.407451	0.511778	-0.405254	0.490266	-0.401679	-0.457586	-0.580524	0.505433	0.501883	-0.471552	-0.512219	0.467312	0.464454	-0.504982	0.487291	0.34259
0.478399	-0.498846	0.528429	-0.473849	0.4628	-0.442152	0.491483	-0.385527	-0.373529	0.250521	0.465175	-0.46183	-0.387186	-0.463194	-0.489715	0.44513	0.311443	0.4538	-0.467401	0.430301	-0.409194	-0.442292	-0.290278	0.39999	0.392721	-0.36129	-0.408438	0.389363	0.4327	-0.479822	0.379307	0.426556
0.384332	-0.394755	0.389308	-0.268488	0.411461	-0.309689	0.421946	-0.414395	-0.41707	0.399755	0.385328	-0.418452	-0.374876	-0.364563	-0.359258	0.397875	0.126903	0.355606	-0.420734	0.39003	-0.483898	-0.361096	-0.701406	0.454232	0.346795	-0.396099	-0.286443	0.336736	0.418021	-0.401789	0.310388	0.680267
0.508406	-0.469157	0.403707	-0.52289	0.502325	-0.458027	0.498132	-0.486368	-0.431351	0.406747	0.481181	-0.441047	-0.430275	-0.508231	-0.427161	0.482911	0.355815	0.457239	-0.4583	0.42633	-0.425436	-0.441884	-0.117154	0.434076	0.430755	-0.433399	-0.524414	0.43557	0.530553	-0.518361	0.402587	0.564269
0.424081	-0.414215	0.512212	-0.376262	0.382953	-0.454551	0.431692	-0.400244	-0.360053	0.422823	0.512646	-0.41368	-0.485306	-0.363561	-0.464792	0.511188	0.364859	0.411068	-0.418502	0.493583	-0.537834	-0.503022	-0.648483	0.412352	0.477204	-0.457867	-0.357119	0.41565	0.464809	-0.430038	0.318686	0.656662
0.485806	-0.435518	0.397515	-0.419659	0.460499	-0.451773	0.510388	-0.479107	-0.433055	0.369317	0.482193	-0.485742	-0.45417	-0.399292	-0.494475	0.523718	0.58725	0.530518	-0.401993	0.42091	-0.425711	-0.435806	-0.733183	0.429162	0.45008	-0.445788	-0.408255	0.460724	0.455056	-0.359282	0.416077	0.262997
0.390267	-0.449125	0.360952	-0.331073	0.445261	-0.490568	0.480359	-0.394697	-0.417898	0.443746	0.329386	-0.458624	-0.491656	-0.509247	-0.20689	0.424062	0.383527	0.392069	-0.448756	0.475624	-0.484757	-0.387754	0.183243	0.355425	0.401724	-0.451656	-0.380162	0.324052	0.347274	-0.377183	0.372044	0.445528
0.467094	-0.4477	0.358603	-0.428364	0.449669	-0.479758	0.495649	-0.462807	-0.448171	0.370125	0.490101	-0.500681	-0.528848	-0.528208	-0.469192	0.4433	0.422695	0.40179	-0.495046	0.414276	-0.412992	-0.388997	-0.52519	0.467013	0.406601	-0.462894	-0.372351	0.449217	0.479802	-0.438118	0.48106	0.591497
0.235031	-0.372227	0.219907	-0.334706	0.353417	-0.314302	0.200122	-0.313619	-0.304643	0.337187	0.308997	-0.174717	-0.174139	-0.336917	-0.252079	0.145148	0.0905612	0.400666	-0.29496	0.328997	-0.216056	-0.303259	0.217679	0.33622	0.404886	-0.273893	-0.251258	0.355592	0.141653	-0.250115	0.280472	0.0423321
0.414025	-0.425152	0.361468	-0.472967	0.459951	-0.431511	0.435354	-0.404811	-0.467289	0.390593	0.366163	-0.46309	-0.463144	-0.415127	-0.478394	0.42124	0.392714	0.434992	-0.399887	0.412702	-0.451698	-0.398443	-0.270585	0.461228	0.380148	-0.429533	-0.460699	0.389334	0.41526	-0.3605	0.426426	0.345409
0.410127	-0.510348	0.378048	-0.463324	0.475693	-0.483383	0.439509	-0.519741	-0.481186	0.404782	0.502074	-0.417728	-0.507131	-0.425002	-0.427445	0.477336	0.428017	0.472002	-0.532138	0.439349	-0.433395	-0.491811	-0.164821	0.392345	0.411049	-0.454736	-0.481766	0.41889	0.401096	-0.529526	0.413646	0.366154
0.404051	-0.373552	0.328978	-0.358339	0.354844	-0.422674	0.443597	-0.455871	-0.471913	0.444633	0.379739	-0.356179	-0.463273	-0.406748	-0.347626	0.409418	0.383562	0.37251	-0.383513	0.4358	-0.362565	-0.397684	-0.645336	0.334703	0.446048	-0.383142	-0.357488	0.364307	0.43613	-0.4864	0.359863	0.176348
0.468575	-0.461612	0.0796708	-0.492799	0.455902	-0.426586	0.508352	-0.426332	-0.385875	0.516989	0.424855	-0.500149	-0.477763	-0.455735	-0.426699	0.383703	0.22075	0.530302	-0.421522	0.436825	-0.408233	-0.437146	-0.0353568	0.461678	0.451551	-0.36957	-0.272308	0.496354	0.448698	-0.493508	0.453945	0.293563
0.472175	-0.468168	0.554853	-0.512289	0.49732	-0.360549	0.406343	-0.397475	-0.470979	0.449851	0.451227	-0.446885	-0.469117	-0.431214	-0.495085	0.376158	0.453525	0.382696	-0.3513	0.469942	-0.386594	-0.457785	-0.659304	0.410195	0.411622	-0.395682	-0.476431	0.440199	0.389662	-0.361757	0.439593	0.28721
0.507646	-0.468444	0.556853	-0.507947	0.440901	-0.43568	0.433767	-0.50114	-0.457517	0.348121	0.449157	-0.433058	-0.385523	-0.445181	-0.404768	0.42166	0.510805	0.472147	-0.447279	0.402137	-0.530318	-0.437518	-0.419313	0.417663	0.444748	-0.408998	-0.5376	0.428217	0.483244	-0.428929	0.472671	0.583885
0.398873	-0.504569	0.458555	-0.423127	0.493505	-0.427923	0.399505	-0.475275	-0.466864	0.539576	0.481895	-0.425228	-0.438446	-0.425294	-0.346001	0.486574	0.53605	0.375155	-0.403219	0.431912	-0.485595	-0.469138	-0.071291	0.394254	0.48448	-0.47569	-0.416208	0.390923	0.486238	-0.435536	0.438532	0.501959
0.448955	-0.510145	0.339017	-0.499025	0.460587	-0.456362	0.439175	-0.411136	-0.402061	0.511432	0.435893	-0.45607	-0.496917	-0.392941	-0.415154	0.451687	0.481617	0.285146	-0.493549	0.435032	-0.395465	-0.438484	-0.615819	0.452906	0.4272	-0.433069	-0.392553	0.402484	0.494583	-0.419649	0.409415	0.168232
0.509199	-0.522375	0.391547	-0.445781	0.558448	-0.405998	0.489986	-0.518586	-0.497742	0.527232	0.459077	-0.433996	-0.527948	-0.526702	-0.546785	0.454816	0.349651	0.442488	-0.434097	0.467573	-0.473844	-0.485879	0.0373885	0.39699	0.497344	-0.450682	-0.430528	0.509693	0.420417	-0.401329	0.43226	0.183213
0.347311	-0.363481	0.658512	-0.394174	0.467985	-0.361256	0.447585	-0.422264	-0.397823	0.535182	0.405595	-0.454495	-0.504445	-0.356475	-0.503381	0.396117	0.360951	0.241498	-0.373672	0.358399	-0.383973	-0.472248	-0.0954603	0.455239	0.463014	-0.434823	-0.273822	0.346289	0.441477	-0.403082	0.293371	0.277476
0.430128	-0.487017	0.341506	-0.47569	0.402471	-0.452214	0.410064	-0.46382	-0.422962	0.477994	0.379478	-0.46006	-0.440023	-0.394993	-0.403083	0.396422	0.482653	0.4615	-0.381444	0.464711	-0.452799	-0.414557	-0.549742	0.410416	0.372854	-0.389349	-0.397319	0.441264	0.434006	-0.424981	0.348907	0.350283
0.489388	-0.428361	0.397098	-0.507758	0.484546	-0.466989	0.455326	-0.439299	-0.423098	0.319458	0.480371	-0.444901	-0.432702	-0.399621	-0.481167	0.403542	0.391194	0.397864	-0.413749	0.437559	-0.466133	-0.449888	-0.285015	0.408292	0.450078	-0.451675	-0.449944	0.45095	0.466366	-0.435297	0.422113	0.2996
0.5062	-0.496143	0.497023	-0.520015	0.475383	-0.468732	0.508042	-0.449355	-0.392442	0.478196	0.411305	-0.491664	-0.469789	-0.522556	-0.535421	0.484448	0.446737	0.497704	-0.464852	0.454892	-0.482278	-0.470578	-0.259211	0.435797	0.428335	-0.438987	-0.418735	0.429331	0.444895	-0.453497	0.418104	0.247387
0.429702	-0.391011	0.414428	-0.404756	0.348948	-0.427009	0.396365	-0.443515	-0.397989	0.357048	0.431842	-0.337955	-0.402919	-0.42604	-0.454535	0.420117	0.470907	0.310222	-0.403832	0.452104	-0.392832	-0.410543	-0.769575	0.371689	0.456554	-0.364426	-0.395519	0.354404	0.32875	-0.496394	0.335184	0.225505
0.489909	-0.413874	0.21476	-0.423279	0.419002	-0.363544	0.39965	-0.506169	-0.491404	0.41465	0.475645	-0.480522	-0.401351	-0.442326	-0.377735	0.399031	0.509815	0.406207	-0.414593	0.40009	-0.408235	-0.428345	-0.548423	0.477918	0.446022	-0.453332	-0.499922	0.43981	0.492192	-0.416853	0.425246	0.537165
0.407758	-0.217545	0.422024	-0.352346	0.42503	-0.370128	0.315033	-0.284459	-0.279391	0.350463	0.304753	-0.378106	-0.360724	-0.353476	-0.302315	0.40626	0.269961	0.478198	-0.282461	0.293475	-0.367008	-0.357396	-0.250477	0.326663	0.315235	-0.356624	-0.307475	0.416281	0.386028	-0.224646	0.300901	0.422566
0.411668	-0.486012	-0.0898578	-0.423062	0.436432	-0.435519	0.417888	-0.443239	-0.36904	0.506378	0.356012	-0.450373	-0.53614	-0.428265	-0.531987	0.40875	0.339715	0.424824	-0.407261	0.495659	-0.433853	-0.506815	-0.481643	0.499661	0.401739	-0.371865	-0.266321	0.533891	0.34384	-0.366733	0.53392	0.112221
0.426517	-0.420659	0.48085	-0.350339	0.386369	-0.361455	0.347447	-0.382521	-0.44703	0.248054	0.362026	-0.384747	-0.264425	-0.335597	-0.357789	0.385551	0.297273	0.426065	-0.369424	0.383095	-0.392348	-0.299021	-0.835509	0.405394	0.41644	-0.425993	-0.443125	0.380854	0.32804	-0.416527	0.22531	0.687405
0.529624	-0.484541	0.480556	-0.47624	0.490999	-0.490153	0.487851	-0.481737	-0.536294	0.209429	0.432623	-0.439118	-0.408913	-0.433219	-0.52317	0.49793	0.199254	0.540692	-0.463123	0.431823	-0.402407	-0.477715	-0.763909	0.521237	0.520643	-0.503581	-0.399446	0.443705	0.494307	-0.538524	0.403461	0.395455
0.492428	-0.465251	0.519367	-0.465493	0.440655	-0.409486	0.441131	-0.438169	-0.477184	0.372004	0.421303	-0.401331	-0.36946	-0.45595	-0.413263	0.434305	0.387345	0.31051	-0.459096	0.387596	-0.44872	-0.448205	-0.353542	0.441288	0.408821	-0.404973	-0.510403	0.473377	0.37705	-0.526985	0.461384	0.19246
0.441121	-0.460244	0.383544	-0.41682	0.436691	-0.391913	0.416358	-0.422022	-0.508066	0.353914	0.398202	-0.446773	-0.484836	-0.489116	-0.323903	0.487633	0.534526	0.465563	-0.412833	0.41247	-0.416919	-0.39736	-0.563799	0.395546	0.421099	-0.408093	-0.477305	0.414638	0.397265	-0.451763	0.40826	0.619209
0.415566	-0.405777	0.612885	-0.402533	0.434135	-0.420906	0.434999	-0.427142	-0.449064	0.381119	0.48437	-0.399414	-0.473691	-0.516581	-0.40683	0.503338	0.142411	0.453494	-0.45964	0.481451	-0.441016	-0.512846	-0.594612	0.502917	0.434131	-0.363309	-0.481163	0.459321	0.504676	-0.397723	0.336275	0.658202
0.475554	-0.424938	0.385937	-0.433276	0.446498	-0.450878	0.436734	-0.38248	-0.457444	0.45777	0.429572	-0.465631	-0.431114	-0.416821	-0.452369	0.412271	0.48776	0.519257	-0.394481	0.442615	-0.441989	-0.464275	-0.371756	0.43573	0.474413	-0.432697	-0.370663	0.451001	0.337722	-0.362561	0.447365	0.581986
0.49527	-0.458821	0.448438	-0.428878	0.521587	-0.495817	0.467057	-0.413791	-0.437541	0.443079	0.426292	-0.52165	-0.487108	-0.432023	-0.379936	0.455793	0.520559	0.428686	-0.434231	0.418185	-0.508079	-0.501326	-0.400898	0.523658	0.429808	-0.49495	-0.457119	0.46369	0.398544	-0.494326	0.498213	0.57398
0.531755	-0.430763	0.438846	-0.409043	0.443767	-0.477172	0.479738	-0.453414	-0.397281	0.458402	0.487769	-0.454496	-0.507291	-0.487279	-0.430389	0.488136	0.491175	0.436333	-0.520099	0.45379	-0.500559	-0.492649	-0.448463	0.425398	0.403976	-0.46322	-0.507721	0.449118	0.438469	-0.46258	0.378827	0.400705
0.4479	-0.498655	0.449647	-0.484251	0.497319	-0.427092	0.486231	-0.434476	-0.400692	0.433786	0.441196	-0.496325	-0.391062	-0.494658	-0.349783	0.468496	0.467506	0.459108	-0.517158	0.453511	-0.377081	-0.445271	-0.449123	0.433881	0.491251	-0.491714	-0.427656	0.438704	0.522129	-0.390455	0.422775	0.489317
0.512766	-0.499774	0.233941	-0.450279	0.413324	-0.497833	0.479567	-0.444695	-0.461104	0.340698	0.508797	-0.419133	-0.392202	-0.389812	-0.371165	0.476563	0.207119	0.518055	-0.457864	0.494207	-0.389283	-0.426278	-0.0442484	0.373738	0.509197	-0.439301	-0.474785	0.459435	0.441118	-0.384661	0.437055	0.684468
0.384226	-0.509793	0.618127	-0.506821	0.409326	-0.488145	0.421775	-0.492189	-0.504828	0.076842	0.417957	-0.369259	-0.453476	-0.378615	-0.379535	0.379197	0.461115	0.444884	-0.461338	0.333986	-0.388168	-0.387935	-0.445771	0.478925	0.398531	-0.453406	-0.31858	0.337689	0.366163	-0.456902	0.428635	0.347833
0.482135	-0.422365	0.447845	-0.429058	0.480545	-0.365721	0.452887	-0.42442	-0.397467	0.446282	0.417475	-0.451765	-0.413168	-0.453591	-0.484176	0.415255	0.391541	0.376091	-0.44658	0.481021	-0.407062	-0.430831	-0.355101	0.44719	0.408178	-0.38823	-0.456556	0.377509	0.460636	-0.472762	0.414316	0.434494
0.393296	-0.429019	0.172157	-0.400338	0.394846	-0.446773	0.426384	-0.419023	-0.361742	0.480563	0.367942	-0.420285	-0.329026	-0.440434	-0.41889	0.348056	0.462434	0.449464	-0.456609	0.305751	-0.352223	-0.323352	0.052906	0.369094	0.358988	-0.327219	-0.412583	0.339771	0.43513	-0.477073	0.434436	0.350812
0.411041	-0.472816	0.457147	-0.44889	0.484258	-0.420867	0.384545	-0.473198	-0.371987	0.463598	0.462876	-0.477901	-0.417762	-0.408726	-0.491918	0.419089	0.321653	0.42248	-0.390767	0.505482	-0.413814	-0.425119	-0.534206	0.486289	0.439465	-0.37261	-0.417908	0.39521	0.380233	-0.451554	0.455909	0.320608
0.373666	-0.463541	0.423161	-0.438355	0.463192	-0.392275	0.45615	-0.383222	-0.502814	0.408176	0.359173	-0.470066	-0.373618	-0.430463	-0.44348	0.431837	0.471203	0.48853	-0.377693	0.466944	-0.423594	-0.432039	0.39409	0.407713	0.426533	-0.415934	-0.34132	0.391408	0.510007	-0.490237	0.373591	0.385998
0.346094	-0.436059	0.349828	-0.446591	0.423354	-0.502695	0.433274	-0.40971	-0.478481	0.495254	0.441735	-0.432533	-0.408843	-0.44916	-0.434719	0.459596	0.454641	0.42696	-0.472833	0.467765	-0.402888	-0.415224	-0.223869	0.505006	0.449427	-0.421664	-0.458411	0.451043	0.387569	-0.481207	0.446009	0.495247
0.467924	-0.505011	0.438254	-0.363351	0.446028	-0.448514	0.486961	-0.47154	-0.495547	0.523799	0.497543	-0.433738	-0.404283	-0.440662	-0.415132	0.40726	0.557382	0.389998	-0.50982	0.430487	-0.354449	-0.430337	-0.452292	0.44277	0.45589	-0.39031	-0.515956	0.470153	0.406042	-0.375111	0.487611	0.305835
0.392685	-0.516582	0.164737	-0.448735	0.523322	-0.491402	0.420318	-0.556384	-0.46289	0.297147	0.465081	-0.39155	-0.35874	-0.509614	-0.517334	0.513445	0.588079	0.473139	-0.457362	0.454616	-0.534029	-0.451477	-0.35508	0.570558	0.475447	-0.493295	-0.601808	0.43327	0.511594	-0.454778	0.47195	0.0387042
0.463706	-0.389693	0.632422	-0.476949	0.501555	-0.399651	0.383619	-0.389197	-0.379755	0.473245	0.473406	-0.398549	-0.374808	-0.424991	-0.333391	0.410548	0.448353	0.455736	-0.461638	0.370511	-0.499677	-0.490993	-0.549234	0.454339	0.455249	-0.447048	-0.419106	0.444846	0.413492	-0.500798	0.400208	0.277424
0.472423	-0.504804	0.541821	-0.416772	0.532161	-0.454349	0.539924	-0.512937	-0.416098	0.527044	0.446155	-0.472171	-0.453776	-0.457558	-0.406417	0.522293	0.491646	0.466754	-0.521583	0.459548	-0.453873	-0.491773	-0.13304	0.489512	0.447536	-0.511125	-0.39215	0.47416	0.453586	-0.498599	0.447475	0.384606
